{"learner":{"attributes":{"scikit_learn":"{\"_estimator_type\": \"regressor\"}"},"feature_names":["AR","lambda","aoa_root (deg)","twist (deg)","op_speed"],"feature_types":["float","float","float","float","float"],"gradient_booster":{"model":{"gbtree_model_param":{"num_parallel_tree":"1","num_trees":"100"},"iteration_indptr":[0,1,2,3,4,5,6,7,8,9,10,11,12,13,14,15,16,17,18,19,20,21,22,23,24,25,26,27,28,29,30,31,32,33,34,35,36,37,38,39,40,41,42,43,44,45,46,47,48,49,50,51,52,53,54,55,56,57,58,59,60,61,62,63,64,65,66,67,68,69,70,71,72,73,74,75,76,77,78,79,80,81,82,83,84,85,86,87,88,89,90,91,92,93,94,95,96,97,98,99,100],"tree_info":[0,0,0,0,0,0,0,0,0,0,0,0,0,0,0,0,0,0,0,0,0,0,0,0,0,0,0,0,0,0,0,0,0,0,0,0,0,0,0,0,0,0,0,0,0,0,0,0,0,0,0,0,0,0,0,0,0,0,0,0,0,0,0,0,0,0,0,0,0,0,0,0,0,0,0,0,0,0,0,0,0,0,0,0,0,0,0,0,0,0,0,0,0,0,0,0,0,0,0,0],"trees":[{"base_weights":[1.12030625E-8,-5.5254683E-2,5.5254705E-2,-1.5636529E-1,-3.7482E-2,1.9444602E-2,7.2737046E-2,-2.1972433E-2,-5.9872285E-2,-8.016977E-2,-2.4804797E-3,-2.7175197E-2,3.012732E-2,8.0835216E-2,-9.750754E-3,-2.0996213E-2,-9.266393E-2,3.438578E-2,-1.5146474E-2,2.914518E-4,-2.055627E-2,5.072439E-2,1.9880004E-2,8.488853E-2,4.7862615E-2,1.4559701E-3,-1.3180116E-2,-2.9753612E-2,-5.0677966E-2,4.9902793E-2,2.5138184E-3,-7.72085E-3,-4.478993E-2,1.7019422E-3,-2.378042E-3,1.6281278E-3,5.8698434E-2,2.3321835E-2,-1.661261E-3,6.2481143E-2,9.314484E-2,4.8548924E-3,2.0272981E-2,-3.7874312E-3,6.554729E-3,-1.6839057E-2,-4.330364E-3,4.5777755E-3,2.3837974E-2,-3.540695E-4,2.0393953E-3,-5.3176857E-3,6.28078E-4,-1.520762E-2,-3.1772063E-3,2.1448802E-2,7.900418E-3,-1.1104748E-3,7.7646757E-3,-9.4465615E-4,1.9708872E-4,1.9910496E-2,2.3752572E-3,2.9627115E-2,1.5283382E-2],"categories":[],"categories_nodes":[],"categories_segments":[],"categories_sizes":[],"default_left":[0,0,0,0,0,0,0,0,0,0,0,0,0,0,0,0,0,0,0,0,0,0,0,0,0,0,0,0,0,0,0,0,0,0,0,0,0,0,0,0,0,0,0,0,0,0,0,0,0,0,0,0,0,0,0,0,0,0,0,0,0,0,0,0,0],"id":0,"left_children":[1,3,5,7,9,11,13,-1,-1,15,17,19,21,23,-1,25,27,29,31,33,-1,35,37,39,41,43,-1,-1,45,47,49,51,53,-1,-1,-1,55,57,59,61,63,-1,-1,-1,-1,-1,-1,-1,-1,-1,-1,-1,-1,-1,-1,-1,-1,-1,-1,-1,-1,-1,-1,-1,-1],"loss_changes":[4.213252E-1,1.1813256E-1,4.1782722E-2,2.1299854E-2,8.944935E-2,1.2771347E-2,4.1830733E-2,0E0,0E0,1.801616E-2,1.6397052E-2,5.69811E-3,3.2128934E-3,1.6838908E-3,0E0,3.1539483E-3,9.914637E-4,4.3255724E-3,5.377334E-3,2.2188232E-4,0E0,1.848652E-3,1.1508646E-3,1.0252893E-3,3.2781363E-3,1.4244411E-3,0E0,0E0,1.7782114E-4,4.9312813E-3,7.132688E-5,2.1973173E-3,4.7237892E-4,0E0,0E0,0E0,1.8805638E-4,9.952905E-4,1.2414396E-5,2.2318065E-3,8.8974833E-4,0E0,0E0,0E0,0E0,0E0,0E0,0E0,0E0,0E0,0E0,0E0,0E0,0E0,0E0,0E0,0E0,0E0,0E0,0E0,0E0,0E0,0E0,0E0,0E0],"parents":[2147483647,0,0,1,1,2,2,3,3,4,4,5,5,6,6,9,9,10,10,11,11,12,12,13,13,15,15,16,16,17,17,18,18,19,19,21,21,22,22,23,23,24,24,25,25,28,28,29,29,30,30,31,31,32,32,36,36,37,37,38,38,39,39,40,40],"right_children":[2,4,6,8,10,12,14,-1,-1,16,18,20,22,24,-1,26,28,30,32,34,-1,36,38,40,42,44,-1,-1,46,48,50,52,54,-1,-1,-1,56,58,60,62,64,-1,-1,-1,-1,-1,-1,-1,-1,-1,-1,-1,-1,-1,-1,-1,-1,-1,-1,-1,-1,-1,-1,-1,-1],"split_conditions":[1.134684E3,1.37598E1,1.66103E1,2.38209E1,7.58656E2,1.37598E1,3.10963E1,-2.1972433E-2,-5.9872285E-2,6.196E-1,6.196E-1,2.38209E1,2.2227E1,1.659933E3,-9.750754E-3,2.26762E1,7.31223E2,2.26762E1,1.113411E3,1.276588E3,-2.055627E-2,1.182489E3,1.61693E3,1.321496E3,1.681328E3,6.40581E2,-1.3180116E-2,-2.9753612E-2,6.829E-1,9.53391E2,1.041086E3,7.666E-1,1.84644E1,1.7019422E-3,-2.378042E-3,1.6281278E-3,1.333619E3,1.187154E3,1.725743E3,1.282231E3,2.84204E1,4.8548924E-3,2.0272981E-2,-3.7874312E-3,6.554729E-3,-1.6839057E-2,-4.330364E-3,4.5777755E-3,2.3837974E-2,-3.540695E-4,2.0393953E-3,-5.3176857E-3,6.28078E-4,-1.520762E-2,-3.1772063E-3,2.1448802E-2,7.900418E-3,-1.1104748E-3,7.7646757E-3,-9.4465615E-4,1.9708872E-4,1.9910496E-2,2.3752572E-3,2.9627115E-2,1.5283382E-2],"split_indices":[4,2,2,0,4,2,0,0,0,1,1,0,0,4,0,0,4,0,4,4,0,4,4,4,4,4,0,0,1,4,4,1,2,0,0,0,4,4,4,4,0,0,0,0,0,0,0,0,0,0,0,0,0,0,0,0,0,0,0,0,0,0,0,0,0],"split_type":[0,0,0,0,0,0,0,0,0,0,0,0,0,0,0,0,0,0,0,0,0,0,0,0,0,0,0,0,0,0,0,0,0,0,0,0,0,0,0,0,0,0,0,0,0,0,0,0,0,0,0,0,0,0,0,0,0,0,0,0,0,0,0,0,0],"sum_hessian":[1.36E2,6.8E1,6.8E1,9E0,5.9E1,2.3E1,4.5E1,4E0,5E0,2.6E1,3.3E1,4E0,1.9E1,4.2E1,3E0,5E0,2.1E1,8E0,2.5E1,3E0,1E0,5E0,1.4E1,3.6E1,6E0,3E0,2E0,1.7E1,4E0,5E0,3E0,2.1E1,4E0,2E0,1E0,1E0,4E0,1.2E1,2E0,1.2E1,2.4E1,3E0,3E0,2E0,1E0,3E0,1E0,3E0,2E0,2E0,1E0,1E1,1.1E1,3E0,1E0,2E0,2E0,1E0,1.1E1,1E0,1E0,1.1E1,1E0,2E1,4E0],"tree_param":{"num_deleted":"0","num_feature":"5","num_nodes":"65","size_leaf_vector":"1"}},{"base_weights":[-2.768441E-4,-6.357965E-2,2.556386E-2,-4.1236922E-2,-4.649974E-2,-8.725636E-3,4.010185E-2,-5.8390528E-2,-5.55858E-4,3.4702912E-2,-1.8799461E-2,1.15154E-3,4.828171E-2,-6.789622E-2,-1.3804589E-2,8.657962E-3,-1.8798212E-2,4.9502186E-2,3.4029086E-3,-4.850676E-3,-3.6111493E-2,-1.747283E-2,1.0954629E-2,5.282991E-2,-7.556834E-3,-7.864304E-2,-4.3634914E-2,-2.3994202E-2,5.5715204E-3,-2.2270382E-4,1.0686493E-2,-6.8345238E-3,-1.6246722E-3,1.095745E-3,1.907038E-2,-2.0217599E-4,1.7334849E-3,-1.297986E-2,2.0109878E-3,-4.75432E-3,-4.727614E-2,3.4987926E-5,1.4590621E-2,2.7279248E-2,5.8731727E-2,-9.999803E-3,-2.5025114E-2,-1.3860573E-2,-3.4648464E-3,1.9319387E-3,-1.3929039E-2,3.999868E-3,1.3433784E-3,1.7049313E-3,-6.474501E-3,2.3427666E-3,-6.568998E-4,4.5980664E-4,-2.2082657E-3,-1.7957678E-2,-1.9055576E-3,1.3615519E-3,-2.021335E-3,5.809364E-3,-4.2362214E-4,1.2200991E-2,3.571336E-3,2.2363694E-2,1.5705952E-2],"categories":[],"categories_nodes":[],"categories_segments":[],"categories_sizes":[],"default_left":[0,0,0,0,0,0,0,0,0,0,0,0,0,0,0,0,0,0,0,0,0,0,0,0,0,0,0,0,0,0,0,0,0,0,0,0,0,0,0,0,0,0,0,0,0,0,0,0,0,0,0,0,0,0,0,0,0,0,0,0,0,0,0,0,0,0,0,0,0],"id":1,"left_children":[1,3,5,-1,7,9,11,13,15,17,19,21,23,25,27,29,31,33,35,37,39,-1,41,43,-1,45,47,49,-1,-1,51,-1,-1,-1,-1,-1,-1,53,55,57,59,61,63,65,67,-1,-1,-1,-1,-1,-1,-1,-1,-1,-1,-1,-1,-1,-1,-1,-1,-1,-1,-1,-1,-1,-1,-1,-1],"loss_changes":[2.2572844E-1,4.408066E-2,4.920294E-2,0E0,1.8542051E-2,1.3777144E-2,2.192837E-2,1.05058625E-2,1.5074083E-3,2.6108525E-3,5.8618803E-3,8.207246E-3,2.0377964E-2,2.3045167E-3,2.425027E-3,1.2234595E-4,3.655441E-5,2.347459E-3,3.2946085E-5,8.6279836E-4,3.626245E-3,0E0,4.7593412E-4,6.5407753E-3,0E0,2.4785846E-4,2.0765886E-4,3.7130755E-3,0E0,0E0,2.2448075E-5,0E0,0E0,0E0,0E0,0E0,0E0,1.2463974E-3,2.3630694E-4,7.683195E-5,3.739316E-3,1.5258469E-4,7.149051E-4,1.9864012E-3,4.3472648E-4,0E0,0E0,0E0,0E0,0E0,0E0,0E0,0E0,0E0,0E0,0E0,0E0,0E0,0E0,0E0,0E0,0E0,0E0,0E0,0E0,0E0,0E0,0E0,0E0],"parents":[2147483647,0,0,1,1,2,2,4,4,5,5,6,6,7,7,8,8,9,9,10,10,11,11,12,12,13,13,14,14,15,15,16,16,17,17,18,18,19,19,20,20,22,22,23,23,25,25,26,26,27,27,30,30,37,37,38,38,39,39,40,40,41,41,42,42,43,43,44,44],"right_children":[2,4,6,-1,8,10,12,14,16,18,20,22,24,26,28,30,32,34,36,38,40,-1,42,44,-1,46,48,50,-1,-1,52,-1,-1,-1,-1,-1,-1,54,56,58,60,62,64,66,68,-1,-1,-1,-1,-1,-1,-1,-1,-1,-1,-1,-1,-1,-1,-1,-1,-1,-1,-1,-1,-1,-1,-1,-1],"split_conditions":[9.29706E2,1.37598E1,1.134684E3,-4.1236922E-2,7.58656E2,6.196E-1,1.43888E1,1.95049E1,2.84204E1,2.26762E1,1.069197E3,7.961E-1,3.10963E1,6.7438E2,6.43856E2,5.45E-1,8.40476E2,9.53391E2,1.041086E3,7.666E-1,2.2227E1,-1.747283E-2,2.38209E1,1.66103E1,-7.556834E-3,2.09572E1,1.84644E1,5.60318E2,5.5715204E-3,-2.2270382E-4,6.196E-1,-6.8345238E-3,-1.6246722E-3,1.095745E-3,1.907038E-2,-2.0217599E-4,1.7334849E-3,6.773E-1,8.914E-1,2.09572E1,1.84644E1,1.276588E3,1.61693E3,2.2227E1,6.196E-1,-9.999803E-3,-2.5025114E-2,-1.3860573E-2,-3.4648464E-3,1.9319387E-3,-1.3929039E-2,3.999868E-3,1.3433784E-3,1.7049313E-3,-6.474501E-3,2.3427666E-3,-6.568998E-4,4.5980664E-4,-2.2082657E-3,-1.7957678E-2,-1.9055576E-3,1.3615519E-3,-2.021335E-3,5.809364E-3,-4.2362214E-4,1.2200991E-2,3.571336E-3,2.2363694E-2,1.5705952E-2],"split_indices":[4,2,4,0,4,1,2,2,0,0,4,1,0,4,4,1,4,4,4,1,0,0,0,2,0,0,2,4,0,0,1,0,0,0,0,0,0,1,1,0,2,4,4,0,1,0,0,0,0,0,0,0,0,0,0,0,0,0,0,0,0,0,0,0,0,0,0,0,0],"split_type":[0,0,0,0,0,0,0,0,0,0,0,0,0,0,0,0,0,0,0,0,0,0,0,0,0,0,0,0,0,0,0,0,0,0,0,0,0,0,0,0,0,0,0,0,0,0,0,0,0,0,0,0,0,0,0,0,0,0,0,0,0,0,0,0,0,0,0,0,0],"sum_hessian":[1.36E2,3.9E1,9.7E1,6E0,3.3E1,2.9E1,6.8E1,2.6E1,7E0,5E0,2.4E1,1.2E1,5.6E1,2.1E1,5E0,5E0,2E0,3E0,2E0,1.4E1,1E1,1E0,1.1E1,5.3E1,3E0,1.3E1,8E0,4E0,1E0,1E0,4E0,1E0,1E0,1E0,2E0,1E0,1E0,6E0,8E0,3E0,7E0,3E0,8E0,1.1E1,4.2E1,2E0,1.1E1,7E0,1E0,2E0,2E0,2E0,2E0,2E0,4E0,3E0,5E0,1E0,2E0,5E0,2E0,2E0,1E0,6E0,2E0,5E0,6E0,9E0,3.3E1],"tree_param":{"num_deleted":"0","num_feature":"5","num_nodes":"69","size_leaf_vector":"1"}},{"base_weights":[-7.25254E-4,-4.7089532E-2,1.8206341E-2,-1.0211046E-1,-3.4376707E-2,-6.207876E-3,2.8557358E-2,-1.2818958E-2,-3.519502E-2,-2.5054084E-3,-4.40869E-2,2.7908275E-2,-1.4147437E-2,-1.7445248E-4,3.460922E-2,7.544761E-3,-1.695431E-2,-4.9904343E-2,3.8514286E-4,3.9693058E-2,2.8924744E-3,-4.4408698E-2,-8.002325E-3,-1.4851904E-2,8.062067E-3,3.7978016E-2,-5.8565475E-3,-6.1007836E-3,4.767819E-3,-6.6555263E-3,-1.8929692E-4,-2.5157532E-2,-4.267736E-2,1.0747046E-3,-1.3809712E-3,9.313837E-4,1.52563015E-2,-1.7184914E-4,1.4734627E-3,-1.7313034E-3,-1.6609278E-2,-2.3947796E-3,-6.7669945E-3,-1.404509E-4,1.0811846E-2,1.2748445E-2,4.086612E-2,4.177375E-3,-6.922728E-3,-1.9489647E-3,-1.45039745E-2,-2.531878E-3,8.0416474E-4,1.0892422E-3,-1.7181338E-3,4.315526E-3,-3.3890008E-4,-3.151156E-3,1.4175839E-2,1.4529463E-2,8.649866E-3],"categories":[],"categories_nodes":[],"categories_segments":[],"categories_sizes":[],"default_left":[0,0,0,0,0,0,0,0,0,0,0,0,0,0,0,0,0,0,0,0,0,0,0,0,0,0,0,0,0,0,0,0,0,0,0,0,0,0,0,0,0,0,0,0,0,0,0,0,0,0,0,0,0,0,0,0,0,0,0,0,0],"id":2,"left_children":[1,3,5,7,9,11,13,-1,-1,15,17,19,21,23,25,27,29,31,33,35,37,39,41,-1,43,45,-1,47,-1,-1,-1,-1,49,-1,-1,-1,-1,-1,-1,-1,-1,51,-1,53,55,57,59,-1,-1,-1,-1,-1,-1,-1,-1,-1,-1,-1,-1,-1,-1],"loss_changes":[1.21109046E-1,2.4468638E-2,2.4943057E-2,1.3077781E-3,1.0411743E-2,8.520849E-3,1.2003824E-2,0E0,0E0,1.4348414E-3,6.745778E-3,1.6540233E-3,4.293598E-3,5.6813234E-3,1.1135712E-2,7.8043353E-4,3.2753602E-4,2.0650104E-3,8.02859E-5,1.4756126E-3,2.3803535E-5,1.3736822E-3,1.7414904E-3,0E0,2.7217984E-4,3.4137666E-3,0E0,1.3411107E-3,0E0,0E0,0E0,0E0,3.993366E-3,0E0,0E0,0E0,0E0,0E0,0E0,0E0,0E0,5.441728E-4,0E0,1.05069004E-4,4.0027953E-4,6.112474E-3,2.973333E-3,0E0,0E0,0E0,0E0,0E0,0E0,0E0,0E0,0E0,0E0,0E0,0E0,0E0,0E0],"parents":[2147483647,0,0,1,1,2,2,3,3,4,4,5,5,6,6,9,9,10,10,11,11,12,12,13,13,14,14,15,15,16,16,17,17,18,18,19,19,20,20,21,21,22,22,24,24,25,25,27,27,32,32,41,41,43,43,44,44,45,45,46,46],"right_children":[2,4,6,8,10,12,14,-1,-1,16,18,20,22,24,26,28,30,32,34,36,38,40,42,-1,44,46,-1,48,-1,-1,-1,-1,50,-1,-1,-1,-1,-1,-1,-1,-1,52,-1,54,56,58,60,-1,-1,-1,-1,-1,-1,-1,-1,-1,-1,-1,-1,-1,-1],"split_conditions":[9.29706E2,1.37598E1,1.134684E3,2.38209E1,6.196E-1,6.196E-1,1.43888E1,-1.2818958E-2,-3.519502E-2,2.26762E1,8.40476E2,2.26762E1,1.37598E1,7.961E-1,3.10963E1,6.40581E2,7.26721E2,5.45083E2,2.84204E1,9.53391E2,1.041086E3,1.069197E3,1.11007E3,-1.4851904E-2,2.38209E1,1.187154E3,-5.8565475E-3,5.55474E2,4.767819E-3,-6.6555263E-3,-1.8929692E-4,-2.5157532E-2,5.64891E2,1.0747046E-3,-1.3809712E-3,9.313837E-4,1.52563015E-2,-1.7184914E-4,1.4734627E-3,-1.7313034E-3,-1.6609278E-2,7.666E-1,-6.7669945E-3,1.276588E3,1.61693E3,1.83923E1,2.26762E1,4.177375E-3,-6.922728E-3,-1.9489647E-3,-1.45039745E-2,-2.531878E-3,8.0416474E-4,1.0892422E-3,-1.7181338E-3,4.315526E-3,-3.3890008E-4,-3.151156E-3,1.4175839E-2,1.4529463E-2,8.649866E-3],"split_indices":[4,2,4,0,1,1,2,0,0,0,4,0,2,1,0,4,4,4,0,4,4,4,4,0,0,4,0,4,0,0,0,0,4,0,0,0,0,0,0,0,0,1,0,4,4,2,0,0,0,0,0,0,0,0,0,0,0,0,0,0,0],"split_type":[0,0,0,0,0,0,0,0,0,0,0,0,0,0,0,0,0,0,0,0,0,0,0,0,0,0,0,0,0,0,0,0,0,0,0,0,0,0,0,0,0,0,0,0,0,0,0,0,0,0,0,0,0,0,0,0,0,0,0,0,0],"sum_hessian":[1.36E2,3.9E1,9.7E1,6E0,3.3E1,2.9E1,6.8E1,2E0,4E0,8E0,2.5E1,5E0,2.4E1,1.2E1,5.6E1,5E0,3E0,2.2E1,3E0,3E0,2E0,3E0,2.1E1,1E0,1.1E1,5.3E1,3E0,2E0,3E0,2E0,1E0,2E0,2E1,2E0,1E0,1E0,2E0,1E0,1E0,1E0,2E0,1.6E1,5E0,3E0,8E0,6E0,4.7E1,1E0,1E0,3E0,1.7E1,7E0,9E0,2E0,1E0,6E0,2E0,4E0,2E0,2.7E1,2E1],"tree_param":{"num_deleted":"0","num_feature":"5","num_nodes":"61","size_leaf_vector":"1"}},{"base_weights":[-1.1445774E-3,-3.533149E-2,1.2820945E-2,-7.833646E-2,-2.5438366E-2,-2.8483484E-2,1.6311213E-2,-3.4183886E-2,-2.6748214E-2,-3.9200254E-2,-9.370581E-3,-5.2868477E-3,-1.961468E-2,5.3700856E-3,2.7376143E-2,-1.2439311E-2,-2.9434385E-3,-1.0760151E-2,-4.4170935E-2,-1.7546883E-2,2.021119E-3,-3.0698925E-3,-2.5554E-4,-3.800712E-3,2.035641E-2,3.8462147E-2,1.5099871E-2,3.550771E-3,-6.6712415E-3,-2.0126026E-2,-3.5484903E-2,-2.2363968E-2,1.1476377E-3,3.6950626E-3,-6.6197095E-3,8.713931E-4,-1.4604137E-3,-5.528695E-4,-2.4773471E-2,-6.637201E-4,2.4604684E-2,4.41025E-2,9.336382E-3,5.21677E-3,2.3724651E-2,-1.5104503E-3,-1.3234933E-2,5.7387655E-4,-7.831612E-3,6.773383E-4,-1.6090125E-4,-2.7885453E-3,6.123081E-4,-1.2583742E-3,3.1353734E-3,-8.751935E-3,-1.7361805E-3,6.860048E-4,-1.4272393E-3,8.142135E-3,-1.6343996E-3,1.0564111E-2,2.058962E-2,-2.0321966E-3,6.700388E-3,5.3529027E-3,7.340516E-4,3.2266916E-3,9.435513E-3],"categories":[],"categories_nodes":[],"categories_segments":[],"categories_sizes":[],"default_left":[0,0,0,0,0,0,0,0,0,0,0,0,0,0,0,0,0,0,0,0,0,0,0,0,0,0,0,0,0,0,0,0,0,0,0,0,0,0,0,0,0,0,0,0,0,0,0,0,0,0,0,0,0,0,0,0,0,0,0,0,0,0,0,0,0,0,0,0,0],"id":3,"left_children":[1,3,5,7,9,11,13,15,-1,17,19,21,-1,23,25,-1,-1,27,29,31,33,-1,35,37,39,41,43,-1,-1,-1,45,47,49,-1,51,-1,-1,53,55,57,59,61,63,65,67,-1,-1,-1,-1,-1,-1,-1,-1,-1,-1,-1,-1,-1,-1,-1,-1,-1,-1,-1,-1,-1,-1,-1,-1],"loss_changes":[6.586201E-2,1.5025385E-2,1.4592631E-2,2.9757246E-4,7.150855E-3,6.501754E-3,1.0869702E-2,1.2550293E-4,0E0,2.0693112E-3,1.6188782E-3,1.46698E-4,0E0,6.5368866E-3,5.543489E-3,0E0,0E0,1.3005692E-3,6.0514547E-4,9.2619634E-4,7.932451E-4,0E0,7.24454E-5,2.02979E-3,1.6237171E-3,3.3666752E-3,1.8367441E-3,0E0,0E0,0E0,3.1946823E-3,7.76574E-4,6.819367E-6,0E0,1.3482811E-4,0E0,0E0,1.1258313E-3,1.6529765E-4,5.919158E-5,1.2909584E-3,1.7259382E-3,1.1983269E-3,3.7602682E-4,8.6426456E-4,0E0,0E0,0E0,0E0,0E0,0E0,0E0,0E0,0E0,0E0,0E0,0E0,0E0,0E0,0E0,0E0,0E0,0E0,0E0,0E0,0E0,0E0,0E0,0E0],"parents":[2147483647,0,0,1,1,2,2,3,3,4,4,5,5,6,6,7,7,9,9,10,10,11,11,13,13,14,14,17,17,18,18,19,19,20,20,22,22,23,23,24,24,25,25,26,26,30,30,31,31,32,32,34,34,37,37,38,38,39,39,40,40,41,41,42,42,43,43,44,44],"right_children":[2,4,6,8,10,12,14,16,-1,18,20,22,-1,24,26,-1,-1,28,30,32,34,-1,36,38,40,42,44,-1,-1,-1,46,48,50,-1,52,-1,-1,54,56,58,60,62,64,66,68,-1,-1,-1,-1,-1,-1,-1,-1,-1,-1,-1,-1,-1,-1,-1,-1,-1,-1,-1,-1,-1,-1,-1,-1],"split_conditions":[9.29706E2,1.37598E1,1.37598E1,2.38209E1,6.7438E2,2.38209E1,1.321496E3,6.61714E2,-2.6748214E-2,6.196E-1,1.84644E1,1.123654E3,-1.961468E-2,1.84644E1,2.26762E1,-1.2439311E-2,-2.9434385E-3,5.55474E2,5.45083E2,7.58656E2,2.26762E1,-3.0698925E-3,1.276588E3,2.75308E1,1.007345E3,1.659933E3,1.84644E1,3.550771E-3,-6.6712415E-3,-2.0126026E-2,5.64891E2,1.43888E1,2.09572E1,3.6950626E-3,8.78732E2,8.713931E-4,-1.4604137E-3,1.187154E3,1.233217E3,2.84204E1,1.282231E3,1.55099E3,1.67413E3,1.338934E3,1.484285E3,-1.5104503E-3,-1.3234933E-2,5.7387655E-4,-7.831612E-3,6.773383E-4,-1.6090125E-4,-2.7885453E-3,6.123081E-4,-1.2583742E-3,3.1353734E-3,-8.751935E-3,-1.7361805E-3,6.860048E-4,-1.4272393E-3,8.142135E-3,-1.6343996E-3,1.0564111E-2,2.058962E-2,-2.0321966E-3,6.700388E-3,5.3529027E-3,7.340516E-4,3.2266916E-3,9.435513E-3],"split_indices":[4,2,2,0,4,0,4,4,0,1,2,4,0,2,0,0,0,4,4,4,0,0,4,0,4,4,2,0,0,0,4,2,0,0,4,0,0,4,4,0,4,4,4,4,4,0,0,0,0,0,0,0,0,0,0,0,0,0,0,0,0,0,0,0,0,0,0,0,0],"split_type":[0,0,0,0,0,0,0,0,0,0,0,0,0,0,0,0,0,0,0,0,0,0,0,0,0,0,0,0,0,0,0,0,0,0,0,0,0,0,0,0,0,0,0,0,0,0,0,0,0,0,0,0,0,0,0,0,0,0,0,0,0,0,0,0,0,0,0,0,0],"sum_hessian":[1.36E2,3.9E1,9.7E1,6E0,3.3E1,7E0,9E1,2E0,4E0,1.7E1,1.6E1,5E0,2E0,4.6E1,4.4E1,1E0,1E0,3E0,1.4E1,9E0,7E0,2E0,3E0,2.9E1,1.7E1,2.2E1,2.2E1,1E0,2E0,2E0,1.2E1,7E0,2E0,3E0,4E0,2E0,1E0,2.6E1,3E0,3E0,1.4E1,1.8E1,4E0,1.1E1,1.1E1,3E0,9E0,1E0,6E0,1E0,1E0,3E0,1E0,2E1,6E0,2E0,1E0,2E0,1E0,1.3E1,1E0,1.5E1,3E0,2E0,2E0,1E0,1E1,5E0,6E0],"tree_param":{"num_deleted":"0","num_feature":"5","num_nodes":"69","size_leaf_vector":"1"}},{"base_weights":[-1.2164813E-3,-2.6865678E-2,9.264992E-3,-1.8256271E-2,-1.9077867E-2,-2.2847638E-2,1.1986267E-2,-2.9550835E-2,-6.866616E-3,-4.310608E-3,-1.5691746E-2,3.698531E-3,2.0375986E-2,-1.6100822E-2,-2.3181677E-2,-3.3286568E-3,-9.521096E-3,-2.4559111E-3,-3.2613426E-4,-2.9475382E-3,1.45698385E-2,4.288581E-2,1.58133E-2,9.0260507E-4,-3.1284988E-2,2.5587045E-3,-8.192016E-3,6.971151E-4,-1.2413532E-3,-1.188891E-2,2.1175935E-3,5.579645E-3,2.5110126E-2,2.944565E-3,1.4028513E-2,-1.1940554E-2,2.2257596E-2,3.018156E-3,-1.170601E-3,-2.562301E-3,-9.77285E-3,2.8636716E-3,-1.0627592E-3,-2.9087395E-3,5.7573617E-4,9.892554E-4,-4.689019E-3,-3.0337216E-4,2.8760242E-3,7.3320568E-3,-2.6067789E-3,1.352838E-2,3.2798604E-3,-6.516427E-5,-4.075286E-3,1.8357702E-2,5.2866614E-3],"categories":[],"categories_nodes":[],"categories_segments":[],"categories_sizes":[],"default_left":[0,0,0,0,0,0,0,0,0,0,0,0,0,0,0,0,0,0,0,0,0,0,0,0,0,0,0,0,0,0,0,0,0,0,0,0,0,0,0,0,0,0,0,0,0,0,0,0,0,0,0,0,0,0,0,0,0],"id":4,"left_children":[1,3,5,-1,7,9,11,13,15,17,-1,19,21,-1,23,25,-1,-1,27,29,31,33,35,37,39,41,43,-1,-1,45,47,49,51,-1,-1,53,55,-1,-1,-1,-1,-1,-1,-1,-1,-1,-1,-1,-1,-1,-1,-1,-1,-1,-1,-1,-1],"loss_changes":[3.7080176E-2,9.426886E-3,8.837814E-3,0E0,4.1452795E-3,4.1430667E-3,6.252031E-3,1.5209224E-3,1.3901945E-3,8.998737E-5,0E0,3.4387636E-3,3.94357E-3,0E0,3.1508366E-3,4.7907856E-4,0E0,0E0,5.0017028E-5,1.3838527E-3,1.5655605E-3,4.382711E-4,7.2410787E-3,2.592571E-4,7.416494E-5,3.7484363E-4,1.5545194E-4,0E0,0E0,6.765027E-4,4.770893E-4,3.17268E-3,1.773587E-3,0E0,0E0,1.5120953E-4,4.6969466E-3,0E0,0E0,0E0,0E0,0E0,0E0,0E0,0E0,0E0,0E0,0E0,0E0,0E0,0E0,0E0,0E0,0E0,0E0,0E0,0E0],"parents":[2147483647,0,0,1,1,2,2,4,4,5,5,6,6,7,7,8,8,9,9,11,11,12,12,14,14,15,15,18,18,19,19,20,20,21,21,22,22,23,23,24,24,25,25,26,26,29,29,30,30,31,31,32,32,35,35,36,36],"right_children":[2,4,6,-1,8,10,12,14,16,18,-1,20,22,-1,24,26,-1,-1,28,30,32,34,36,38,40,42,44,-1,-1,46,48,50,52,-1,-1,54,56,-1,-1,-1,-1,-1,-1,-1,-1,-1,-1,-1,-1,-1,-1,-1,-1,-1,-1,-1,-1],"split_conditions":[9.29706E2,1.37598E1,1.37598E1,-1.8256271E-2,6.7438E2,2.38209E1,1.321496E3,5.45083E2,3.10963E1,1.123654E3,-1.5691746E-2,1.84644E1,1.347744E3,-1.6100822E-2,5.64891E2,6.773E-1,-9.521096E-3,-2.4559111E-3,1.276588E3,6.829E-1,1.15983E3,2.09572E1,1.408648E3,6.196E-1,6.27969E2,2.26762E1,8.78732E2,6.971151E-4,-1.2413532E-3,5.45E-1,1.182489E3,2.26762E1,1.19398E3,2.944565E-3,1.4028513E-2,2.09572E1,1.44435E3,3.018156E-3,-1.170601E-3,-2.562301E-3,-9.77285E-3,2.8636716E-3,-1.0627592E-3,-2.9087395E-3,5.7573617E-4,9.892554E-4,-4.689019E-3,-3.0337216E-4,2.8760242E-3,7.3320568E-3,-2.6067789E-3,1.352838E-2,3.2798604E-3,-6.516427E-5,-4.075286E-3,1.8357702E-2,5.2866614E-3],"split_indices":[4,2,2,0,4,0,4,4,0,4,0,2,4,0,4,1,0,0,4,1,4,0,4,1,4,0,4,0,0,1,4,0,4,0,0,0,4,0,0,0,0,0,0,0,0,0,0,0,0,0,0,0,0,0,0,0,0],"split_type":[0,0,0,0,0,0,0,0,0,0,0,0,0,0,0,0,0,0,0,0,0,0,0,0,0,0,0,0,0,0,0,0,0,0,0,0,0,0,0,0,0,0,0,0,0,0,0,0,0,0,0,0,0,0,0,0,0],"sum_hessian":[1.36E2,3.9E1,9.7E1,6E0,3.3E1,7E0,9E1,1.7E1,1.6E1,5E0,2E0,4.6E1,4.4E1,2E0,1.5E1,1.5E1,1E0,2E0,3E0,2.9E1,1.7E1,6E0,3.8E1,4E0,1.1E1,7E0,8E0,2E0,1E0,1E1,1.9E1,1E1,7E0,1E0,5E0,7E0,3.1E1,1E0,3E0,1E0,1E1,3E0,4E0,7E0,1E0,2E0,8E0,1.4E1,5E0,4E0,6E0,2E0,5E0,1E0,6E0,2E0,2.9E1],"tree_param":{"num_deleted":"0","num_feature":"5","num_nodes":"57","size_leaf_vector":"1"}},{"base_weights":[-9.734841E-4,-2.0178424E-2,6.8752007E-3,-2.7666006E-2,-2.4991403E-3,-1.8329825E-2,9.015475E-3,-4.5206E-2,-2.0827554E-2,2.6333067E-3,-1.1237716E-2,-3.517444E-3,-1.2553395E-2,2.3243325E-2,6.1267326E-3,-1.6885454E-2,-1.5947139E-2,-1.14910845E-2,-1.1880056E-2,-2.2862852E-3,5.47415E-3,-1.3515092E-2,-3.1923206E-4,-1.9647272E-3,-3.643483E-4,1.2593435E-2,3.3615563E-2,2.6031095E-3,2.3273561E-2,-7.834972E-3,2.365172E-4,-1.5358085E-2,2.3935512E-3,2.5654302E-3,-8.749336E-3,3.0368106E-3,2.5198995E-3,-1.1645481E-3,-4.6296716E-3,5.576939E-4,-1.0551498E-3,-4.1103514E-4,1.4510144E-2,5.2944195E-2,1.5295273E-2,-4.5206766E-3,6.1058407E-3,1.5077006E-2,1.2702495E-4,-9.0048E-3,-3.4905777E-3,2.2646786E-5,9.4232266E-4,-3.4177066E-3,-5.1949476E-4,-2.0922125E-4,1.4691711E-3,9.606712E-3,2.2301318E-3,4.361299E-3,1.946359E-2,5.162164E-3,1.1471272E-3,-3.3840834E-4,-4.749023E-3,4.255304E-3,-7.852224E-4,-3.9901063E-3,5.0638476E-3],"categories":[],"categories_nodes":[],"categories_segments":[],"categories_sizes":[],"default_left":[0,0,0,0,0,0,0,0,0,0,0,0,0,0,0,0,0,0,0,0,0,0,0,0,0,0,0,0,0,0,0,0,0,0,0,0,0,0,0,0,0,0,0,0,0,0,0,0,0,0,0,0,0,0,0,0,0,0,0,0,0,0,0,0,0,0,0,0,0],"id":5,"left_children":[1,3,5,7,9,11,13,15,17,19,21,23,-1,25,27,29,-1,-1,31,33,35,37,-1,-1,39,41,43,45,47,-1,-1,49,51,-1,53,-1,55,-1,-1,-1,-1,-1,57,59,61,63,65,-1,67,-1,-1,-1,-1,-1,-1,-1,-1,-1,-1,-1,-1,-1,-1,-1,-1,-1,-1,-1,-1],"loss_changes":[2.0789225E-2,5.2258614E-3,5.4519298E-3,2.4169702E-3,6.12646E-4,2.6392976E-3,3.5977485E-3,6.78679E-4,2.9850248E-3,1.3829758E-4,1.014641E-4,5.4968274E-5,0E0,1.2336131E-3,4.5916773E-3,5.1003805E-4,0E0,0E0,8.3106454E-4,3.5499828E-4,5.6889723E-5,1.3968267E-5,0E0,0E0,3.4577322E-5,2.6075717E-4,1.6689468E-3,1.6495286E-3,8.112973E-3,0E0,0E0,3.601513E-4,6.694112E-6,0E0,3.591609E-5,0E0,4.1658437E-5,0E0,0E0,0E0,0E0,0E0,7.5333705E-4,4.3189712E-4,4.386797E-5,8.2625716E-4,3.137842E-3,0E0,2.0240368E-3,0E0,0E0,0E0,0E0,0E0,0E0,0E0,0E0,0E0,0E0,0E0,0E0,0E0,0E0,0E0,0E0,0E0,0E0,0E0,0E0],"parents":[2147483647,0,0,1,1,2,2,3,3,4,4,5,5,6,6,7,7,8,8,9,9,10,10,11,11,13,13,14,14,15,15,18,18,19,19,20,20,21,21,24,24,25,25,26,26,27,27,28,28,31,31,32,32,34,34,36,36,42,42,43,43,44,44,45,45,46,46,48,48],"right_children":[2,4,6,8,10,12,14,16,18,20,22,24,-1,26,28,30,-1,-1,32,34,36,38,-1,-1,40,42,44,46,48,-1,-1,50,52,-1,54,-1,56,-1,-1,-1,-1,-1,58,60,62,64,66,-1,68,-1,-1,-1,-1,-1,-1,-1,-1,-1,-1,-1,-1,-1,-1,-1,-1,-1,-1,-1,-1],"split_conditions":[9.29706E2,1.84644E1,1.37598E1,1.37598E1,2.84204E1,2.38209E1,6.196E-1,2.38209E1,-1.26112E1,6.50428E2,8.40476E2,1.123654E3,-1.2553395E-2,1.282231E3,1.577875E3,6.61714E2,-1.5947139E-2,-1.14910845E-2,7.37071E2,5.55474E2,7.22765E2,5.60318E2,-3.1923206E-4,-1.9647272E-3,1.276588E3,9.53391E2,1.44435E3,1.134684E3,1.61693E3,-7.834972E-3,2.365172E-4,4.76017E2,5.45E-1,2.5654302E-3,2.26762E1,3.0368106E-3,7.95986E2,-1.1645481E-3,-4.6296716E-3,5.576939E-4,-1.0551498E-3,-4.1103514E-4,1.031455E3,1.347744E3,1.659933E3,2.84204E1,1.343765E3,1.5077006E-2,1.725743E3,-9.0048E-3,-3.4905777E-3,2.2646786E-5,9.4232266E-4,-3.4177066E-3,-5.1949476E-4,-2.0922125E-4,1.4691711E-3,9.606712E-3,2.2301318E-3,4.361299E-3,1.946359E-2,5.162164E-3,1.1471272E-3,-3.3840834E-4,-4.749023E-3,4.255304E-3,-7.852224E-4,-3.9901063E-3,5.0638476E-3],"split_indices":[4,2,2,2,0,0,1,0,3,4,4,4,0,4,4,4,0,0,4,4,4,4,0,0,4,4,4,4,4,0,0,4,1,0,0,0,4,0,0,0,0,0,4,4,4,0,4,0,4,0,0,0,0,0,0,0,0,0,0,0,0,0,0,0,0,0,0,0,0],"split_type":[0,0,0,0,0,0,0,0,0,0,0,0,0,0,0,0,0,0,0,0,0,0,0,0,0,0,0,0,0,0,0,0,0,0,0,0,0,0,0,0,0,0,0,0,0,0,0,0,0,0,0,0,0,0,0,0,0,0,0,0,0,0,0,0,0,0,0,0,0],"sum_hessian":[1.36E2,3.9E1,9.7E1,2.7E1,1.2E1,7E0,9E1,6E0,2.1E1,8E0,4E0,5E0,2E0,1.4E1,7.6E1,2E0,4E0,6E0,1.5E1,3E0,5E0,3E0,1E0,2E0,3E0,8E0,6E0,6.4E1,1.2E1,1E0,1E0,1.2E1,3E0,1E0,2E0,1E0,4E0,1E0,2E0,2E0,1E0,1E0,7E0,2E0,4E0,2.1E1,4.3E1,5E0,7E0,1E0,1.1E1,1E0,2E0,1E0,1E0,2E0,2E0,1E0,6E0,1E0,1E0,3E0,1E0,1.7E1,4E0,2.2E1,2.1E1,4E0,3E0],"tree_param":{"num_deleted":"0","num_feature":"5","num_nodes":"69","size_leaf_vector":"1"}},{"base_weights":[-7.447778E-4,-1.53687885E-2,5.231806E-3,-3.5007857E-2,-1.0873428E-2,4.1109417E-4,1.3897342E-2,-1.4352635E-2,-1.2119826E-2,-1.0831067E-2,-8.168308E-3,-1.20720165E-2,5.1831133E-3,2.1704702E-2,8.880254E-3,-6.659726E-3,2.0104052E-4,-5.2249418E-3,-1.0463763E-2,-7.304322E-3,-1.0042715E-2,1.609409E-3,1.54723E-2,-3.4938008E-4,2.3707526E-2,-4.2745513E-3,1.377457E-2,-9.458229E-3,-9.29676E-4,-3.569829E-3,-1.4806241E-2,5.0014895E-3,-7.71015E-3,2.7146611E-2,-7.264465E-4,2.527181E-2,9.75059E-4,3.09214E-4,-7.789679E-3,8.423463E-3,7.213588E-3,3.7791583E-4,-4.482953E-3,2.581291E-3,-6.4166845E-4,-1.3887513E-3,3.4537615E-4,-6.014374E-3,-1.3887465E-3,3.6878584E-5,1.3196701E-2,-1.5017578E-3,-3.705463E-3,2.7340427E-3,1.1517929E-2,2.4235994E-3,-2.1446005E-3,4.481992E-3,9.417504E-3,1.5765429E-3,-2.179286E-3,-3.3758432E-3,3.8995745E-4,-3.597877E-4,4.378787E-3],"categories":[],"categories_nodes":[],"categories_segments":[],"categories_sizes":[],"default_left":[0,0,0,0,0,0,0,0,0,0,0,0,0,0,0,0,0,0,0,0,0,0,0,0,0,0,0,0,0,0,0,0,0,0,0,0,0,0,0,0,0,0,0,0,0,0,0,0,0,0,0,0,0,0,0,0,0,0,0,0,0,0,0,0,0],"id":6,"left_children":[1,3,5,7,9,11,13,15,-1,-1,17,19,21,23,25,-1,-1,27,-1,29,-1,31,33,-1,35,37,39,41,43,45,47,49,51,53,55,57,-1,59,61,-1,63,-1,-1,-1,-1,-1,-1,-1,-1,-1,-1,-1,-1,-1,-1,-1,-1,-1,-1,-1,-1,-1,-1,-1,-1],"loss_changes":[1.2054428E-2,3.1507323E-3,4.088144E-3,1.9970816E-4,2.0256126E-3,3.8750279E-3,1.1782134E-3,3.685027E-4,0E0,0E0,2.3335975E-3,1.5923162E-3,1.7033126E-3,6.2305154E-4,1.5397071E-3,0E0,0E0,5.366997E-4,0E0,3.95398E-4,0E0,1.1766193E-3,2.2890314E-3,0E0,3.018747E-4,1.1519631E-4,1.3928362E-3,9.006348E-4,2.0286239E-4,6.534424E-5,1.7391983E-4,5.1300726E-3,6.368669E-5,1.0697711E-3,3.9704193E-4,2.265335E-4,0E0,1.8800684E-4,1.4054014E-4,0E0,8.248954E-4,0E0,0E0,0E0,0E0,0E0,0E0,0E0,0E0,0E0,0E0,0E0,0E0,0E0,0E0,0E0,0E0,0E0,0E0,0E0,0E0,0E0,0E0,0E0,0E0],"parents":[2147483647,0,0,1,1,2,2,3,3,4,4,5,5,6,6,7,7,10,10,11,11,12,12,13,13,14,14,17,17,19,19,21,21,22,22,24,24,25,25,26,26,27,27,28,28,29,29,30,30,31,31,32,32,33,33,34,34,35,35,37,37,38,38,40,40],"right_children":[2,4,6,8,10,12,14,16,-1,-1,18,20,22,24,26,-1,-1,28,-1,30,-1,32,34,-1,36,38,40,42,44,46,48,50,52,54,56,58,-1,60,62,-1,64,-1,-1,-1,-1,-1,-1,-1,-1,-1,-1,-1,-1,-1,-1,-1,-1,-1,-1,-1,-1,-1,-1,-1,-1],"split_conditions":[9.29706E2,1.37598E1,1.84644E1,2.38209E1,5.45083E2,7.961E-1,2.26762E1,6.61714E2,-1.2119826E-2,-1.0831067E-2,3.10963E1,6.829E-1,1.484331E3,9.53391E2,1.123176E3,-6.659726E-3,2.0104052E-4,6.57509E2,-1.0463763E-2,2.53346E1,-1.0042715E-2,1.333619E3,1.61693E3,-3.4938008E-4,1.659933E3,2.84204E1,1.271149E3,6.27969E2,7.22765E2,2.44518E1,1.233217E3,1.32684E3,9.923E-1,1.577875E3,2.09572E1,1.282231E3,9.75059E-4,1.05926E3,1.03801E3,8.423463E-3,1.484285E3,3.7791583E-4,-4.482953E-3,2.581291E-3,-6.4166845E-4,-1.3887513E-3,3.4537615E-4,-6.014374E-3,-1.3887465E-3,3.6878584E-5,1.3196701E-2,-1.5017578E-3,-3.705463E-3,2.7340427E-3,1.1517929E-2,2.4235994E-3,-2.1446005E-3,4.481992E-3,9.417504E-3,1.5765429E-3,-2.179286E-3,-3.3758432E-3,3.8995745E-4,-3.597877E-4,4.378787E-3],"split_indices":[4,2,2,0,4,1,0,4,0,0,0,1,4,4,4,0,0,4,0,0,0,4,4,0,4,0,4,4,4,0,4,4,1,4,0,4,0,4,4,0,4,0,0,0,0,0,0,0,0,0,0,0,0,0,0,0,0,0,0,0,0,0,0,0,0],"split_type":[0,0,0,0,0,0,0,0,0,0,0,0,0,0,0,0,0,0,0,0,0,0,0,0,0,0,0,0,0,0,0,0,0,0,0,0,0,0,0,0,0,0,0,0,0,0,0,0,0,0,0,0,0,0,0,0,0,0,0,0,0,0,0,0,0],"sum_hessian":[1.36E2,3.9E1,9.7E1,6E0,3.3E1,6.3E1,3.4E1,2E0,4E0,2E0,3.1E1,1.7E1,4.6E1,1.2E1,2.2E1,1E0,1E0,2.9E1,2E0,1.5E1,2E0,3.5E1,1.1E1,1E0,1.1E1,6E0,1.6E1,1.4E1,1.5E1,1.1E1,4E0,2.6E1,9E0,6E0,5E0,1E1,1E0,3E0,3E0,4E0,1.2E1,5E0,9E0,1E0,1.4E1,9E0,2E0,2E0,2E0,2.4E1,2E0,7E0,2E0,3E0,3E0,2E0,3E0,5E0,5E0,2E0,1E0,2E0,1E0,6E0,6E0],"tree_param":{"num_deleted":"0","num_feature":"5","num_nodes":"65","size_leaf_vector":"1"}},{"base_weights":[-6.278503E-4,-1.1809118E-2,3.942339E-3,-1.6442709E-2,-9.2068315E-4,9.529743E-3,-5.9926265E-4,-8.147872E-3,-1.2285403E-2,3.1209092E-3,-8.011413E-3,2.1736452E-3,1.5569256E-2,-5.599551E-3,6.6011185E-3,-6.9717187E-3,-6.725339E-3,2.1239251E-3,1.7410852E-3,-2.9167326E-3,-1.7509461E-4,9.044087E-3,-4.8944E-3,2.3576304E-2,9.193273E-3,-9.477585E-3,-8.8679045E-4,-3.5048467E-3,1.0374097E-2,-6.029418E-3,-4.4939537E-3,-2.2326084E-3,4.1161054E-3,1.5982786E-3,1.4982547E-2,-8.33597E-3,3.2123402E-3,1.4987432E-2,1.5131423E-2,-7.5535057E-3,1.5969694E-2,-5.640926E-3,-8.034172E-3,-3.613311E-3,3.23159E-4,4.908771E-4,-5.8885394E-3,8.28695E-3,6.232677E-3,-1.9250311E-3,7.193953E-4,1.7997422E-3,3.612131E-4,-9.861589E-6,9.721161E-4,-2.969742E-4,5.5125062E-3,-7.633433E-4,-3.3905911E-3,1.2339324E-3,7.6505545E-5,7.3755253E-3,-9.4677065E-4,-2.7704472E-3,-1.2423546E-4,6.916124E-3,8.5742533E-4,-7.7574706E-4,-3.5534962E-3,8.7179395E-4,-1.7908887E-3,4.6245218E-4,-1.1537165E-3,-4.4476036E-3,1.5599282E-5,6.71736E-4,3.5549477E-3],"categories":[],"categories_nodes":[],"categories_segments":[],"categories_sizes":[],"default_left":[0,0,0,0,0,0,0,0,0,0,0,0,0,0,0,0,0,0,0,0,0,0,0,0,0,0,0,0,0,0,0,0,0,0,0,0,0,0,0,0,0,0,0,0,0,0,0,0,0,0,0,0,0,0,0,0,0,0,0,0,0,0,0,0,0,0,0,0,0,0,0,0,0,0,0,0,0],"id":7,"left_children":[1,3,5,7,9,11,13,-1,15,17,19,21,23,25,27,-1,29,-1,31,-1,-1,33,35,37,39,41,43,45,47,-1,49,-1,51,53,55,57,59,61,-1,63,65,67,-1,69,71,-1,73,-1,75,-1,-1,-1,-1,-1,-1,-1,-1,-1,-1,-1,-1,-1,-1,-1,-1,-1,-1,-1,-1,-1,-1,-1,-1,-1,-1,-1,-1],"loss_changes":[7.0473263E-3,2.0029629E-3,2.4925359E-3,9.138258E-4,3.975548E-4,1.9209571E-3,2.0171823E-3,0E0,1.1835762E-3,3.6836092E-5,5.7871075E-5,1.0640378E-3,1.0085232E-3,5.947115E-4,9.1334025E-4,0E0,3.8711535E-4,0E0,2.0511277E-4,0E0,0E0,4.624367E-4,3.3367702E-4,1.5511862E-3,1.8228755E-3,1.0438745E-3,5.3950906E-5,9.541883E-5,1.0422396E-3,0E0,2.1416633E-4,0E0,3.1161377E-5,1.617767E-5,3.4330657E-4,1.08662935E-4,9.606523E-6,1.644789E-3,0E0,5.619356E-5,9.5582684E-4,2.7263566E-4,0E0,9.415521E-5,6.687798E-5,0E0,2.66218E-4,0E0,3.0995288E-4,0E0,0E0,0E0,0E0,0E0,0E0,0E0,0E0,0E0,0E0,0E0,0E0,0E0,0E0,0E0,0E0,0E0,0E0,0E0,0E0,0E0,0E0,0E0,0E0,0E0,0E0,0E0,0E0],"parents":[2147483647,0,0,1,1,2,2,3,3,4,4,5,5,6,6,8,8,9,9,10,10,11,11,12,12,13,13,14,14,16,16,18,18,21,21,22,22,23,23,24,24,25,25,26,26,27,27,28,28,30,30,32,32,33,33,34,34,35,35,36,36,37,37,39,39,40,40,41,41,43,43,44,44,46,46,48,48],"right_children":[2,4,6,8,10,12,14,-1,16,18,20,22,24,26,28,-1,30,-1,32,-1,-1,34,36,38,40,42,44,46,48,-1,50,-1,52,54,56,58,60,62,-1,64,66,68,-1,70,72,-1,74,-1,76,-1,-1,-1,-1,-1,-1,-1,-1,-1,-1,-1,-1,-1,-1,-1,-1,-1,-1,-1,-1,-1,-1,-1,-1,-1,-1,-1,-1],"split_conditions":[9.29706E2,1.84644E1,2.26762E1,1.37598E1,2.84204E1,1.258115E3,1.84644E1,-8.147872E-3,-1.26112E1,5.55474E2,8.40476E2,1.10706E3,1.44435E3,7.961E-1,1.123176E3,-6.9717187E-3,4.76017E2,2.1239251E-3,6.40581E2,-2.9167326E-3,-1.7509461E-4,2.13969E1,1.204369E3,1.400554E3,1.513999E3,6.829E-1,1.13055E3,1.007345E3,1.19398E3,-6.029418E-3,7.37071E2,-2.2326084E-3,2.26762E1,1.044888E3,9.53391E2,1.15983E3,2.13969E1,1.347744E3,1.5131423E-2,2.2227E1,1.659933E3,2.53346E1,-8.034172E-3,1.059396E3,1.61693E3,4.908771E-4,1.03801E3,8.28695E-3,1.524783E3,-1.9250311E-3,7.193953E-4,1.7997422E-3,3.612131E-4,-9.861589E-6,9.721161E-4,-2.969742E-4,5.5125062E-3,-7.633433E-4,-3.3905911E-3,1.2339324E-3,7.6505545E-5,7.3755253E-3,-9.4677065E-4,-2.7704472E-3,-1.2423546E-4,6.916124E-3,8.5742533E-4,-7.7574706E-4,-3.5534962E-3,8.7179395E-4,-1.7908887E-3,4.6245218E-4,-1.1537165E-3,-4.4476036E-3,1.5599282E-5,6.71736E-4,3.5549477E-3],"split_indices":[4,2,0,2,0,4,2,0,3,4,4,4,4,1,4,0,4,0,4,0,0,0,4,4,4,1,4,4,4,0,4,0,0,4,4,4,0,4,0,0,4,0,0,4,4,0,4,0,4,0,0,0,0,0,0,0,0,0,0,0,0,0,0,0,0,0,0,0,0,0,0,0,0,0,0,0,0],"split_type":[0,0,0,0,0,0,0,0,0,0,0,0,0,0,0,0,0,0,0,0,0,0,0,0,0,0,0,0,0,0,0,0,0,0,0,0,0,0,0,0,0,0,0,0,0,0,0,0,0,0,0,0,0,0,0,0,0,0,0,0,0,0,0,0,0,0,0,0,0,0,0,0,0,0,0,0,0],"sum_hessian":[1.36E2,3.9E1,9.7E1,2.7E1,1.2E1,4.3E1,5.4E1,6E0,2.1E1,8E0,4E0,2E1,2.3E1,3.2E1,2.2E1,6E0,1.5E1,1E0,7E0,3E0,1E0,1E1,1E1,9E0,1.4E1,1.7E1,1.5E1,6E0,1.6E1,1E0,1.4E1,1E0,6E0,5E0,5E0,7E0,3E0,8E0,1E0,4E0,1E1,1.5E1,2E0,4E0,1.1E1,2E0,4E0,2E0,1.4E1,1.1E1,3E0,3E0,3E0,3E0,2E0,1E0,4E0,3E0,4E0,2E0,1E0,5E0,3E0,3E0,1E0,6E0,4E0,1.1E1,4E0,1E0,3E0,9E0,2E0,1E0,3E0,9E0,5E0],"tree_param":{"num_deleted":"0","num_feature":"5","num_nodes":"77","size_leaf_vector":"1"}},{"base_weights":[-4.3235783E-4,-5.8939373E-3,5.196214E-3,-1.994889E-2,-3.4932245E-3,7.617796E-3,4.51578E-3,-6.502661E-3,-8.348781E-3,-2.1360759E-3,-6.6895727E-3,-1.0948663E-3,6.9265845E-3,-4.438589E-3,-7.3067844E-4,-7.36474E-3,-8.9723215E-4,-1.0685901E-2,4.7713204E-4,2.1676227E-2,4.6545737E-3,2.9069781E-3,-1.7465473E-3,3.3345548E-3,-3.3408515E-3,-8.4219576E-4,-3.96646E-3,2.9197196E-3,-6.946057E-3,7.527262E-4,2.5007838E-2,-1.3585208E-3,9.221E-3,1.3930635E-3,-8.492321E-5,2.2241084E-3,-1.0278225E-4,-2.311811E-3,-2.511522E-4,2.3666867E-3,1.1866418E-4,-3.2370465E-3,-9.862483E-4,9.082252E-3,3.4216673E-3,-1.3077771E-3,1.7608852E-3,-8.488477E-4,3.531772E-3],"categories":[],"categories_nodes":[],"categories_segments":[],"categories_sizes":[],"default_left":[0,0,0,0,0,0,0,0,0,0,0,0,0,0,0,0,0,0,0,0,0,0,0,0,0,0,0,0,0,0,0,0,0,0,0,0,0,0,0,0,0,0,0,0,0,0,0,0,0],"id":8,"left_children":[1,3,5,7,9,-1,11,13,-1,15,-1,17,19,-1,21,-1,23,25,27,29,31,33,-1,35,37,-1,-1,39,41,-1,43,45,47,-1,-1,-1,-1,-1,-1,-1,-1,-1,-1,-1,-1,-1,-1,-1,-1],"loss_changes":[4.242128E-3,2.2922473E-3,8.1981183E-4,8.7864883E-4,1.5091895E-3,0E0,9.138372E-4,2.2851411E-4,0E0,1.5884176E-3,0E0,3.217175E-4,1.4741397E-3,0E0,9.1003276E-5,0E0,5.9022935E-4,2.2814464E-5,3.6478456E-4,3.2039755E-4,1.1657777E-3,1.793371E-5,0E0,3.175328E-4,3.869933E-4,0E0,0E0,1.8502762E-4,3.4846787E-5,0E0,1.2876932E-5,4.3769216E-4,7.7125547E-4,0E0,0E0,0E0,0E0,0E0,0E0,0E0,0E0,0E0,0E0,0E0,0E0,0E0,0E0,0E0,0E0],"parents":[2147483647,0,0,1,1,2,2,3,3,4,4,6,6,7,7,9,9,11,11,12,12,14,14,16,16,17,17,18,18,19,19,20,20,21,21,23,23,24,24,27,27,28,28,30,30,31,31,32,32],"right_children":[2,4,6,8,10,-1,12,14,-1,16,-1,18,20,-1,22,-1,24,26,28,30,32,34,-1,36,38,-1,-1,40,42,-1,44,46,48,-1,-1,-1,-1,-1,-1,-1,-1,-1,-1,-1,-1,-1,-1,-1,-1],"split_conditions":[1.15983E3,1.37598E1,1.170472E3,2.38209E1,3.10963E1,7.617796E-3,1.321496E3,6.61714E2,-8.348781E-3,5.45083E2,-6.6895727E-3,1.178707E3,1.343765E3,-4.438589E-3,1.069197E3,-7.36474E-3,6.773E-1,2.09572E1,2.84204E1,2.09572E1,1.73303E1,7.43234E2,-1.7465473E-3,2.26762E1,7.666E-1,-8.4219576E-4,-3.96646E-3,-1.24272E1,1.233217E3,7.527262E-4,2.2227E1,1.577875E3,1.393011E3,1.3930635E-3,-8.492321E-5,2.2241084E-3,-1.0278225E-4,-2.311811E-3,-2.511522E-4,2.3666867E-3,1.1866418E-4,-3.2370465E-3,-9.862483E-4,9.082252E-3,3.4216673E-3,-1.3077771E-3,1.7608852E-3,-8.488477E-4,3.531772E-3],"split_indices":[4,2,4,0,0,0,4,4,0,4,0,4,4,0,4,0,1,0,0,0,2,4,0,0,1,0,0,3,4,0,0,4,4,0,0,0,0,0,0,0,0,0,0,0,0,0,0,0,0],"split_type":[0,0,0,0,0,0,0,0,0,0,0,0,0,0,0,0,0,0,0,0,0,0,0,0,0,0,0,0,0,0,0,0,0,0,0,0,0,0,0,0,0,0,0,0,0,0,0,0,0],"sum_hessian":[1.36E2,6.9E1,6.7E1,9E0,6E1,1E0,6.6E1,4E0,5E0,5.7E1,3E0,2E1,4.6E1,1E0,3E0,2E0,5.5E1,2E0,1.8E1,5E0,4.1E1,2E0,1E0,2E1,3.5E1,1E0,1E0,1.4E1,4E0,1E0,4E0,1.8E1,2.3E1,1E0,1E0,9E0,1.1E1,1.2E1,2.3E1,4E0,1E1,1E0,3E0,2E0,2E0,1.3E1,5E0,4E0,1.9E1],"tree_param":{"num_deleted":"0","num_feature":"5","num_nodes":"49","size_leaf_vector":"1"}},{"base_weights":[-3.775268E-4,-1.1131967E-2,1.4484591E-3,-7.3461197E-3,-7.331649E-3,-9.207185E-3,2.6299476E-3,-5.8917925E-3,-4.397741E-3,-4.1296653E-4,-5.379773E-3,5.5400818E-3,-1.999579E-5,3.0207336E-3,-8.409051E-3,1.1841059E-3,-1.7974675E-3,1.8399477E-3,1.0333897E-2,9.7011775E-4,-8.597647E-3,6.145239E-5,1.7878594E-3,-1.0900593E-2,-1.9465908E-3,-3.4594436E-3,-1.0161847E-4,4.8174164E-3,-2.4242355E-3,1.9665245E-2,4.6682516E-3,-2.1250397E-3,3.135387E-3,-3.7063549E-3,-7.2260696E-4,-3.5705272E-4,5.7245046E-4,-3.8494216E-3,-1.2147129E-3,4.4292214E-5,-1.2343929E-3,-7.218272E-5,-1.484567E-3,3.225595E-4,-5.448103E-4,3.8312594E-4,2.724958E-3,-1.7994718E-3,8.235425E-4,3.2189563E-3,1.2331949E-2,-1.0514171E-3,3.6773088E-3,-2.1111152E-4,-2.503536E-3,6.4751254E-3,5.40295E-4,-5.21417E-4,1.9624383E-4],"categories":[],"categories_nodes":[],"categories_segments":[],"categories_sizes":[],"default_left":[0,0,0,0,0,0,0,0,0,0,0,0,0,0,0,0,0,0,0,0,0,0,0,0,0,0,0,0,0,0,0,0,0,0,0,0,0,0,0,0,0,0,0,0,0,0,0,0,0,0,0,0,0,0,0,0,0,0,0],"id":9,"left_children":[1,3,5,7,-1,9,11,-1,13,15,-1,17,19,21,23,-1,25,27,29,31,33,35,-1,37,39,41,43,45,47,49,51,53,55,-1,57,-1,-1,-1,-1,-1,-1,-1,-1,-1,-1,-1,-1,-1,-1,-1,-1,-1,-1,-1,-1,-1,-1,-1,-1],"loss_changes":[2.706456E-3,8.2802447E-4,1.509778E-3,5.2979606E-4,0E0,9.1339054E-4,8.252617E-4,0E0,4.7176852E-4,4.9349474E-5,0E0,8.8561175E-4,4.924331E-4,5.181413E-5,1.3979594E-4,0E0,1.6559223E-5,3.9257266E-4,1.0712962E-3,3.55159E-4,1.6858545E-4,1.15166595E-5,0E0,4.0648447E-5,1.87691E-5,1.3188954E-5,1.0022809E-5,2.602406E-4,2.5664584E-4,1.0916209E-3,9.733847E-4,1.8862542E-4,7.2427257E-4,0E0,5.3310123E-6,0E0,0E0,0E0,0E0,0E0,0E0,0E0,0E0,0E0,0E0,0E0,0E0,0E0,0E0,0E0,0E0,0E0,0E0,0E0,0E0,0E0,0E0,0E0,0E0],"parents":[2147483647,0,0,1,1,2,2,3,3,5,5,6,6,8,8,9,9,11,11,12,12,13,13,14,14,16,16,17,17,18,18,19,19,20,20,21,21,23,23,24,24,25,25,26,26,27,27,28,28,29,29,30,30,31,31,32,32,34,34],"right_children":[2,4,6,8,-1,10,12,-1,14,16,-1,18,20,22,24,-1,26,28,30,32,34,36,-1,38,40,42,44,46,48,50,52,54,56,-1,58,-1,-1,-1,-1,-1,-1,-1,-1,-1,-1,-1,-1,-1,-1,-1,-1,-1,-1,-1,-1,-1,-1,-1,-1],"split_conditions":[6.98309E2,6.57509E2,1.37598E1,5.45083E2,-7.331649E-3,2.38209E1,2.26762E1,-5.8917925E-3,6.27969E2,7.43234E2,-5.379773E-3,1.32684E3,3.10963E1,-1.24272E1,-1.12285E1,1.1841059E-3,1.123654E3,1.10706E3,1.44435E3,1.13055E3,1.233217E3,9.229E-1,1.7878594E-3,2.44518E1,2.53346E1,1.069197E3,1.276588E3,9.68741E2,1.204369E3,1.400554E3,1.55099E3,1.102921E3,1.170472E3,-3.7063549E-3,1.307869E3,-3.5705272E-4,5.7245046E-4,-3.8494216E-3,-1.2147129E-3,4.4292214E-5,-1.2343929E-3,-7.218272E-5,-1.484567E-3,3.225595E-4,-5.448103E-4,3.8312594E-4,2.724958E-3,-1.7994718E-3,8.235425E-4,3.2189563E-3,1.2331949E-2,-1.0514171E-3,3.6773088E-3,-2.1111152E-4,-2.503536E-3,6.4751254E-3,5.40295E-4,-5.21417E-4,1.9624383E-4],"split_indices":[4,4,2,4,0,0,0,0,4,4,0,4,0,3,3,0,4,4,4,4,4,1,0,0,0,4,4,4,4,4,4,4,4,0,4,0,0,0,0,0,0,0,0,0,0,0,0,0,0,0,0,0,0,0,0,0,0,0,0],"split_type":[0,0,0,0,0,0,0,0,0,0,0,0,0,0,0,0,0,0,0,0,0,0,0,0,0,0,0,0,0,0,0,0,0,0,0,0,0,0,0,0,0,0,0,0,0,0,0,0,0,0,0,0,0,0,0,0,0,0,0],"sum_hessian":[1.36E2,1.9E1,1.17E2,1.6E1,3E0,1.1E1,1.06E2,2E0,1.4E1,6E0,5E0,5E1,5.6E1,5E0,9E0,1E0,5E0,2.9E1,2.1E1,5.1E1,5E0,3E0,2E0,6E0,3E0,2E0,3E0,1.7E1,1.2E1,7E0,1.4E1,2.1E1,3E1,3E0,2E0,2E0,1E0,4E0,2E0,2E0,1E0,1E0,1E0,2E0,1E0,1E1,7E0,7E0,5E0,6E0,1E0,7E0,7E0,1.8E1,3E0,1E0,2.9E1,1E0,1E0],"tree_param":{"num_deleted":"0","num_feature":"5","num_nodes":"59","size_leaf_vector":"1"}},{"base_weights":[-2.8522094E-4,-8.666098E-3,1.1376839E-3,-5.738918E-3,-5.6820265E-3,4.2762714E-3,-1.2329876E-3,-4.7134343E-3,-3.3618181E-3,1.1214316E-3,7.77874E-3,-3.5018143E-3,2.3419647E-3,2.44839E-3,-6.5117613E-3,3.472808E-3,-3.4583271E-3,1.0144724E-2,-3.240943E-3,-5.9801214E-3,1.3482405E-4,-2.377469E-3,4.11264E-3,9.687245E-5,1.430285E-3,-8.353866E-3,-1.6601384E-3,7.784527E-4,7.980496E-3,-5.366504E-3,7.455647E-4,6.72761E-3,2.213128E-2,-9.008251E-3,2.9742436E-3,-3.4403205E-3,-1.3449438E-2,1.3286457E-3,-1.0192295E-3,5.2291155E-4,-3.40202E-3,9.365406E-3,5.638118E-4,-2.856404E-4,4.8658403E-4,-1.0406725E-3,-3.345107E-3,3.543496E-5,-1.0492355E-3,-3.1922015E-4,6.189108E-4,3.8912953E-4,4.937798E-3,-8.44419E-4,-3.1015726E-3,3.490955E-4,-7.630438E-5,4.0514152E-3,-7.754177E-4,7.941717E-3,1.3661921E-3,-3.349182E-3,-3.8117767E-4,-1.645452E-3,9.361916E-5,-1.6619622E-3,-4.8057754E-3,-3.3607394E-5,-1.3832123E-3,-8.29193E-4,7.171387E-4,4.2033123E-4,4.15913E-3,-1.9279249E-3,9.910566E-4],"categories":[],"categories_nodes":[],"categories_segments":[],"categories_sizes":[],"default_left":[0,0,0,0,0,0,0,0,0,0,0,0,0,0,0,0,0,0,0,0,0,0,0,0,0,0,0,0,0,0,0,0,0,0,0,0,0,0,0,0,0,0,0,0,0,0,0,0,0,0,0,0,0,0,0,0,0,0,0,0,0,0,0,0,0,0,0,0,0,0,0,0,0,0,0],"id":10,"left_children":[1,3,5,7,-1,9,11,-1,13,15,17,19,21,23,25,27,29,31,33,35,37,39,41,43,-1,45,47,49,51,53,55,57,59,61,-1,63,65,-1,67,69,-1,71,73,-1,-1,-1,-1,-1,-1,-1,-1,-1,-1,-1,-1,-1,-1,-1,-1,-1,-1,-1,-1,-1,-1,-1,-1,-1,-1,-1,-1,-1,-1,-1,-1],"loss_changes":[1.6436103E-3,4.927807E-4,8.8325865E-4,3.501778E-4,0E0,5.548129E-4,5.5974565E-4,0E0,2.9047066E-4,3.1353475E-4,6.5861584E-4,3.793399E-4,2.3540546E-4,3.2260356E-5,7.55034E-5,2.2454852E-4,8.421877E-5,6.70298E-4,4.686563E-4,4.2799412E-4,9.371298E-5,2.1388938E-4,3.6754296E-4,7.943566E-6,0E0,5.6945602E-5,1.3481952E-5,3.296452E-5,3.753224E-4,5.971291E-5,1.9681736E-6,1.107788E-3,1.8466543E-4,5.253512E-5,0E0,1.5514813E-4,3.321201E-5,0E0,4.8356582E-5,4.9576192E-5,0E0,2.671858E-4,2.701954E-4,0E0,0E0,0E0,0E0,0E0,0E0,0E0,0E0,0E0,0E0,0E0,0E0,0E0,0E0,0E0,0E0,0E0,0E0,0E0,0E0,0E0,0E0,0E0,0E0,0E0,0E0,0E0,0E0,0E0,0E0,0E0,0E0],"parents":[2147483647,0,0,1,1,2,2,3,3,5,5,6,6,8,8,9,9,10,10,11,11,12,12,13,13,14,14,15,15,16,16,17,17,18,18,19,19,20,20,21,21,22,22,23,23,25,25,26,26,27,27,28,28,29,29,30,30,31,31,32,32,33,33,35,35,36,36,38,38,39,39,41,41,42,42],"right_children":[2,4,6,8,-1,10,12,-1,14,16,18,20,22,24,26,28,30,32,34,36,38,40,42,44,-1,46,48,50,52,54,56,58,60,62,-1,64,66,-1,68,70,-1,72,74,-1,-1,-1,-1,-1,-1,-1,-1,-1,-1,-1,-1,-1,-1,-1,-1,-1,-1,-1,-1,-1,-1,-1,-1,-1,-1,-1,-1,-1,-1,-1,-1],"split_conditions":[6.98309E2,6.57509E2,2.26762E1,5.45083E2,-5.6820265E-3,1.258115E3,1.84644E1,-4.7134343E-3,6.27969E2,1.11007E3,1.659933E3,7.961E-1,1.03801E3,-1.24272E1,-1.12285E1,2.2227E1,1.204369E3,1.55099E3,1.685009E3,6.829E-1,1.059396E3,1.007345E3,1.271149E3,9.229E-1,1.430285E-3,6.829E-1,2.53346E1,2.09572E1,9.53391E2,9.229E-1,2.13969E1,1.44435E3,2.13969E1,2.13969E1,2.9742436E-3,1.233217E3,8.5279E2,1.3286457E-3,1.61693E3,8.40476E2,-3.40202E-3,1.123176E3,1.387269E3,-2.856404E-4,4.8658403E-4,-1.0406725E-3,-3.345107E-3,3.543496E-5,-1.0492355E-3,-3.1922015E-4,6.189108E-4,3.8912953E-4,4.937798E-3,-8.44419E-4,-3.1015726E-3,3.490955E-4,-7.630438E-5,4.0514152E-3,-7.754177E-4,7.941717E-3,1.3661921E-3,-3.349182E-3,-3.8117767E-4,-1.645452E-3,9.361916E-5,-1.6619622E-3,-4.8057754E-3,-3.3607394E-5,-1.3832123E-3,-8.29193E-4,7.171387E-4,4.2033123E-4,4.15913E-3,-1.9279249E-3,9.910566E-4],"split_indices":[4,4,0,4,0,4,2,0,4,4,4,1,4,3,3,0,4,4,4,1,4,4,4,1,0,1,0,0,4,1,0,4,0,0,0,4,4,0,4,4,0,4,4,0,0,0,0,0,0,0,0,0,0,0,0,0,0,0,0,0,0,0,0,0,0,0,0,0,0,0,0,0,0,0,0],"split_type":[0,0,0,0,0,0,0,0,0,0,0,0,0,0,0,0,0,0,0,0,0,0,0,0,0,0,0,0,0,0,0,0,0,0,0,0,0,0,0,0,0,0,0,0,0,0,0,0,0,0,0,0,0,0,0,0,0,0,0,0,0,0,0,0,0,0,0,0,0,0,0,0,0,0,0],"sum_hessian":[1.36E2,1.9E1,1.17E2,1.6E1,3E0,5E1,6.7E1,2E0,1.4E1,2.7E1,2.3E1,4.1E1,2.6E1,5E0,9E0,1.8E1,9E0,1.9E1,4E0,2.4E1,1.7E1,7E0,1.9E1,3E0,2E0,6E0,3E0,1.2E1,6E0,6E0,3E0,1.6E1,3E0,3E0,1E0,1.9E1,5E0,3E0,1.4E1,6E0,1E0,7E0,1.2E1,2E0,1E0,3E0,3E0,2E0,1E0,5E0,7E0,4E0,2E0,5E0,1E0,2E0,1E0,9E0,7E0,2E0,1E0,2E0,1E0,1.2E1,7E0,2E0,3E0,1.2E1,2E0,2E0,4E0,3E0,4E0,3E0,9E0],"tree_param":{"num_deleted":"0","num_feature":"5","num_nodes":"75","size_leaf_vector":"1"}},{"base_weights":[-2.60688E-4,-5.1663537E-3,1.2835754E-3,-6.629119E-3,-1.1390805E-3,6.2250723E-3,3.2527174E-4,-1.0490795E-2,-4.042607E-3,7.957816E-4,-4.240319E-3,8.353041E-3,-5.526602E-4,-6.5857614E-4,6.127658E-3,-5.422175E-4,-1.2713568E-2,-3.770748E-3,-1.9267307E-3,1.7215112E-3,-7.137895E-4,-1.6586334E-4,-1.5855521E-3,3.5633247E-3,9.874445E-3,-8.345038E-4,1.8605789E-3,-5.343507E-3,4.0069222E-5,2.0085767E-2,-5.1068813E-3,-2.8558375E-4,-4.3545547E-3,-3.6781891E-3,1.0114387E-3,-1.13072E-3,3.430307E-3,6.200243E-3,-1.3684094E-3,1.1612624E-3,-3.240019E-4,-1.5267084E-3,-8.854965E-3,1.5512845E-3,-3.1902574E-3,7.156733E-3,2.50915E-3,-4.8644836E-3,4.8009455E-3,4.8202203E-4,-1.758264E-3,9.889975E-4,-1.4978215E-3,1.3367296E-3,5.3089858E-5,1.3997556E-4,2.8641361E-3,-1.0219038E-3,3.3769908E-4,-8.754343E-4,-3.0443074E-5,8.077294E-4,-3.7244766E-3,-9.302816E-5,5.1746643E-3,-2.3326369E-3,-1.5964032E-4,-1.1065692E-3,3.507042E-3],"categories":[],"categories_nodes":[],"categories_segments":[],"categories_sizes":[],"default_left":[0,0,0,0,0,0,0,0,0,0,0,0,0,0,0,0,0,0,0,0,0,0,0,0,0,0,0,0,0,0,0,0,0,0,0,0,0,0,0,0,0,0,0,0,0,0,0,0,0,0,0,0,0,0,0,0,0,0,0,0,0,0,0,0,0,0,0,0,0],"id":11,"left_children":[1,3,5,7,9,11,13,15,17,19,21,23,25,27,29,-1,31,-1,33,35,-1,-1,-1,37,-1,-1,39,41,43,45,47,-1,-1,49,-1,51,53,55,57,-1,-1,59,61,63,65,-1,-1,-1,67,-1,-1,-1,-1,-1,-1,-1,-1,-1,-1,-1,-1,-1,-1,-1,-1,-1,-1,-1,-1],"loss_changes":[1.044494E-3,1.8685049E-4,4.951979E-4,1.9730837E-4,6.3379055E-5,2.49804E-4,5.1210675E-4,1.5073281E-4,2.6444066E-4,2.4670846E-5,1.2489305E-5,1.412085E-3,3.207131E-5,2.5224322E-4,2.1411437E-3,0E0,1.3451139E-4,0E0,1.4231476E-4,3.3122E-5,0E0,0E0,0E0,1.6453942E-4,0E0,0E0,2.1914908E-5,1.205063E-4,3.3690588E-4,6.562518E-5,9.583011E-4,0E0,0E0,1.3630596E-4,0E0,6.77552E-5,1.2556142E-5,1.4906426E-4,2.9248211E-5,0E0,0E0,1.1602333E-5,2.3896745E-4,1.3786496E-3,2.6399887E-4,0E0,0E0,0E0,3.3554924E-4,0E0,0E0,0E0,0E0,0E0,0E0,0E0,0E0,0E0,0E0,0E0,0E0,0E0,0E0,0E0,0E0,0E0,0E0,0E0,0E0],"parents":[2147483647,0,0,1,1,2,2,3,3,4,4,5,5,6,6,7,7,8,8,9,9,10,10,11,11,12,12,13,13,14,14,16,16,18,18,19,19,23,23,26,26,27,27,28,28,29,29,30,30,33,33,35,35,36,36,37,37,38,38,41,41,42,42,43,43,44,44,48,48],"right_children":[2,4,6,8,10,12,14,16,18,20,22,24,26,28,30,-1,32,-1,34,36,-1,-1,-1,38,-1,-1,40,42,44,46,48,-1,-1,50,-1,52,54,56,58,-1,-1,60,62,64,66,-1,-1,-1,68,-1,-1,-1,-1,-1,-1,-1,-1,-1,-1,-1,-1,-1,-1,-1,-1,-1,-1,-1,-1],"split_conditions":[8.40476E2,1.84644E1,6.196E-1,7.961E-1,2.84204E1,1.44435E3,1.577875E3,6.54957E2,5.45083E2,7.31582E2,5.60318E2,1.347744E3,1.55099E3,1.37598E1,1.61693E3,-5.422175E-4,2.44518E1,-3.770748E-3,7.30937E2,6.40581E2,-7.137895E-4,-1.6586334E-4,-1.5855521E-3,1.102921E3,9.874445E-3,-8.345038E-4,1.659933E3,2.38209E1,1.343765E3,1.605703E3,1.681328E3,-2.8558375E-4,-4.3545547E-3,6.27969E2,1.0114387E-3,5.55474E2,7.22765E2,9.53391E2,1.204369E3,1.1612624E-3,-3.240019E-4,1.123654E3,8.5279E2,1.32684E3,1.408648E3,7.156733E-3,2.50915E-3,-4.8644836E-3,1.43888E1,4.8202203E-4,-1.758264E-3,9.889975E-4,-1.4978215E-3,1.3367296E-3,5.3089858E-5,1.3997556E-4,2.8641361E-3,-1.0219038E-3,3.3769908E-4,-8.754343E-4,-3.0443074E-5,8.077294E-4,-3.7244766E-3,-9.302816E-5,5.1746643E-3,-2.3326369E-3,-1.5964032E-4,-1.1065692E-3,3.507042E-3],"split_indices":[4,2,1,1,0,4,4,4,4,4,4,4,4,2,4,0,0,0,4,4,0,0,0,4,0,0,4,0,4,4,4,0,0,4,0,4,4,4,4,0,0,4,4,4,4,0,0,0,2,0,0,0,0,0,0,0,0,0,0,0,0,0,0,0,0,0,0,0,0],"split_type":[0,0,0,0,0,0,0,0,0,0,0,0,0,0,0,0,0,0,0,0,0,0,0,0,0,0,0,0,0,0,0,0,0,0,0,0,0,0,0,0,0,0,0,0,0,0,0,0,0,0,0,0,0,0,0,0,0,0,0,0,0,0,0,0,0,0,0,0,0],"sum_hessian":[1.36E2,3.2E1,1.04E2,2.3E1,9E0,1.6E1,8.8E1,8E0,1.5E1,6E0,3E0,1.2E1,4E0,7.6E1,1.2E1,2E0,6E0,2E0,1.3E1,5E0,1E0,1E0,2E0,1.1E1,1E0,2E0,2E0,9E0,6.7E1,5E0,7E0,1E0,5E0,1E1,3E0,2E0,3E0,7E0,4E0,1E0,1E0,5E0,4E0,4.6E1,2.1E1,3E0,2E0,3E0,4E0,3E0,7E0,1E0,1E0,2E0,1E0,3E0,4E0,2E0,2E0,2E0,3E0,1E0,3E0,4.2E1,4E0,7E0,1.4E1,2E0,2E0],"tree_param":{"num_deleted":"0","num_feature":"5","num_nodes":"69","size_leaf_vector":"1"}},{"base_weights":[-1.2872602E-4,-5.494266E-3,7.817784E-4,-3.6257883E-3,-3.618519E-3,2.8545267E-3,-7.8427943E-4,-3.0165971E-3,-2.098162E-3,8.121103E-4,5.5098888E-3,-2.8146077E-3,8.9267996E-4,1.6075522E-3,-4.1117743E-3,3.8643181E-3,-1.4373793E-3,4.776806E-3,3.6724745E-3,-5.418036E-3,-1.1118203E-3,4.8939455E-3,3.5014506E-5,-8.149445E-5,9.971291E-4,-5.6449026E-3,-4.0085614E-4,8.765757E-4,4.0593804E-3,-2.2719754E-3,6.104757E-4,-3.9940714E-3,5.8387406E-3,-2.5434445E-3,-3.1594078E-3,6.8659737E-4,-3.8952716E-3,8.678978E-4,-5.469018E-3,-2.601266E-4,3.4129323E-4,-2.3001877E-3,-6.633863E-4,4.7395081E-4,-4.7630965E-4,1.27417E-3,3.443599E-5,-2.1986068E-4,-1.6655244E-3,2.5075796E-4,-7.746667E-5,-8.5075204E-5,-2.8254034E-3,8.3932765E-3,7.4929366E-4,4.8698785E-4,-1.189752E-3,6.116266E-4,-1.3500542E-3,-5.444223E-4,-1.6566352E-3,-1.6165228E-4,3.3604393E-3,-4.980277E-3,4.3925646E-4],"categories":[],"categories_nodes":[],"categories_segments":[],"categories_sizes":[],"default_left":[0,0,0,0,0,0,0,0,0,0,0,0,0,0,0,0,0,0,0,0,0,0,0,0,0,0,0,0,0,0,0,0,0,0,0,0,0,0,0,0,0,0,0,0,0,0,0,0,0,0,0,0,0,0,0,0,0,0,0,0,0,0,0,0,0],"id":12,"left_children":[1,3,5,7,-1,9,11,-1,13,15,17,19,21,23,25,27,29,-1,31,33,35,-1,37,39,-1,41,43,45,-1,47,49,51,53,55,-1,57,59,61,63,-1,-1,-1,-1,-1,-1,-1,-1,-1,-1,-1,-1,-1,-1,-1,-1,-1,-1,-1,-1,-1,-1,-1,-1,-1,-1],"loss_changes":[6.7358796E-4,2.0168995E-4,3.852719E-4,1.4587508E-4,0E0,2.7211648E-4,2.3403745E-4,0E0,1.1853796E-4,2.1153176E-4,3.6244188E-4,1.3140176E-4,5.020017E-4,1.7663433E-5,5.463035E-5,3.6360943E-4,3.2151365E-5,0E0,3.5547593E-4,1.4959867E-4,1.0279064E-4,0E0,1.7436259E-4,4.8174306E-6,0E0,3.1654155E-5,1.1911384E-5,2.7757507E-5,0E0,6.1554245E-5,1.3905812E-6,9.795651E-5,1.1136099E-3,5.9778446E-5,0E0,1.0034822E-4,1.7056394E-5,4.8574447E-4,4.102058E-4,0E0,0E0,0E0,0E0,0E0,0E0,0E0,0E0,0E0,0E0,0E0,0E0,0E0,0E0,0E0,0E0,0E0,0E0,0E0,0E0,0E0,0E0,0E0,0E0,0E0,0E0],"parents":[2147483647,0,0,1,1,2,2,3,3,5,5,6,6,8,8,9,9,10,10,11,11,12,12,13,13,14,14,15,15,16,16,18,18,19,19,20,20,22,22,23,23,25,25,26,26,27,27,29,29,30,30,31,31,32,32,33,33,35,35,36,36,37,37,38,38],"right_children":[2,4,6,8,-1,10,12,-1,14,16,18,20,22,24,26,28,30,-1,32,34,36,-1,38,40,-1,42,44,46,-1,48,50,52,54,56,-1,58,60,62,64,-1,-1,-1,-1,-1,-1,-1,-1,-1,-1,-1,-1,-1,-1,-1,-1,-1,-1,-1,-1,-1,-1,-1,-1,-1,-1],"split_conditions":[6.98309E2,6.57509E2,2.26762E1,5.45083E2,-3.618519E-3,1.32684E3,1.134684E3,-3.0165971E-3,6.27969E2,1.031455E3,1.333619E3,2.52466E1,1.170472E3,-1.24272E1,-1.12285E1,9.68741E2,1.204369E3,4.776806E-3,1.400554E3,1.069197E3,2.84204E1,4.8939455E-3,1.61693E3,9.229E-1,9.971291E-4,2.26762E1,2.2227E1,7.22765E2,4.0593804E-3,1.17489E3,1.282231E3,9.229E-1,1.44435E3,2.38209E1,-3.1594078E-3,1.102921E3,9.63759E2,1.577875E3,1.681328E3,-2.601266E-4,3.4129323E-4,-2.3001877E-3,-6.633863E-4,4.7395081E-4,-4.7630965E-4,1.27417E-3,3.443599E-5,-2.1986068E-4,-1.6655244E-3,2.5075796E-4,-7.746667E-5,-8.5075204E-5,-2.8254034E-3,8.3932765E-3,7.4929366E-4,4.8698785E-4,-1.189752E-3,6.116266E-4,-1.3500542E-3,-5.444223E-4,-1.6566352E-3,-1.6165228E-4,3.3604393E-3,-4.980277E-3,4.3925646E-4],"split_indices":[4,4,0,4,0,4,4,0,4,4,4,0,4,3,3,4,4,0,4,4,0,0,4,1,0,0,0,4,0,4,4,1,4,0,0,4,4,4,4,0,0,0,0,0,0,0,0,0,0,0,0,0,0,0,0,0,0,0,0,0,0,0,0,0,0],"split_type":[0,0,0,0,0,0,0,0,0,0,0,0,0,0,0,0,0,0,0,0,0,0,0,0,0,0,0,0,0,0,0,0,0,0,0,0,0,0,0,0,0,0,0,0,0,0,0,0,0,0,0,0,0,0,0,0,0,0,0,0,0,0,0,0,0],"sum_hessian":[1.36E2,1.9E1,1.17E2,1.6E1,3E0,5E1,6.7E1,2E0,1.4E1,2.9E1,2.1E1,3E1,3.7E1,5E0,9E0,1.2E1,1.7E1,2E0,1.9E1,1.1E1,1.9E1,1E0,3.6E1,3E0,2E0,6E0,3E0,1E1,2E0,1.2E1,5E0,4E0,1.5E1,8E0,3E0,1.2E1,7E0,3.2E1,4E0,2E0,1E0,3E0,3E0,1E0,2E0,1E0,9E0,9E0,3E0,4E0,1E0,3E0,1E0,1E0,1.4E1,2E0,6E0,1E1,2E0,4E0,3E0,2.9E1,3E0,1E0,3E0],"tree_param":{"num_deleted":"0","num_feature":"5","num_nodes":"65","size_leaf_vector":"1"}},{"base_weights":[-6.900042E-5,-3.2111306E-3,9.1918337E-4,-2.6070124E-3,-2.5149926E-3,3.7260997E-5,3.7398445E-3,-2.413279E-3,-1.9546414E-3,-1.684481E-3,1.0830795E-3,1.0474605E-3,8.409921E-3,-5.9161484E-3,-1.0841542E-3,5.1800517E-4,-4.773924E-3,1.9292046E-3,-3.7059933E-3,3.6929867E-3,-8.4737465E-3,1.9953141E-2,2.2614088E-3,-9.595603E-4,-2.6702061E-3,1.304999E-3,-1.7466925E-3,-4.522423E-4,3.3251464E-3,7.953868E-4,-5.6136325E-3,5.952753E-4,1.2214798E-2,-1.007163E-2,5.17755E-3,4.723969E-3,-6.54608E-5,1.870215E-4,-3.5141797E-3,7.134283E-3,1.8446312E-3,-2.197057E-3,6.1545223E-3,-1.0142304E-3,5.824283E-4,-1.102835E-5,7.9770386E-4,-1.3349444E-3,-2.3783959E-4,7.1613106E-4,-5.1052234E-4,1.9535423E-6,1.2459531E-3,-9.648204E-5,-1.9919632E-3,1.0621664E-3,-6.7142973E-4,4.7721686E-3,1.3352305E-3,-5.360261E-4,-3.5088481E-3,-9.236366E-4,2.6867779E-3,7.269394E-4,4.1598515E-3,-9.770349E-4,6.251723E-4,-8.174628E-4,-9.2040005E-5,2.720338E-3,-3.8779379E-4],"categories":[],"categories_nodes":[],"categories_segments":[],"categories_sizes":[],"default_left":[0,0,0,0,0,0,0,0,0,0,0,0,0,0,0,0,0,0,0,0,0,0,0,0,0,0,0,0,0,0,0,0,0,0,0,0,0,0,0,0,0,0,0,0,0,0,0,0,0,0,0,0,0,0,0,0,0,0,0,0,0,0,0,0,0,0,0,0,0,0,0],"id":13,"left_children":[1,3,5,7,-1,9,11,-1,13,15,17,19,21,23,25,27,29,31,33,35,37,39,41,43,-1,45,47,49,51,-1,53,55,57,59,61,63,65,-1,-1,-1,-1,67,69,-1,-1,-1,-1,-1,-1,-1,-1,-1,-1,-1,-1,-1,-1,-1,-1,-1,-1,-1,-1,-1,-1,-1,-1,-1,-1,-1,-1],"loss_changes":[4.2833693E-4,8.1256614E-5,2.610591E-4,9.423662E-5,0E0,1.4767544E-4,3.055319E-4,0E0,9.359075E-5,2.1341104E-4,2.1380949E-4,4.5949972E-4,5.9364055E-4,6.5424916E-5,4.1852065E-5,5.3252585E-5,9.5938565E-5,5.9642E-4,5.045416E-4,5.4557735E-5,1.2520837E-4,1.22975325E-5,1.3502303E-4,2.7635198E-5,0E0,1.099832E-5,4.8042024E-5,5.7278616E-5,1.3712612E-5,0E0,6.303552E-5,3.4172725E-4,7.254124E-5,4.6396977E-5,1.5235561E-4,1.9778236E-4,3.422414E-5,0E0,0E0,0E0,0E0,3.1548625E-6,9.8503966E-5,0E0,0E0,0E0,0E0,0E0,0E0,0E0,0E0,0E0,0E0,0E0,0E0,0E0,0E0,0E0,0E0,0E0,0E0,0E0,0E0,0E0,0E0,0E0,0E0,0E0,0E0,0E0,0E0],"parents":[2147483647,0,0,1,1,2,2,3,3,5,5,6,6,8,8,9,9,10,10,11,11,12,12,13,13,14,14,15,15,16,16,17,17,18,18,19,19,20,20,21,21,22,22,23,23,25,25,26,26,27,27,28,28,30,30,31,31,32,32,33,33,34,34,35,35,36,36,41,41,42,42],"right_children":[2,4,6,8,-1,10,12,-1,14,16,18,20,22,24,26,28,30,32,34,36,38,40,42,44,-1,46,48,50,52,-1,54,56,58,60,62,64,66,-1,-1,-1,-1,68,70,-1,-1,-1,-1,-1,-1,-1,-1,-1,-1,-1,-1,-1,-1,-1,-1,-1,-1,-1,-1,-1,-1,-1,-1,-1,-1,-1,-1],"split_conditions":[8.40476E2,3.10963E1,1.95049E1,5.45083E2,-2.5149926E-3,1.178707E3,1.387269E3,-2.413279E-3,1.37598E1,1.069197E3,1.61693E3,1.282231E3,1.458763E3,2.38209E1,6.27969E2,1.05024E3,5.45E-1,1.577875E3,1.725743E3,1.170472E3,2.26762E1,2.26762E1,1.55099E3,6.61714E2,-2.6702061E-3,-1.24272E1,6.47287E2,9.27315E2,2.38209E1,7.953868E-4,2.09572E1,1.343765E3,2.13969E1,1.43888E1,1.43888E1,1.15983E3,1.204369E3,1.870215E-4,-3.5141797E-3,7.134283E-3,1.8446312E-3,2.26762E1,1.659933E3,-1.0142304E-3,5.824283E-4,-1.102835E-5,7.9770386E-4,-1.3349444E-3,-2.3783959E-4,7.1613106E-4,-5.1052234E-4,1.9535423E-6,1.2459531E-3,-9.648204E-5,-1.9919632E-3,1.0621664E-3,-6.7142973E-4,4.7721686E-3,1.3352305E-3,-5.360261E-4,-3.5088481E-3,-9.236366E-4,2.6867779E-3,7.269394E-4,4.1598515E-3,-9.770349E-4,6.251723E-4,-8.174628E-4,-9.2040005E-5,2.720338E-3,-3.8779379E-4],"split_indices":[4,0,2,4,0,4,4,0,2,4,4,4,4,0,4,4,1,4,4,4,0,0,4,4,0,3,4,4,0,0,0,4,0,2,2,4,4,0,0,0,0,0,4,0,0,0,0,0,0,0,0,0,0,0,0,0,0,0,0,0,0,0,0,0,0,0,0,0,0,0,0],"split_type":[0,0,0,0,0,0,0,0,0,0,0,0,0,0,0,0,0,0,0,0,0,0,0,0,0,0,0,0,0,0,0,0,0,0,0,0,0,0,0,0,0,0,0,0,0,0,0,0,0,0,0,0,0,0,0,0,0,0,0,0,0,0,0,0,0,0,0,0,0,0,0],"sum_hessian":[1.36E2,3.2E1,1.04E2,3E1,2E0,8E1,2.4E1,2E0,2.8E1,3E1,5E1,1.6E1,8E0,4E0,2.4E1,1.8E1,1.2E1,4.3E1,7E0,1.3E1,3E0,2E0,6E0,2E0,2E0,5E0,1.9E1,1.4E1,4E0,1E0,1.1E1,3.9E1,4E0,4E0,3E0,1E1,3E0,1E0,2E0,1E0,1E0,3E0,3E0,1E0,1E0,3E0,2E0,4E0,1.5E1,4E0,1E1,1E0,3E0,2E0,9E0,1.9E1,2E1,2E0,2E0,1E0,3E0,1E0,2E0,9E0,1E0,1E0,2E0,2E0,1E0,2E0,1E0],"tree_param":{"num_deleted":"0","num_feature":"5","num_nodes":"71","size_leaf_vector":"1"}},{"base_weights":[4.0363657E-6,-3.4724951E-3,5.932448E-4,-1.7088375E-3,-1.9511218E-3,2.1117167E-3,-5.5433327E-4,-1.9306244E-3,-3.847902E-4,7.273912E-4,3.9034458E-3,-1.6005692E-3,1.0936757E-3,5.205757E-4,-1.6617179E-3,3.104407E-3,-1.029753E-3,1.2030025E-2,2.4892867E-3,-2.8680563E-3,2.4875006E-4,1.7063475E-3,-4.376481E-3,5.714223E-4,-2.4433178E-3,1.1209225E-3,4.0359334E-3,3.5747886E-4,-1.7531589E-3,8.3408656E-4,4.579425E-3,-3.012502E-3,4.0530153E-3,-4.1046212E-3,8.980568E-4,7.9680793E-4,-8.271427E-4,7.1791204E-4,2.6146711E-3,-3.7069113E-3,1.7374948E-3,-1.0101929E-3,4.6509507E-4,1.1187226E-3,1.6344326E-4,-2.5047184E-4,6.6768826E-4,-2.1077783E-4,-1.4011979E-3,2.0751359E-5,-2.3008795E-3,6.064144E-3,4.884124E-4,-1.9978882E-4,-1.4931598E-3,1.1380613E-3,-1.2681291E-3,6.374046E-4,9.808151E-5,6.184088E-4,-1.8536457E-3],"categories":[],"categories_nodes":[],"categories_segments":[],"categories_sizes":[],"default_left":[0,0,0,0,0,0,0,0,0,0,0,0,0,0,0,0,0,0,0,0,0,0,0,0,0,0,0,0,0,0,0,0,0,0,0,0,0,0,0,0,0,0,0,0,0,0,0,0,0,0,0,0,0,0,0,0,0,0,0,0,0],"id":14,"left_children":[1,3,5,7,-1,9,11,-1,13,15,17,19,21,-1,23,25,27,29,31,33,35,37,39,-1,41,43,-1,45,47,-1,-1,49,51,53,55,57,-1,59,-1,-1,-1,-1,-1,-1,-1,-1,-1,-1,-1,-1,-1,-1,-1,-1,-1,-1,-1,-1,-1,-1,-1],"loss_changes":[2.8269103E-4,9.580774E-5,2.0679325E-4,8.513867E-5,0E0,1.2365782E-4,1.1899653E-4,0E0,3.536919E-5,1.2849957E-4,2.2288394E-4,9.9160934E-5,9.795588E-5,0E0,2.695424E-5,2.5176455E-4,1.8690289E-5,4.7320616E-5,1.842758E-4,1.20112236E-4,3.1850162E-5,1.6694708E-4,3.1498543E-4,0E0,3.1050997E-5,1.5999405E-5,0E0,1.7451057E-5,3.349876E-5,0E0,0E0,7.228875E-5,5.9412327E-4,5.369488E-5,1.1991415E-4,9.288202E-6,0E0,2.2584137E-4,0E0,0E0,0E0,0E0,0E0,0E0,0E0,0E0,0E0,0E0,0E0,0E0,0E0,0E0,0E0,0E0,0E0,0E0,0E0,0E0,0E0,0E0,0E0],"parents":[2147483647,0,0,1,1,2,2,3,3,5,5,6,6,8,8,9,9,10,10,11,11,12,12,14,14,15,15,16,16,17,17,18,18,19,19,20,20,21,21,22,22,24,24,25,25,27,27,28,28,31,31,32,32,33,33,34,34,35,35,37,37],"right_children":[2,4,6,8,-1,10,12,-1,14,16,18,20,22,-1,24,26,28,30,32,34,36,38,40,-1,42,44,-1,46,48,-1,-1,50,52,54,56,58,-1,60,-1,-1,-1,-1,-1,-1,-1,-1,-1,-1,-1,-1,-1,-1,-1,-1,-1,-1,-1,-1,-1,-1,-1],"split_conditions":[6.98309E2,6.50428E2,2.26762E1,5.45083E2,-1.9511218E-3,1.32684E3,1.84644E1,-1.9306244E-3,1.73303E1,1.031455E3,1.333619E3,7.961E-1,1.614615E3,5.205757E-4,5.55474E2,9.72452E2,1.11007E3,2.13969E1,1.400554E3,1.307869E3,1.61693E3,1.550011E3,1.681328E3,5.714223E-4,6.47287E2,7.22765E2,4.0359334E-3,9.229E-1,9.229E-1,8.3408656E-4,4.579425E-3,9.229E-1,1.44435E3,5.45E-1,1.474647E3,1.059396E3,-8.271427E-4,1.458763E3,2.6146711E-3,-3.7069113E-3,1.7374948E-3,-1.0101929E-3,4.6509507E-4,1.1187226E-3,1.6344326E-4,-2.5047184E-4,6.6768826E-4,-2.1077783E-4,-1.4011979E-3,2.0751359E-5,-2.3008795E-3,6.064144E-3,4.884124E-4,-1.9978882E-4,-1.4931598E-3,1.1380613E-3,-1.2681291E-3,6.374046E-4,9.808151E-5,6.184088E-4,-1.8536457E-3],"split_indices":[4,4,0,4,0,4,2,0,2,4,4,1,4,0,4,4,4,0,4,4,4,4,4,0,4,4,0,1,1,0,0,1,4,1,4,4,0,4,0,0,0,0,0,0,0,0,0,0,0,0,0,0,0,0,0,0,0,0,0,0,0],"split_type":[0,0,0,0,0,0,0,0,0,0,0,0,0,0,0,0,0,0,0,0,0,0,0,0,0,0,0,0,0,0,0,0,0,0,0,0,0,0,0,0,0,0,0,0,0,0,0,0,0,0,0,0,0,0,0,0,0,0,0,0,0],"sum_hessian":[1.36E2,1.9E1,1.17E2,1.3E1,6E0,5E1,6.7E1,2E0,1.1E1,2.9E1,2.1E1,4.1E1,2.6E1,4E0,7E0,1.2E1,1.7E1,2E0,1.9E1,2.4E1,1.7E1,2.4E1,2E0,1E0,6E0,1.1E1,1E0,6E0,1.1E1,1E0,1E0,4E0,1.5E1,1.8E1,6E0,1.5E1,2E0,2.2E1,2E0,1E0,1E0,5E0,1E0,1E0,1E1,4E0,2E0,9E0,2E0,3E0,1E0,1E0,1.4E1,4E0,1.4E1,4E0,2E0,3E0,1.2E1,1.9E1,3E0],"tree_param":{"num_deleted":"0","num_feature":"5","num_nodes":"61","size_leaf_vector":"1"}},{"base_weights":[6.1001763E-5,-1.972672E-3,6.9957547E-4,-1.5620167E-3,-1.6675667E-3,1.8459617E-3,-1.9098024E-4,-1.5444994E-3,-1.1371559E-3,5.781686E-4,3.2027282E-3,-1.0408014E-3,1.0404014E-3,-5.6776E-4,-1.3661821E-3,-1.999567E-3,6.3058026E-3,4.833891E-3,-1.9526879E-3,9.815857E-4,-1.2575072E-3,-2.280886E-3,1.9847676E-3,-1.4062918E-3,9.1452E-4,-1.2044112E-4,-2.5639192E-3,1.0709214E-2,-7.7491254E-4,1.6276538E-3,1.220333E-2,-8.739487E-4,-2.1159649E-5,-3.4067829E-3,-4.945077E-4,1.037693E-3,-2.8310672E-3,5.555507E-3,-3.6528477E-4,3.3376963E-4,-7.645589E-4,-7.003606E-4,4.6047568E-4,2.7049298E-4,-3.382411E-4,9.6534495E-4,3.533283E-3,-1.2522191E-3,1.4133812E-3,1.5471661E-3,-1.5422008E-4,1.9989857E-3,5.1545263E-3,3.9336385E-4,-4.028857E-4,-2.0569713E-4,-1.9910329E-3,5.5055257E-6,-8.2642795E-4,1.5860796E-5,3.812045E-4,3.8860962E-4,2.3557558E-3,-1.3556243E-3,3.9978864E-4],"categories":[],"categories_nodes":[],"categories_segments":[],"categories_sizes":[],"default_left":[0,0,0,0,0,0,0,0,0,0,0,0,0,0,0,0,0,0,0,0,0,0,0,0,0,0,0,0,0,0,0,0,0,0,0,0,0,0,0,0,0,0,0,0,0,0,0,0,0,0,0,0,0,0,0,0,0,0,0,0,0,0,0,0,0],"id":15,"left_children":[1,3,5,7,-1,9,11,-1,13,15,17,19,21,23,-1,25,27,29,31,-1,33,35,37,39,41,43,-1,45,47,49,51,-1,53,55,57,59,-1,61,63,-1,-1,-1,-1,-1,-1,-1,-1,-1,-1,-1,-1,-1,-1,-1,-1,-1,-1,-1,-1,-1,-1,-1,-1,-1,-1],"loss_changes":[1.7929518E-4,3.9912018E-5,1.0754922E-4,4.137976E-5,0E0,7.727285E-5,6.387011E-5,0E0,5.383404E-5,3.8171705E-4,1.9444419E-4,3.7760066E-5,8.293981E-5,3.3602493E-5,0E0,2.2041236E-4,2.5773313E-4,3.8181606E-4,1.1069456E-5,0E0,5.5711695E-5,1.522792E-4,1.6985781E-4,5.1746676E-5,2.3740424E-5,1.6455606E-5,0E0,2.1206215E-6,9.42586E-5,1.00922654E-4,2.3416593E-5,0E0,7.044256E-6,7.455241E-5,3.134873E-5,1.0800832E-6,0E0,6.811289E-5,9.770067E-5,0E0,0E0,0E0,0E0,0E0,0E0,0E0,0E0,0E0,0E0,0E0,0E0,0E0,0E0,0E0,0E0,0E0,0E0,0E0,0E0,0E0,0E0,0E0,0E0,0E0,0E0],"parents":[2147483647,0,0,1,1,2,2,3,3,5,5,6,6,8,8,9,9,10,10,11,11,12,12,13,13,15,15,16,16,17,17,18,18,20,20,21,21,22,22,23,23,24,24,25,25,27,27,28,28,29,29,30,30,32,32,33,33,34,34,35,35,37,37,38,38],"right_children":[2,4,6,8,-1,10,12,-1,14,16,18,20,22,24,-1,26,28,30,32,-1,34,36,38,40,42,44,-1,46,48,50,52,-1,54,56,58,60,-1,62,64,-1,-1,-1,-1,-1,-1,-1,-1,-1,-1,-1,-1,-1,-1,-1,-1,-1,-1,-1,-1,-1,-1,-1,-1,-1,-1],"split_conditions":[8.40476E2,3.10963E1,2.26762E1,5.45083E2,-1.6675667E-3,2.13969E1,1.84644E1,-1.5444994E-3,7.43234E2,1.463557E3,1.44435E3,8.5279E2,1.03801E3,6.98309E2,-1.3661821E-3,1.393011E3,1.605703E3,1.282231E3,1.55099E3,9.815857E-4,1.37598E1,1.007345E3,1.271149E3,6.27969E2,5.45E-1,1.11007E3,-2.5639192E-3,1.529676E3,1.67413E3,1.031455E3,1.400554E3,-8.739487E-4,1.659933E3,2.38209E1,2.75308E1,8.78732E2,-2.8310672E-3,1.123176E3,1.387269E3,3.3376963E-4,-7.645589E-4,-7.003606E-4,4.6047568E-4,2.7049298E-4,-3.382411E-4,9.6534495E-4,3.533283E-3,-1.2522191E-3,1.4133812E-3,1.5471661E-3,-1.5422008E-4,1.9989857E-3,5.1545263E-3,3.9336385E-4,-4.028857E-4,-2.0569713E-4,-1.9910329E-3,5.5055257E-6,-8.2642795E-4,1.5860796E-5,3.812045E-4,3.8860962E-4,2.3557558E-3,-1.3556243E-3,3.9978864E-4],"split_indices":[4,0,0,4,0,0,2,0,4,4,4,4,4,4,0,4,4,4,4,0,2,4,4,4,1,4,0,4,4,4,4,0,4,0,0,4,0,4,4,0,0,0,0,0,0,0,0,0,0,0,0,0,0,0,0,0,0,0,0,0,0,0,0,0,0],"split_type":[0,0,0,0,0,0,0,0,0,0,0,0,0,0,0,0,0,0,0,0,0,0,0,0,0,0,0,0,0,0,0,0,0,0,0,0,0,0,0,0,0,0,0,0,0,0,0,0,0,0,0,0,0,0,0,0,0,0,0,0,0,0,0,0,0],"sum_hessian":[1.36E2,3.2E1,1.04E2,3E1,2E0,4.5E1,5.9E1,2E0,2.8E1,2.4E1,2.1E1,3.5E1,2.4E1,2.5E1,3E0,1.7E1,7E0,1.6E1,5E0,1E0,3.4E1,5E0,1.9E1,1.6E1,9E0,1.4E1,3E0,4E0,3E0,1.2E1,4E0,3E0,2E0,8E0,2.6E1,4E0,1E0,7E0,1.2E1,5E0,1.1E1,1E0,8E0,7E0,7E0,1E0,3E0,2E0,1E0,4E0,8E0,3E0,1E0,1E0,1E0,5E0,3E0,2.2E1,4E0,1E0,3E0,3E0,4E0,3E0,9E0],"tree_param":{"num_deleted":"0","num_feature":"5","num_nodes":"65","size_leaf_vector":"1"}},{"base_weights":[5.555044E-5,-6.343369E-4,1.4341176E-3,-3.52619E-4,-4.613524E-3,8.917242E-3,5.091237E-4,-2.8096922E-3,3.997962E-5,-1.5686972E-3,-2.3042859E-4,7.597089E-4,2.9641115E-3,-3.5391867E-3,1.7204564E-3,-2.6171975E-4,-5.3140447E-3,-1.2355983E-3,2.080329E-4,-1.5550851E-5,-5.8856853E-3,3.834951E-3,1.8807947E-4,-4.5474173E-4,1.9992888E-4,-2.5560744E-3,-2.1659972E-3,3.6910197E-4,-3.7269692E-3,-2.9626788E-4,5.8087264E-4,-2.6884617E-3,-2.1073744E-3,-3.458783E-3,1.9157245E-3,3.303811E-4,-6.017804E-5,-1.5786618E-3,8.343481E-4,-2.7482485E-4,2.348991E-4,-1.428187E-4,-1.5343175E-3,-2.2557379E-5,-8.2791154E-4,-3.7503229E-3,-3.1952263E-4,-1.4461242E-3,9.918645E-4],"categories":[],"categories_nodes":[],"categories_segments":[],"categories_sizes":[],"default_left":[0,0,0,0,0,0,0,0,0,0,0,0,0,0,0,0,0,0,0,0,0,0,0,0,0,0,0,0,0,0,0,0,0,0,0,0,0,0,0,0,0,0,0,0,0,0,0,0,0],"id":16,"left_children":[1,3,5,7,9,11,13,15,17,-1,-1,-1,-1,19,21,23,25,-1,27,29,31,-1,33,-1,35,37,-1,39,41,-1,-1,-1,43,45,47,-1,-1,-1,-1,-1,-1,-1,-1,-1,-1,-1,-1,-1,-1],"loss_changes":[1.3120439E-4,1.0150594E-4,3.1386485E-4,8.403633E-5,1.0184027E-5,5.7266734E-6,2.1205077E-4,7.5181466E-5,5.3971184E-5,0E0,0E0,0E0,0E0,8.259053E-5,5.570199E-4,4.3556824E-6,1.3084398E-5,0E0,4.827736E-5,1.1397953E-5,5.0843882E-5,0E0,1.9564059E-4,0E0,2.3869518E-6,7.2408075E-5,0E0,3.9016362E-5,1.1096374E-5,0E0,0E0,0E0,5.0951166E-6,2.031315E-4,2.126346E-4,0E0,0E0,0E0,0E0,0E0,0E0,0E0,0E0,0E0,0E0,0E0,0E0,0E0,0E0],"parents":[2147483647,0,0,1,1,2,2,3,3,4,4,5,5,6,6,7,7,8,8,13,13,14,14,15,15,16,16,18,18,19,19,20,20,22,22,24,24,25,25,27,27,28,28,32,32,33,33,34,34],"right_children":[2,4,6,8,10,12,14,16,18,-1,-1,-1,-1,20,22,24,26,-1,28,30,32,-1,34,-1,36,38,-1,40,42,-1,-1,-1,44,46,48,-1,-1,-1,-1,-1,-1,-1,-1,-1,-1,-1,-1,-1,-1],"split_conditions":[1.32684E3,3.10963E1,1.343765E3,1.37598E1,1.233217E3,2.13969E1,1.408648E3,2.38209E1,5.45083E2,-1.5686972E-3,-2.3042859E-4,7.597089E-4,2.9641115E-3,1.371624E3,1.458763E3,6.61714E2,8.5279E2,-1.2355983E-3,1.282231E3,2.75308E1,-1.26112E1,3.834951E-3,6.773E-1,-4.5474173E-4,7.43234E2,7.79304E2,-2.1659972E-3,2.13969E1,2.09572E1,-2.9626788E-4,5.8087264E-4,-2.6884617E-3,2.09572E1,1.484285E3,1.467981E3,3.303811E-4,-6.017804E-5,-1.5786618E-3,8.343481E-4,-2.7482485E-4,2.348991E-4,-1.428187E-4,-1.5343175E-3,-2.2557379E-5,-8.2791154E-4,-3.7503229E-3,-3.1952263E-4,-1.4461242E-3,9.918645E-4],"split_indices":[4,0,4,2,4,0,4,0,4,0,0,0,0,4,4,4,4,0,4,0,3,0,1,0,4,4,0,0,0,0,0,0,0,4,4,0,0,0,0,0,0,0,0,0,0,0,0,0,0],"split_type":[0,0,0,0,0,0,0,0,0,0,0,0,0,0,0,0,0,0,0,0,0,0,0,0,0,0,0,0,0,0,0,0,0,0,0,0,0,0,0,0,0,0,0,0,0,0,0,0,0],"sum_hessian":[1.36E2,9.1E1,4.5E1,8.6E1,5E0,4E0,4.1E1,1.1E1,7.5E1,4E0,1E0,1E0,3E0,9E0,3.2E1,6E0,5E0,2E0,7.3E1,4E0,5E0,3E0,2.9E1,1E0,5E0,3E0,2E0,7.1E1,2E0,3E0,1E0,2E0,3E0,9E0,2E1,1E0,4E0,2E0,1E0,1.7E1,5.4E1,1E0,1E0,1E0,2E0,1E0,8E0,3E0,1.7E1],"tree_param":{"num_deleted":"0","num_feature":"5","num_nodes":"49","size_leaf_vector":"1"}},{"base_weights":[-1.9992029E-5,1.8714137E-4,-2.9866828E-3,-2.2841021E-4,7.4622417E-3,-2.4815686E-3,1.0345727E-3,1.5321871E-3,-5.8514933E-4,3.2096768E-3,7.080004E-4,1.6782822E-3,-7.931538E-4,-6.167501E-4,3.1952858E-3,-2.1311562E-3,-2.7633022E-4,1.249069E-3,-2.0688076E-3,3.1632364E-3,1.5686534E-3,-1.3511181E-3,-1.5962884E-3,1.6066588E-4,-1.6573973E-3,4.5096876E-5,8.46608E-4,-2.932066E-4,-1.1289106E-3,-1.1209734E-4,1.5183338E-3,-1.6257167E-6,-8.6648576E-4,-1.2531676E-4,1.3435488E-3,-1.4129401E-3,-1.2274768E-4],"categories":[],"categories_nodes":[],"categories_segments":[],"categories_sizes":[],"default_left":[0,0,0,0,0,0,0,0,0,0,0,0,0,0,0,0,0,0,0,0,0,0,0,0,0,0,0,0,0,0,0,0,0,0,0,0,0],"id":17,"left_children":[1,3,5,7,9,-1,11,13,15,-1,-1,-1,-1,17,19,21,23,25,27,-1,29,31,-1,33,35,-1,-1,-1,-1,-1,-1,-1,-1,-1,-1,-1,-1],"loss_changes":[8.474553E-5,3.9169463E-4,1.998366E-4,7.8149664E-5,9.0350775E-5,0E0,1.15425326E-4,7.702249E-5,4.8587055E-5,0E0,0E0,0E0,0E0,2.967685E-5,1.2690618E-4,3.510964E-5,5.2772608E-5,8.217189E-6,7.4171894E-6,0E0,7.6508986E-5,3.1012823E-5,0E0,1.691954E-4,7.808559E-5,0E0,0E0,0E0,0E0,0E0,0E0,0E0,0E0,0E0,0E0,0E0,0E0],"parents":[2147483647,0,0,1,1,2,2,3,3,4,4,6,6,7,7,8,8,13,13,14,14,15,15,16,16,17,17,18,18,20,20,21,21,23,23,24,24],"right_children":[2,4,6,8,10,-1,12,14,16,-1,-1,-1,-1,18,20,22,24,26,28,-1,30,32,-1,34,36,-1,-1,-1,-1,-1,-1,-1,-1,-1,-1,-1,-1],"split_conditions":[1.659933E3,1.577875E3,1.681328E3,6.196E-1,1.605703E3,-2.4815686E-3,-1.24272E1,9.53391E2,6.98309E2,3.2096768E-3,7.080004E-4,1.6782822E-3,-7.931538E-4,7.22765E2,1.031455E3,6.61714E2,1.371624E3,6.47229E2,8.82542E2,3.1632364E-3,1.347744E3,8.914E-1,-1.5962884E-3,1.32684E3,1.408648E3,4.5096876E-5,8.46608E-4,-2.932066E-4,-1.1289106E-3,-1.1209734E-4,1.5183338E-3,-1.6257167E-6,-8.6648576E-4,-1.2531676E-4,1.3435488E-3,-1.4129401E-3,-1.2274768E-4],"split_indices":[4,4,4,1,4,0,3,4,4,0,0,0,0,4,4,4,4,4,4,0,4,1,0,4,4,0,0,0,0,0,0,0,0,0,0,0,0],"split_type":[0,0,0,0,0,0,0,0,0,0,0,0,0,0,0,0,0,0,0,0,0,0,0,0,0,0,0,0,0,0,0,0,0,0,0,0,0],"sum_hessian":[1.36E2,1.28E2,8E0,1.22E2,6E0,3E0,5E0,2E1,1.02E2,3E0,3E0,2E0,3E0,9E0,1.1E1,1.6E1,8.6E1,4E0,5E0,1E0,1E1,1.4E1,2E0,6.6E1,2E1,3E0,1E0,4E0,1E0,7E0,3E0,8E0,6E0,5.9E1,7E0,5E0,1.5E1],"tree_param":{"num_deleted":"0","num_feature":"5","num_nodes":"37","size_leaf_vector":"1"}},{"base_weights":[1.21272615E-5,8.4438355E-4,-6.4735016E-4,6.777533E-5,2.2180176E-3,-4.4250773E-4,-3.5085797E-3,-9.016663E-4,3.0862304E-4,5.090881E-3,5.379558E-4,-7.709098E-4,3.3531338E-3,-2.790682E-3,2.6541203E-4,8.991863E-4,-1.0458628E-3,-5.316064E-4,8.570695E-3,-3.378904E-3,2.2694415E-3,-3.2454403E-4,-6.33021E-3,1.4422338E-4,1.47646E-3,-7.02557E-4,1.2130827E-3,-9.022405E-5,2.5902062E-3,-2.7673007E-3,1.6076863E-4,4.246563E-4,-9.5594826E-4,4.749447E-3,3.578353E-3,-1.2881667E-3,-4.012853E-4,3.7675388E-3,-1.2941137E-3,-8.1625633E-4,5.640912E-3,-3.1243654E-3,-4.0739775E-5,-1.4263095E-4,2.0753146E-4,4.0609896E-4,-1.7983606E-4,2.2952446E-4,1.978141E-3,-1.6132818E-4,-1.7528192E-3,2.8371814E-4,-4.3882133E-4,2.946514E-3,-6.4563756E-5,1.9103748E-3,-1.2744516E-4,-8.770064E-4,6.702542E-5,-1.704994E-4,-1.6012163E-3,2.099079E-3,3.2526255E-5],"categories":[],"categories_nodes":[],"categories_segments":[],"categories_sizes":[],"default_left":[0,0,0,0,0,0,0,0,0,0,0,0,0,0,0,0,0,0,0,0,0,0,0,0,0,0,0,0,0,0,0,0,0,0,0,0,0,0,0,0,0,0,0,0,0,0,0,0,0,0,0,0,0,0,0,0,0,0,0,0,0,0,0],"id":18,"left_children":[1,3,5,7,9,11,13,-1,15,17,19,21,23,-1,25,27,29,31,33,35,37,39,41,43,-1,-1,-1,45,47,49,51,-1,-1,53,-1,-1,-1,55,57,59,61,-1,-1,-1,-1,-1,-1,-1,-1,-1,-1,-1,-1,-1,-1,-1,-1,-1,-1,-1,-1,-1,-1],"loss_changes":[7.573964E-5,6.492298E-5,4.357722E-5,3.053576E-5,1.0344628E-4,9.357922E-5,1.11795685E-4,0E0,3.1336986E-5,1.6107791E-4,1.0939802E-4,1.6668631E-4,2.948731E-5,0E0,4.887265E-5,4.5407738E-5,2.5370588E-5,2.5188165E-5,7.4917916E-6,3.5951452E-6,6.35997E-5,1.9233486E-4,1.2508612E-4,1.3467741E-6,0E0,0E0,0E0,1.4046316E-5,6.8025845E-5,3.114198E-5,1.157843E-5,0E0,0E0,1.0284205E-4,0E0,0E0,0E0,8.991885E-5,1.0542828E-5,6.422067E-5,3.675217E-5,0E0,0E0,0E0,0E0,0E0,0E0,0E0,0E0,0E0,0E0,0E0,0E0,0E0,0E0,0E0,0E0,0E0,0E0,0E0,0E0,0E0,0E0],"parents":[2147483647,0,0,1,1,2,2,3,3,4,4,5,5,6,6,8,8,9,9,10,10,11,11,12,12,14,14,15,15,16,16,17,17,18,18,19,19,20,20,21,21,22,22,23,23,27,27,28,28,29,29,30,30,33,33,37,37,38,38,39,39,40,40],"right_children":[2,4,6,8,10,12,14,-1,16,18,20,22,24,-1,26,28,30,32,34,36,38,40,42,44,-1,-1,-1,46,48,50,52,-1,-1,54,-1,-1,-1,56,58,60,62,-1,-1,-1,-1,-1,-1,-1,-1,-1,-1,-1,-1,-1,-1,-1,-1,-1,-1,-1,-1,-1,-1],"split_conditions":[2.26762E1,1.32684E3,1.61693E3,5.45083E2,1.44435E3,1.540187E3,1.681328E3,-9.016663E-4,1.11007E3,2.13969E1,1.513999E3,1.474671E3,2.75308E1,-2.790682E-3,2.75308E1,9.67315E2,1.178707E3,1.393011E3,1.400554E3,2.13969E1,2.13969E1,1.408648E3,6.829E-1,1.577875E3,1.47646E-3,-7.02557E-4,1.2130827E-3,6.27969E2,2.2227E1,9.229E-1,2.2227E1,4.246563E-4,-9.5594826E-4,1.333619E3,3.578353E-3,-1.2881667E-3,-4.012853E-4,1.605703E3,1.55099E3,1.371624E3,7.666E-1,-3.1243654E-3,-4.0739775E-5,-1.4263095E-4,2.0753146E-4,4.0609896E-4,-1.7983606E-4,2.2952446E-4,1.978141E-3,-1.6132818E-4,-1.7528192E-3,2.8371814E-4,-4.3882133E-4,2.946514E-3,-6.4563756E-5,1.9103748E-3,-1.2744516E-4,-8.770064E-4,6.702542E-5,-1.704994E-4,-1.6012163E-3,2.099079E-3,3.2526255E-5],"split_indices":[0,4,4,4,4,4,4,0,4,0,4,4,0,0,0,4,4,4,4,0,0,4,1,4,0,0,0,4,0,1,0,0,0,4,0,0,0,4,4,4,1,0,0,0,0,0,0,0,0,0,0,0,0,0,0,0,0,0,0,0,0,0,0],"split_type":[0,0,0,0,0,0,0,0,0,0,0,0,0,0,0,0,0,0,0,0,0,0,0,0,0,0,0,0,0,0,0,0,0,0,0,0,0,0,0,0,0,0,0,0,0,0,0,0,0,0,0,0,0,0,0,0,0,0,0,0,0,0,0],"sum_hessian":[1.36E2,6E1,7.6E1,3.9E1,2.1E1,7.2E1,4E0,2E0,3.7E1,7E0,1.4E1,6.7E1,5E0,1E0,3E0,2.6E1,1.1E1,3E0,4E0,4E0,1E1,6.3E1,4E0,2E0,3E0,2E0,1E0,1.7E1,9E0,4E0,7E0,2E0,1E0,3E0,1E0,2E0,2E0,7E0,3E0,5.9E1,4E0,2E0,2E0,1E0,1E0,4E0,1.3E1,7E0,2E0,3E0,1E0,5E0,2E0,1E0,2E0,4E0,3E0,1E0,2E0,5.7E1,2E0,3E0,1E0],"tree_param":{"num_deleted":"0","num_feature":"5","num_nodes":"63","size_leaf_vector":"1"}},{"base_weights":[1.674586E-5,-1.7146522E-3,2.1209122E-4,-2.387762E-4,-3.1564173E-3,3.59378E-4,-2.3010415E-3,2.6862323E-4,-3.521949E-4,-3.7132055E-3,2.764687E-5,5.4110086E-4,-1.90161E-3,-3.4431815E-3,3.6953887E-4,-2.3098291E-4,6.3032506E-4,-1.385726E-3,-1.673633E-3,2.508337E-4,4.7763414E-3,-5.649321E-3,9.137988E-4,-1.9002706E-3,-1.4422238E-3,-1.5149117E-4,3.1778368E-4,1.8852949E-4,3.5962614E-4,-1.0566697E-3,7.535689E-4,5.333387E-4,-2.1861033E-3,2.0902099E-3,4.1736962E-4,-6.7834265E-4,-2.3720786E-3,1.2340605E-3,-5.1433593E-4,-1.1392281E-3,-6.228685E-7,2.6426316E-4,-2.8327704E-4,6.814954E-5,1.1388928E-3,-2.7007074E-3,-1.8127263E-4],"categories":[],"categories_nodes":[],"categories_segments":[],"categories_sizes":[],"default_left":[0,0,0,0,0,0,0,0,0,0,0,0,0,0,0,0,0,0,0,0,0,0,0,0,0,0,0,0,0,0,0,0,0,0,0,0,0,0,0,0,0,0,0,0,0,0,0],"id":19,"left_children":[1,3,5,7,9,11,13,15,-1,17,-1,19,21,23,25,-1,27,29,-1,31,33,35,37,39,-1,-1,-1,41,-1,-1,-1,43,45,-1,-1,-1,-1,-1,-1,-1,-1,-1,-1,-1,-1,-1,-1],"loss_changes":[4.6699883E-5,2.9036459E-5,4.672569E-5,4.111547E-6,1.3003562E-5,4.9512E-5,2.2623626E-5,2.7392223E-6,0E0,1.8321807E-5,0E0,1.3403059E-4,1.0012438E-4,1.3890458E-6,2.344457E-6,0E0,1.029646E-6,4.215666E-5,0E0,7.276442E-5,4.2224783E-5,1.2718039E-5,5.7510737E-5,1.4396801E-5,0E0,0E0,0E0,3.9689016E-6,0E0,0E0,0E0,9.304694E-5,1.1316646E-4,0E0,0E0,0E0,0E0,0E0,0E0,0E0,0E0,0E0,0E0,0E0,0E0,0E0,0E0],"parents":[2147483647,0,0,1,1,2,2,3,3,4,4,5,5,6,6,7,7,9,9,11,11,12,12,13,13,14,14,16,16,17,17,19,19,20,20,21,21,22,22,23,23,27,27,31,31,32,32],"right_children":[2,4,6,8,10,12,14,16,-1,18,-1,20,22,24,26,-1,28,30,-1,32,34,36,38,40,-1,-1,-1,42,-1,-1,-1,44,46,-1,-1,-1,-1,-1,-1,-1,-1,-1,-1,-1,-1,-1,-1],"split_conditions":[1.37598E1,2.38209E1,3.10963E1,1.195671E3,1.094471E3,1.659933E3,1.233217E3,6.61714E2,-3.521949E-4,8.5279E2,2.764687E-5,1.577875E3,1.681328E3,1.134684E3,1.307869E3,-2.3098291E-4,1.123654E3,7.79304E2,-1.673633E-3,1.474647E3,1.605703E3,2.13969E1,-1.24272E1,6.7438E2,-1.4422238E-3,-1.5149117E-4,3.1778368E-4,1.069197E3,3.5962614E-4,-1.0566697E-3,7.535689E-4,1.408648E3,1.484285E3,2.0902099E-3,4.1736962E-4,-6.7834265E-4,-2.3720786E-3,1.2340605E-3,-5.1433593E-4,-1.1392281E-3,-6.228685E-7,2.6426316E-4,-2.8327704E-4,6.814954E-5,1.1388928E-3,-2.7007074E-3,-1.8127263E-4],"split_indices":[2,0,0,4,4,4,4,4,0,4,0,4,4,4,4,0,4,4,0,4,4,0,3,4,0,0,0,4,0,0,0,4,4,0,0,0,0,0,0,0,0,0,0,0,0,0,0],"split_type":[0,0,0,0,0,0,0,0,0,0,0,0,0,0,0,0,0,0,0,0,0,0,0,0,0,0,0,0,0,0,0,0,0,0,0,0,0,0,0,0,0,0,0,0,0,0,0],"sum_hessian":[1.36E2,1.3E1,1.23E2,7E0,6E0,1.17E2,6E0,5E0,2E0,5E0,1E0,1.09E2,8E0,4E0,2E0,1E0,4E0,3E0,2E0,1.03E2,6E0,3E0,5E0,3E0,1E0,1E0,1E0,3E0,1E0,2E0,1E0,9.3E1,1E1,3E0,3E0,2E0,1E0,2E0,3E0,1E0,2E0,2E0,1E0,8.6E1,7E0,1E0,9E0],"tree_param":{"num_deleted":"0","num_feature":"5","num_nodes":"47","size_leaf_vector":"1"}},{"base_weights":[-3.2847052E-5,-8.8183675E-4,2.342911E-4,-5.163279E-4,-2.4405718E-3,4.0114878E-4,-1.5900963E-3,-7.3496107E-4,-2.7336812E-4,-1.8489362E-5,-8.712102E-4,1.4285497E-4,3.7016612E-3,-4.717134E-3,7.5961155E-4,1.5279899E-6,-7.144243E-4,4.9107446E-4,-1.5201159E-3,1.6199113E-3,3.2346102E-4,-5.426765E-4,-2.0162659E-3,9.872497E-4,-3.9861203E-4,-1.7418787E-3,3.335327E-4,1.3917562E-4,6.790459E-3,3.998478E-5,-3.0852146E-3,-7.0095066E-6,-6.920785E-4,3.4833403E-4,-4.89583E-5,1.2307278E-4,-8.868337E-4,2.4677308E-3,3.7267955E-4,3.3410362E-4,-7.4358884E-4,-2.4176808E-3,-2.5245548E-5],"categories":[],"categories_nodes":[],"categories_segments":[],"categories_sizes":[],"default_left":[0,0,0,0,0,0,0,0,0,0,0,0,0,0,0,0,0,0,0,0,0,0,0,0,0,0,0,0,0,0,0,0,0,0,0,0,0,0,0,0,0,0,0],"id":20,"left_children":[1,3,5,7,9,11,13,-1,15,-1,-1,17,19,21,23,25,-1,27,29,-1,-1,-1,-1,-1,-1,31,33,35,37,39,41,-1,-1,-1,-1,-1,-1,-1,-1,-1,-1,-1,-1],"loss_changes":[3.127787E-5,1.7541E-5,3.2601238E-5,1.2483927E-5,6.436312E-6,8.216389E-5,6.971181E-5,0E0,1.5070475E-5,0E0,0E0,5.344266E-5,2.5361223E-5,1.1151795E-5,3.6088513E-5,1.4472635E-5,0E0,1.6752763E-4,3.9190752E-5,0E0,0E0,0E0,0E0,0E0,0E0,3.8302796E-6,8.822202E-6,6.246193E-5,2.1634929E-5,2.7098384E-5,1.1873341E-4,0E0,0E0,0E0,0E0,0E0,0E0,0E0,0E0,0E0,0E0,0E0,0E0],"parents":[2147483647,0,0,1,1,2,2,3,3,4,4,5,5,6,6,8,8,11,11,12,12,13,13,14,14,15,15,17,17,18,18,25,25,26,26,27,27,28,28,29,29,30,30],"right_children":[2,4,6,8,10,12,14,-1,16,-1,-1,18,20,22,24,26,-1,28,30,-1,-1,-1,-1,-1,-1,32,34,36,38,40,42,-1,-1,-1,-1,-1,-1,-1,-1,-1,-1,-1,-1],"split_conditions":[8.40476E2,2.84204E1,1.659933E3,5.45083E2,5.60318E2,1.577875E3,1.681328E3,-7.3496107E-4,7.43234E2,-1.8489362E-5,-8.712102E-4,1.458763E3,1.605703E3,2.13969E1,-1.24272E1,2.09572E1,-7.144243E-4,1.408648E3,1.73303E1,1.6199113E-3,3.2346102E-4,-5.426765E-4,-2.0162659E-3,9.872497E-4,-3.9861203E-4,5.64891E2,6.50428E2,1.371624E3,2.84204E1,1.533531E3,1.484285E3,-7.0095066E-6,-6.920785E-4,3.4833403E-4,-4.89583E-5,1.2307278E-4,-8.868337E-4,2.4677308E-3,3.7267955E-4,3.3410362E-4,-7.4358884E-4,-2.4176808E-3,-2.5245548E-5],"split_indices":[4,0,4,4,4,4,4,0,4,0,0,4,4,0,3,0,0,4,2,0,0,0,0,0,0,4,4,4,0,4,4,0,0,0,0,0,0,0,0,0,0,0,0],"split_type":[0,0,0,0,0,0,0,0,0,0,0,0,0,0,0,0,0,0,0,0,0,0,0,0,0,0,0,0,0,0,0,0,0,0,0,0,0,0,0,0,0,0,0],"sum_hessian":[1.36E2,3.2E1,1.04E2,2.7E1,5E0,9.6E1,8E0,2E0,2.5E1,1E0,4E0,9E1,6E0,3E0,5E0,2.3E1,2E0,7.5E1,1.5E1,3E0,3E0,2E0,1E0,2E0,3E0,3E0,2E1,7.2E1,3E0,8E0,7E0,1E0,2E0,7E0,1.3E1,6.7E1,5E0,2E0,1E0,6E0,2E0,2E0,5E0],"tree_param":{"num_deleted":"0","num_feature":"5","num_nodes":"43","size_leaf_vector":"1"}},{"base_weights":[-4.884916E-5,-1.3894716E-3,1.02905375E-4,-2.6214682E-4,-2.4793467E-3,2.1356836E-4,-1.7772572E-3,9.0426634E-5,-4.0952416E-4,-8.8570267E-4,-3.4531541E-3,-3.810111E-4,5.722509E-4,-2.6273907E-3,2.3205082E-4,-1.8899069E-4,3.1548738E-4,-7.6899683E-4,6.220736E-4,-4.545063E-3,-2.661422E-5,1.8734E-4,-4.1065165E-3,2.7287072E-3,2.695182E-4,-1.210317E-3,-1.2443528E-3,-1.4723092E-4,2.516538E-4,2.929017E-4,-1.1950731E-5,-3.7389324E-4,-1.6713851E-3,-2.1184751E-4,2.3633481E-3,-1.693213E-3,-2.4259554E-3,8.741766E-4,3.5102766E-3,-3.3384562E-3,4.9431785E-4,-8.3766284E-4,7.4315074E-5,-1.6410054E-4,1.5812517E-4,2.7830657E-4,-1.470334E-4,-7.74175E-4,2.7844013E-4,3.8096908E-4,-4.69476E-5,1.1715407E-3,2.3039729E-4,-1.7248392E-4,-1.2203932E-3,1.4902846E-3,5.6357832E-5],"categories":[],"categories_nodes":[],"categories_segments":[],"categories_sizes":[],"default_left":[0,0,0,0,0,0,0,0,0,0,0,0,0,0,0,0,0,0,0,0,0,0,0,0,0,0,0,0,0,0,0,0,0,0,0,0,0,0,0,0,0,0,0,0,0,0,0,0,0,0,0,0,0,0,0,0,0],"id":21,"left_children":[1,3,5,7,9,11,13,15,-1,17,19,21,23,25,27,-1,29,-1,-1,31,-1,33,35,37,39,41,-1,-1,-1,-1,43,-1,-1,45,-1,47,-1,49,51,53,55,-1,-1,-1,-1,-1,-1,-1,-1,-1,-1,-1,-1,-1,-1,-1,-1],"loss_changes":[2.8015023E-5,1.6551052E-5,2.6179554E-5,3.2343605E-6,7.804847E-6,2.5383335E-5,1.25669485E-5,1.3336767E-6,0E0,2.5173447E-5,1.4291432E-5,9.60521E-5,4.7573973E-5,5.7527614E-6,1.7274923E-6,0E0,1.3099959E-6,0E0,0E0,3.2121898E-6,0E0,1.2446675E-4,4.393752E-5,9.9764E-6,5.518097E-5,9.917489E-6,0E0,0E0,0E0,0E0,1.730371E-6,0E0,0E0,1.2821244E-5,0E0,1.4025651E-5,0E0,1.8301541E-6,3.4977857E-6,5.7252873E-6,8.543221E-5,0E0,0E0,0E0,0E0,0E0,0E0,0E0,0E0,0E0,0E0,0E0,0E0,0E0,0E0,0E0,0E0],"parents":[2147483647,0,0,1,1,2,2,3,3,4,4,5,5,6,6,7,7,9,9,10,10,11,11,12,12,13,13,14,14,16,16,19,19,21,21,22,22,23,23,24,24,25,25,30,30,33,33,35,35,37,37,38,38,39,39,40,40],"right_children":[2,4,6,8,10,12,14,16,-1,18,20,22,24,26,28,-1,30,-1,-1,32,-1,34,36,38,40,42,-1,-1,-1,-1,44,-1,-1,46,-1,48,-1,50,52,54,56,-1,-1,-1,-1,-1,-1,-1,-1,-1,-1,-1,-1,-1,-1,-1,-1],"split_conditions":[1.37598E1,2.38209E1,3.10963E1,1.276588E3,8.5279E2,1.05024E3,1.233217E3,6.61714E2,-4.0952416E-4,7.79304E2,1.094471E3,1.031455E3,1.11007E3,1.134684E3,1.307869E3,-1.8899069E-4,7.43234E2,-7.6899683E-4,6.220736E-4,9.29706E2,-2.661422E-5,1.007345E3,2.53346E1,2.26762E1,1.123176E3,6.7438E2,-1.2443528E-3,-1.4723092E-4,2.516538E-4,2.929017E-4,1.123654E3,-3.7389324E-4,-1.6713851E-3,1.61859E1,2.3633481E-3,9.229E-1,-2.4259554E-3,2.13969E1,7.666E-1,2.2227E1,1.170472E3,-8.3766284E-4,7.4315074E-5,-1.6410054E-4,1.5812517E-4,2.7830657E-4,-1.470334E-4,-7.74175E-4,2.7844013E-4,3.8096908E-4,-4.69476E-5,1.1715407E-3,2.3039729E-4,-1.7248392E-4,-1.2203932E-3,1.4902846E-3,5.6357832E-5],"split_indices":[2,0,0,4,4,4,4,4,0,4,4,4,4,4,4,0,4,0,0,4,0,4,0,0,4,4,0,0,0,0,4,0,0,2,0,1,0,0,1,0,4,0,0,0,0,0,0,0,0,0,0,0,0,0,0,0,0],"split_type":[0,0,0,0,0,0,0,0,0,0,0,0,0,0,0,0,0,0,0,0,0,0,0,0,0,0,0,0,0,0,0,0,0,0,0,0,0,0,0,0,0,0,0,0,0,0,0,0,0,0,0,0,0,0,0,0,0],"sum_hessian":[1.36E2,1.3E1,1.23E2,7E0,6E0,1.17E2,6E0,6E0,1E0,3E0,3E0,4.4E1,7.3E1,4E0,2E0,1E0,5E0,2E0,1E0,2E0,1E0,3.9E1,5E0,8E0,6.5E1,3E0,1E0,1E0,1E0,1E0,4E0,1E0,1E0,3.8E1,1E0,4E0,1E0,3E0,5E0,3E0,6.2E1,1E0,2E0,2E0,2E0,7E0,3.1E1,3E0,1E0,2E0,1E0,4E0,1E0,1E0,2E0,3E0,5.9E1],"tree_param":{"num_deleted":"0","num_feature":"5","num_nodes":"57","size_leaf_vector":"1"}},{"base_weights":[-5.5878158E-5,3.8261907E-4,-4.025334E-4,-2.826131E-4,1.079446E-3,-8.817044E-4,8.695897E-5,-9.753686E-4,1.9175746E-3,1.6478765E-3,-1.4689217E-3,-6.0749095E-4,-2.6248575E-3,6.4401426E-3,-4.3051428E-4,-4.1441957E-4,-1.1450239E-3,9.963567E-4,-3.1633675E-4,3.873848E-4,1.98371E-3,-7.056803E-4,5.9553982E-5,-8.381574E-4,6.397009E-4,-9.7631215E-4,-3.3611656E-4,2.8466643E-3,5.1400068E-5,1.5523732E-3,-7.179059E-4,-1.7759566E-3,2.0715408E-4,-4.454136E-4,4.7831834E-4,1.252642E-3,-9.05474E-4,-5.6837546E-4,-1.4206767E-3,-2.0644517E-4,6.8536255E-4,-1.0576979E-3,-5.1998673E-4,-2.515197E-4,-6.8085757E-4,3.091753E-4,-2.2352971E-4,7.2300434E-5,2.0088495E-3,-3.4674705E-4,1.6459823E-4,-3.0200955E-4,5.999726E-4,3.6633563E-5,-4.0627932E-4],"categories":[],"categories_nodes":[],"categories_segments":[],"categories_sizes":[],"default_left":[0,0,0,0,0,0,0,0,0,0,0,0,0,0,0,0,0,0,0,0,0,0,0,0,0,0,0,0,0,0,0,0,0,0,0,0,0,0,0,0,0,0,0,0,0,0,0,0,0,0,0,0,0,0,0],"id":22,"left_children":[1,3,5,7,9,11,13,15,17,19,21,23,25,27,29,31,-1,-1,33,35,-1,-1,-1,37,-1,-1,-1,-1,-1,39,41,43,45,-1,-1,47,49,51,-1,-1,-1,-1,53,-1,-1,-1,-1,-1,-1,-1,-1,-1,-1,-1,-1],"loss_changes":[2.0979023E-5,2.8581719E-5,1.8137063E-5,5.0644492E-5,4.5877696E-5,1.7047265E-5,1.3098908E-4,3.8264967E-5,2.6135014E-5,1.5388093E-4,9.304488E-6,2.3906745E-5,1.0892763E-6,5.5710116E-5,2.219947E-5,1.8986399E-5,0E0,0E0,1.129702E-5,2.4625999E-5,0E0,0E0,0E0,3.2006476E-5,0E0,0E0,0E0,0E0,0E0,9.774313E-6,1.6505075E-5,1.3364752E-6,1.3313709E-5,0E0,0E0,6.9975766E-5,3.9105316E-6,3.8036924E-5,0E0,0E0,0E0,0E0,1.7307404E-5,0E0,0E0,0E0,0E0,0E0,0E0,0E0,0E0,0E0,0E0,0E0,0E0],"parents":[2147483647,0,0,1,1,2,2,3,3,4,4,5,5,6,6,7,7,8,8,9,9,10,10,11,11,12,12,13,13,14,14,15,15,18,18,19,19,23,23,29,29,30,30,31,31,32,32,35,35,36,36,37,37,42,42],"right_children":[2,4,6,8,10,12,14,16,18,20,22,24,26,28,30,32,-1,-1,34,36,-1,-1,-1,38,-1,-1,-1,-1,-1,40,42,44,46,-1,-1,48,50,52,-1,-1,-1,-1,54,-1,-1,-1,-1,-1,-1,-1,-1,-1,-1,-1,-1],"split_conditions":[2.26762E1,2.13969E1,1.13055E3,1.463557E3,1.44435E3,1.102921E3,1.170472E3,1.393011E3,1.605703E3,1.282231E3,1.55099E3,1.094471E3,6.829E-1,3.10963E1,1.204049E3,7.30937E2,-1.1450239E-3,9.963567E-4,1.67413E3,1.031455E3,1.98371E-3,-7.056803E-4,5.9553982E-5,1.069197E3,6.397009E-4,-9.7631215E-4,-3.3611656E-4,2.8466643E-3,5.1400068E-5,1.187154E3,1.233217E3,6.27969E2,1.11007E3,-4.454136E-4,4.7831834E-4,9.72452E2,1.258115E3,1.041086E3,-1.4206767E-3,-2.0644517E-4,6.8536255E-4,-1.0576979E-3,1.474671E3,-2.515197E-4,-6.8085757E-4,3.091753E-4,-2.2352971E-4,7.2300434E-5,2.0088495E-3,-3.4674705E-4,1.6459823E-4,-3.0200955E-4,5.999726E-4,3.6633563E-5,-4.0627932E-4],"split_indices":[0,0,4,4,4,4,4,4,4,4,4,4,1,0,4,4,0,0,4,4,0,0,0,4,0,0,0,0,0,4,4,4,4,0,0,4,4,4,0,0,0,0,4,0,0,0,0,0,0,0,0,0,0,0,0],"split_type":[0,0,0,0,0,0,0,0,0,0,0,0,0,0,0,0,0,0,0,0,0,0,0,0,0,0,0,0,0,0,0,0,0,0,0,0,0,0,0,0,0,0,0,0,0,0,0,0,0,0,0,0,0,0,0],"sum_hessian":[1.36E2,6E1,7.6E1,3.1E1,2.9E1,3.8E1,3.8E1,2.4E1,7E0,2.4E1,5E0,3.4E1,4E0,2E0,3.6E1,2.1E1,3E0,4E0,3E0,2E1,4E0,3E0,2E0,3.2E1,2E0,2E0,2E0,1E0,1E0,4E0,3.2E1,6E0,1.5E1,2E0,1E0,1.2E1,8E0,3.1E1,1E0,1E0,3E0,1E0,3.1E1,3E0,3E0,8E0,7E0,1.1E1,1E0,7E0,1E0,2.7E1,4E0,1.8E1,1.3E1],"tree_param":{"num_deleted":"0","num_feature":"5","num_nodes":"55","size_leaf_vector":"1"}},{"base_weights":[-2.1388332E-5,-9.981133E-4,8.9059555E-5,-2.747625E-4,-1.6822123E-3,1.8538059E-4,-1.1623071E-3,3.4374E-5,-2.8855802E-4,-4.3020956E-4,-2.513662E-3,2.3585422E-5,2.701393E-3,-3.6597177E-3,6.963511E-4,-5.5479334E-4,5.7406427E-4,-3.2890688E-3,-2.8116257E-5,2.4610167E-4,-9.900428E-4,1.2668967E-3,3.7444712E-4,-3.563285E-4,-1.661338E-3,7.713199E-4,-2.651319E-4,-2.7250574E-4,-1.2075752E-3,4.6481664E-4,-1.5719712E-3,4.33214E-5,-2.257857E-3,-2.2872807E-4,2.9573604E-4,-1.880461E-3,-1.0611019E-4,-4.2576127E-4,2.4196655E-3,-9.857118E-4,2.6792288E-4],"categories":[],"categories_nodes":[],"categories_segments":[],"categories_sizes":[],"default_left":[0,0,0,0,0,0,0,0,0,0,0,0,0,0,0,0,0,0,0,0,0,0,0,0,0,0,0,0,0,0,0,0,0,0,0,0,0,0,0,0,0],"id":23,"left_children":[1,3,5,7,9,11,13,-1,-1,15,17,19,21,23,25,-1,-1,27,-1,29,31,-1,-1,-1,-1,-1,-1,-1,-1,33,35,37,39,-1,-1,-1,-1,-1,-1,-1,-1],"loss_changes":[1.4868069E-5,6.4655997E-6,1.5161555E-5,2.25034E-6,6.2054405E-6,4.7157417E-5,4.4324945E-5,0E0,0E0,1.6842861E-5,7.197499E-6,2.5054014E-5,1.0207721E-5,1.1992495E-5,2.0045933E-5,0E0,0E0,1.6015765E-6,0E0,3.6915895E-5,2.6300095E-5,0E0,0E0,0E0,0E0,0E0,0E0,0E0,0E0,5.317889E-5,5.4995748E-5,1.5223926E-4,3.208254E-5,0E0,0E0,0E0,0E0,0E0,0E0,0E0,0E0],"parents":[2147483647,0,0,1,1,2,2,3,3,4,4,5,5,6,6,9,9,10,10,11,11,12,12,13,13,14,14,17,17,19,19,20,20,29,29,30,30,31,31,32,32],"right_children":[2,4,6,8,10,12,14,-1,-1,16,18,20,22,24,26,-1,-1,28,-1,30,32,-1,-1,-1,-1,-1,-1,-1,-1,34,36,38,40,-1,-1,-1,-1,-1,-1,-1,-1],"split_conditions":[1.37598E1,2.38209E1,1.659933E3,1.195671E3,8.5279E2,1.577875E3,1.681328E3,3.4374E-5,-2.8855802E-4,7.79304E2,1.094471E3,2.84204E1,1.595308E3,2.13969E1,-1.24272E1,-5.5479334E-4,5.7406427E-4,9.29706E2,-2.8116257E-5,1.474647E3,1.170472E3,1.2668967E-3,3.7444712E-4,-3.563285E-4,-1.661338E-3,7.713199E-4,-2.651319E-4,-2.7250574E-4,-1.2075752E-3,2.13969E1,1.484285E3,1.134684E3,1.387269E3,-2.2872807E-4,2.9573604E-4,-1.880461E-3,-1.0611019E-4,-4.2576127E-4,2.4196655E-3,-9.857118E-4,2.6792288E-4],"split_indices":[2,0,4,4,4,4,4,0,0,4,4,0,4,0,3,0,0,4,0,4,4,0,0,0,0,0,0,0,0,0,4,4,4,0,0,0,0,0,0,0,0],"split_type":[0,0,0,0,0,0,0,0,0,0,0,0,0,0,0,0,0,0,0,0,0,0,0,0,0,0,0,0,0,0,0,0,0,0,0,0,0,0,0,0,0],"sum_hessian":[1.36E2,1.3E1,1.23E2,7E0,6E0,1.15E2,8E0,5E0,2E0,3E0,3E0,1.09E2,6E0,3E0,5E0,2E0,1E0,2E0,1E0,9E1,1.9E1,2E0,4E0,2E0,1E0,2E0,3E0,1E0,1E0,8.1E1,9E0,1.1E1,8E0,2.4E1,5.7E1,1E0,8E0,1E1,1E0,6E0,2E0],"tree_param":{"num_deleted":"0","num_feature":"5","num_nodes":"41","size_leaf_vector":"1"}},{"base_weights":[-3.14421E-5,-7.326901E-4,8.7679946E-5,-2.583776E-4,-1.5766451E-3,4.8869266E-4,-2.1436898E-4,-7.285625E-4,5.1254634E-4,-2.4549544E-4,-6.944925E-4,1.3799048E-3,1.7909132E-4,-7.0055324E-4,1.6511556E-4,-5.8987737E-4,-2.843976E-4,5.709206E-4,1.6631574E-3,-1.1678544E-3,8.2098774E-4,2.8587878E-4,-1.5815487E-3,4.809489E-3,-2.1591783E-4,2.4953485E-4,-1.5669346E-3,7.1056635E-4,1.9217622E-4,-4.2351783E-4,-2.7367324E-3,2.0584534E-3,-3.0621488E-4,-4.5625272E-4,6.8082375E-4,-3.7933171E-3,-5.2818283E-4,2.0567179E-3,1.07552114E-4,-7.3214374E-6,-1.5494705E-3,1.6602874E-4,-6.706149E-4,3.3634342E-4,-5.141415E-4,-3.065318E-4,3.939003E-4,5.749718E-4,-1.4780074E-3,3.106259E-4,2.1502287E-3,-6.739479E-4,1.8107024E-4,4.4423134E-5,3.3489297E-4,-2.29311E-4,-1.6673476E-3,5.295754E-4,-4.4663996E-4,-1.2591056E-4,5.755022E-4,-1.4121383E-3,1.2501777E-4],"categories":[],"categories_nodes":[],"categories_segments":[],"categories_sizes":[],"default_left":[0,0,0,0,0,0,0,0,0,0,0,0,0,0,0,0,0,0,0,0,0,0,0,0,0,0,0,0,0,0,0,0,0,0,0,0,0,0,0,0,0,0,0,0,0,0,0,0,0,0,0,0,0,0,0,0,0,0,0,0,0,0,0],"id":24,"left_children":[1,3,5,7,9,11,13,15,-1,-1,-1,17,19,21,23,-1,25,27,-1,29,31,33,35,37,39,-1,41,-1,43,45,47,49,51,-1,53,55,57,-1,-1,59,61,-1,-1,-1,-1,-1,-1,-1,-1,-1,-1,-1,-1,-1,-1,-1,-1,-1,-1,-1,-1,-1,-1],"loss_changes":[1.1508414E-5,7.598597E-6,1.4397565E-5,1.4191804E-5,2.0248808E-6,1.3824816E-5,1.2661632E-5,6.037691E-6,0E0,0E0,0E0,4.062633E-5,3.467818E-5,2.6523398E-5,7.005525E-5,0E0,1.5618778E-5,7.714945E-6,0E0,1.4021998E-5,3.829193E-5,1.1738757E-5,3.5273253E-5,2.4865469E-5,1.0281104E-5,0E0,8.323893E-6,0E0,2.1397984E-5,1.1730395E-5,5.020455E-5,6.0525203E-5,2.7834372E-5,0E0,2.8507493E-6,2.2474778E-5,2.9065443E-5,0E0,0E0,2.7010608E-5,3.3004453E-5,0E0,0E0,0E0,0E0,0E0,0E0,0E0,0E0,0E0,0E0,0E0,0E0,0E0,0E0,0E0,0E0,0E0,0E0,0E0,0E0,0E0,0E0],"parents":[2147483647,0,0,1,1,2,2,3,3,4,4,5,5,6,6,7,7,11,11,12,12,13,13,14,14,16,16,17,17,19,19,20,20,21,21,22,22,23,23,24,24,26,26,28,28,29,29,30,30,31,31,32,32,34,34,35,35,36,36,39,39,40,40],"right_children":[2,4,6,8,10,12,14,16,-1,-1,-1,18,20,22,24,-1,26,28,-1,30,32,34,36,38,40,-1,42,-1,44,46,48,50,52,-1,54,56,58,-1,-1,60,62,-1,-1,-1,-1,-1,-1,-1,-1,-1,-1,-1,-1,-1,-1,-1,-1,-1,-1,-1,-1,-1,-1],"split_conditions":[6.98309E2,6.50428E2,2.26762E1,6.47287E2,1.66103E1,1.031455E3,1.13055E3,5.45083E2,5.1254634E-4,-2.4549544E-4,-6.944925E-4,9.72452E2,1.204369E3,9.63759E2,1.170472E3,-5.8987737E-4,6.27969E2,7.22765E2,1.6631574E-3,1.17489E3,1.44435E3,7.31582E2,1.041086E3,3.10963E1,1.61693E3,2.4953485E-4,5.45E-1,7.1056635E-4,2.2227E1,9.229E-1,1.61859E1,1.400554E3,1.513999E3,-4.5625272E-4,8.40476E2,6.773E-1,1.059396E3,2.0567179E-3,1.07552114E-4,1.540187E3,1.681328E3,1.6602874E-4,-6.706149E-4,3.3634342E-4,-5.141415E-4,-3.065318E-4,3.939003E-4,5.749718E-4,-1.4780074E-3,3.106259E-4,2.1502287E-3,-6.739479E-4,1.8107024E-4,4.4423134E-5,3.3489297E-4,-2.29311E-4,-1.6673476E-3,5.295754E-4,-4.4663996E-4,-1.2591056E-4,5.755022E-4,-1.4121383E-3,1.2501777E-4],"split_indices":[4,4,0,4,2,4,4,4,0,0,0,4,4,4,4,0,4,4,0,4,4,4,4,0,4,0,1,0,0,1,2,4,4,0,4,1,4,0,0,4,4,0,0,0,0,0,0,0,0,0,0,0,0,0,0,0,0,0,0,0,0,0,0],"split_type":[0,0,0,0,0,0,0,0,0,0,0,0,0,0,0,0,0,0,0,0,0,0,0,0,0,0,0,0,0,0,0,0,0,0,0,0,0,0,0,0,0,0,0,0,0,0,0,0,0,0,0,0,0,0,0,0,0,0,0,0,0,0,0],"sum_hessian":[1.36E2,1.9E1,1.17E2,1.3E1,6E0,5E1,6.7E1,1.1E1,2E0,4E0,2E0,1.2E1,3.8E1,2.9E1,3.8E1,2E0,9E0,1.1E1,1E0,1.2E1,2.6E1,1.4E1,1.5E1,2E0,3.6E1,5E0,4E0,1E0,1E1,9E0,3E0,1.2E1,1.4E1,2E0,1.2E1,4E0,1.1E1,1E0,1E0,3.2E1,4E0,1E0,3E0,7E0,3E0,7E0,2E0,1E0,2E0,1.1E1,1E0,4E0,1E1,6E0,6E0,2E0,2E0,3E0,8E0,2.7E1,5E0,1E0,3E0],"tree_param":{"num_deleted":"0","num_feature":"5","num_nodes":"63","size_leaf_vector":"1"}},{"base_weights":[-1.0973672E-5,5.440229E-5,-9.468098E-4,-4.5451572E-5,1.8012056E-3,-2.803728E-3,4.489372E-4,6.658538E-5,-1.1922446E-3,8.353182E-4,1.1031479E-4,-3.2128097E-4,-1.2003154E-3,5.8644713E-4,-2.378136E-4,-1.0201406E-4,2.0261805E-3,-1.5795038E-3,-2.584666E-4,8.744389E-5,-1.910609E-3,6.1616227E-3,-1.0684779E-3,1.4747202E-3,-1.6597112E-3,-4.6576417E-5,1.3606829E-3,-2.5916845E-4,-1.2194932E-3,2.183816E-3,4.212499E-4,-6.19074E-4,1.8434525E-4,5.141437E-4,7.7752775E-5,-7.4659736E-4,-3.6358836E-7],"categories":[],"categories_nodes":[],"categories_segments":[],"categories_sizes":[],"default_left":[0,0,0,0,0,0,0,0,0,0,0,0,0,0,0,0,0,0,0,0,0,0,0,0,0,0,0,0,0,0,0,0,0,0,0,0,0],"id":25,"left_children":[1,3,5,7,9,11,13,15,17,-1,-1,-1,-1,-1,-1,19,21,-1,23,25,27,29,31,33,35,-1,-1,-1,-1,-1,-1,-1,-1,-1,-1,-1,-1],"loss_changes":[8.433332E-6,2.2582699E-5,2.4584791E-5,1.5882819E-5,8.841862E-6,4.013975E-6,1.2768309E-5,3.754039E-5,4.047284E-5,0E0,0E0,0E0,0E0,0E0,0E0,3.6145604E-5,1.2176357E-4,0E0,2.6733796E-5,1.0434229E-4,1.9038362E-5,1.1049386E-5,1.1316351E-5,1.008957E-6,8.245828E-6,0E0,0E0,0E0,0E0,0E0,0E0,0E0,0E0,0E0,0E0,0E0,0E0],"parents":[2147483647,0,0,1,1,2,2,3,3,4,4,5,5,6,6,7,7,8,8,15,15,16,16,18,18,19,19,20,20,21,21,22,22,23,23,24,24],"right_children":[2,4,6,8,10,12,14,16,18,-1,-1,-1,-1,-1,-1,20,22,-1,24,26,28,30,32,34,36,-1,-1,-1,-1,-1,-1,-1,-1,-1,-1,-1,-1],"split_conditions":[1.659933E3,1.577875E3,1.681328E3,1.474671E3,1.605703E3,2.13969E1,-1.24272E1,1.408648E3,1.484285E3,8.353182E-4,1.1031479E-4,-3.2128097E-4,-1.2003154E-3,5.8644713E-4,-2.378136E-4,1.343765E3,6.829E-1,-1.5795038E-3,-1.24272E1,1.32684E3,1.84644E1,2.44518E1,2.2227E1,2.84204E1,2.44518E1,-4.6576417E-5,1.3606829E-3,-2.5916845E-4,-1.2194932E-3,2.183816E-3,4.212499E-4,-6.19074E-4,1.8434525E-4,5.141437E-4,7.7752775E-5,-7.4659736E-4,-3.6358836E-7],"split_indices":[4,4,4,4,4,0,3,4,4,0,0,0,0,0,0,4,1,0,3,4,2,0,0,0,0,0,0,0,0,0,0,0,0,0,0,0,0],"split_type":[0,0,0,0,0,0,0,0,0,0,0,0,0,0,0,0,0,0,0,0,0,0,0,0,0,0,0,0,0,0,0,0,0,0,0,0,0],"sum_hessian":[1.36E2,1.28E2,8E0,1.22E2,6E0,3E0,5E0,1.12E2,1E1,3E0,3E0,2E0,1E0,2E0,3E0,1.04E2,8E0,1E0,9E0,9.5E1,9E0,3E0,5E0,4E0,5E0,9.1E1,4E0,7E0,2E0,2E0,1E0,3E0,2E0,3E0,1E0,3E0,2E0],"tree_param":{"num_deleted":"0","num_feature":"5","num_nodes":"37","size_leaf_vector":"1"}},{"base_weights":[-7.3586175E-6,-1.7189104E-4,3.1136072E-4,-6.723088E-4,6.1188424E-5,6.091893E-4,-6.080717E-4,-9.785515E-4,6.647135E-4,-4.6258568E-4,1.3902833E-4,2.3789117E-4,3.5201013E-3,-1.3425797E-3,1.5033376E-4,-3.3586335E-4,-1.4136242E-3,2.2357106E-3,-1.6515205E-3,4.3159723E-4,-4.3879804E-4,5.679467E-4,-9.75594E-4,1.5001238E-3,4.0795802E-4,-3.009306E-4,1.4540156E-3,-8.10922E-4,3.603801E-4,1.8029411E-4,-1.6943017E-3,4.910429E-4,1.1204571E-3,-7.1052165E-4,-3.2662603E-5,1.2992174E-4,1.8747926E-3,-1.4408032E-3,2.8865153E-4,4.6564186E-5,1.8372635E-3,-7.7854097E-4,5.2799284E-4,6.608963E-5,5.882174E-4,1.257509E-4,-3.6667747E-4,-3.6049337E-4,4.4162574E-4,-3.644827E-4,-8.1821985E-4,-1.9306094E-4,4.1403028E-4,-3.3981803E-5,2.3441044E-4,-1.2296811E-4,-5.663827E-4,3.32797E-4,-1.7197686E-4,1.9480569E-4,-4.2720055E-4,1.5368582E-3,5.0005317E-5,3.459603E-5,-6.920248E-4],"categories":[],"categories_nodes":[],"categories_segments":[],"categories_sizes":[],"default_left":[0,0,0,0,0,0,0,0,0,0,0,0,0,0,0,0,0,0,0,0,0,0,0,0,0,0,0,0,0,0,0,0,0,0,0,0,0,0,0,0,0,0,0,0,0,0,0,0,0,0,0,0,0,0,0,0,0,0,0,0,0,0,0,0,0],"id":26,"left_children":[1,3,5,7,9,11,13,15,17,-1,19,21,23,-1,25,27,29,31,33,35,37,39,-1,-1,-1,41,43,45,-1,47,49,51,-1,-1,-1,53,-1,55,57,59,61,63,-1,-1,-1,-1,-1,-1,-1,-1,-1,-1,-1,-1,-1,-1,-1,-1,-1,-1,-1,-1,-1,-1,-1],"loss_changes":[7.237754E-6,1.0655114E-5,1.3240593E-5,1.2524602E-5,8.076038E-6,3.807198E-5,3.5867593E-5,6.2360014E-6,2.5525103E-5,0E0,1.0501679E-5,3.9858045E-5,5.9914564E-6,0E0,6.908914E-6,9.006632E-6,6.5687527E-6,8.628074E-6,3.0598367E-6,7.114558E-5,1.5722962E-5,2.043024E-5,0E0,0E0,0E0,1.0229008E-5,1.4434613E-6,5.0661642E-6,0E0,7.124454E-6,2.629069E-6,3.9142656E-6,0E0,0E0,0E0,6.4256324E-6,0E0,3.3747838E-6,9.831389E-6,2.1312791E-5,4.8545742E-5,1.1194062E-5,0E0,0E0,0E0,0E0,0E0,0E0,0E0,0E0,0E0,0E0,0E0,0E0,0E0,0E0,0E0,0E0,0E0,0E0,0E0,0E0,0E0,0E0,0E0],"parents":[2147483647,0,0,1,1,2,2,3,3,4,4,5,5,6,6,7,7,8,8,10,10,11,11,12,12,14,14,15,15,16,16,17,17,18,18,19,19,20,20,21,21,25,25,26,26,27,27,29,29,30,30,31,31,35,35,37,37,38,38,39,39,40,40,41,41],"right_children":[2,4,6,8,10,12,14,16,18,-1,20,22,24,-1,26,28,30,32,34,36,38,40,-1,-1,-1,42,44,46,-1,48,50,52,-1,-1,-1,54,-1,56,58,60,62,64,-1,-1,-1,-1,-1,-1,-1,-1,-1,-1,-1,-1,-1,-1,-1,-1,-1,-1,-1,-1,-1,-1,-1],"split_conditions":[1.84644E1,7.961E-1,1.458763E3,1.338934E3,5.45083E2,1.387269E3,1.484285E3,8.82542E2,1.474647E3,-4.6258568E-4,1.333619E3,1.343765E3,2.26762E1,-1.3425797E-3,2.84204E1,7.79304E2,5.45E-1,1.408648E3,2.44518E1,1.32994E3,1.467981E3,1.15983E3,-9.75594E-4,1.5001238E-3,4.0795802E-4,1.685009E3,1.524783E3,2.44518E1,3.603801E-4,1.041086E3,6.829E-1,2.44518E1,1.1204571E-3,-7.1052165E-4,-3.2662603E-5,1.178707E3,1.8747926E-3,1.393011E3,1.605703E3,1.031455E3,1.19398E3,1.659933E3,5.2799284E-4,6.608963E-5,5.882174E-4,1.257509E-4,-3.6667747E-4,-3.6049337E-4,4.4162574E-4,-3.644827E-4,-8.1821985E-4,-1.9306094E-4,4.1403028E-4,-3.3981803E-5,2.3441044E-4,-1.2296811E-4,-5.663827E-4,3.32797E-4,-1.7197686E-4,1.9480569E-4,-4.2720055E-4,1.5368582E-3,5.0005317E-5,3.459603E-5,-6.920248E-4],"split_indices":[2,1,4,4,4,4,4,4,4,0,4,4,0,0,0,4,1,4,0,4,4,4,0,0,0,4,4,0,0,4,1,0,0,0,0,4,0,4,4,4,4,4,0,0,0,0,0,0,0,0,0,0,0,0,0,0,0,0,0,0,0,0,0,0,0],"split_type":[0,0,0,0,0,0,0,0,0,0,0,0,0,0,0,0,0,0,0,0,0,0,0,0,0,0,0,0,0,0,0,0,0,0,0,0,0,0,0,0,0,0,0,0,0,0,0,0,0,0,0,0,0,0,0,0,0,0,0,0,0,0,0,0,0],"sum_hessian":[1.36E2,9E1,4.6E1,2.8E1,6.2E1,3.5E1,1.1E1,2.3E1,5E0,2E0,6E1,3.2E1,3E0,1E0,1E1,1E1,1.3E1,3E0,2E0,4E1,2E1,3E1,2E0,1E0,2E0,8E0,2E0,8E0,2E0,2E0,1.1E1,2E0,1E0,1E0,1E0,3.9E1,1E0,8E0,1.2E1,2.2E1,8E0,7E0,1E0,1E0,1E0,2E0,6E0,1E0,1E0,9E0,2E0,1E0,1E0,2.9E1,1E1,3E0,5E0,6E0,6E0,1.6E1,6E0,2E0,6E0,5E0,2E0],"tree_param":{"num_deleted":"0","num_feature":"5","num_nodes":"65","size_leaf_vector":"1"}},{"base_weights":[1.0681631E-5,-4.7239065E-4,9.2467766E-5,-1.2651937E-4,-1.0966489E-3,5.9343514E-4,-6.9982474E-5,-4.8366436E-4,4.0327015E-4,-1.5686543E-4,-5.062118E-4,2.8333176E-4,1.3914496E-3,-1.6317264E-3,5.1457897E-5,-1.5571713E-6,-1.158303E-3,-1.4767835E-4,1.0739177E-3,-2.603491E-4,3.6212138E-4,-1.2335578E-3,1.8441082E-4,2.0311476E-4,-5.35921E-4,5.8174436E-4,-3.7134357E-4,-6.77079E-5,4.2810963E-4,-1.0100077E-3,1.1078725E-4,1.2974242E-3,2.1363883E-5,-5.1571056E-4,-3.9390477E-5,-4.10752E-4,3.5327444E-5,-1.4958649E-4,-1.2254119E-3,3.9164125E-4,-1.834687E-4,5.06267E-5,1.3881534E-3,-8.0484455E-4,8.226391E-5],"categories":[],"categories_nodes":[],"categories_segments":[],"categories_sizes":[],"default_left":[0,0,0,0,0,0,0,0,0,0,0,0,0,0,0,0,0,0,0,0,0,0,0,0,0,0,0,0,0,0,0,0,0,0,0,0,0,0,0,0,0,0,0,0,0],"id":27,"left_children":[1,3,5,7,9,11,13,15,-1,-1,-1,17,-1,-1,19,21,23,25,27,29,31,33,-1,-1,-1,-1,35,-1,-1,37,39,41,43,-1,-1,-1,-1,-1,-1,-1,-1,-1,-1,-1,-1],"loss_changes":[5.456361E-6,4.179512E-6,9.644638E-6,8.003968E-6,1.4902525E-6,3.5060115E-5,5.896224E-5,3.9011748E-6,0E0,0E0,0E0,9.69961E-6,0E0,0E0,8.715446E-6,6.832132E-6,6.97341E-6,9.588347E-6,4.9111823E-6,1.2632046E-5,1.4314298E-5,1.3796493E-6,0E0,0E0,0E0,0E0,8.945955E-6,0E0,0E0,2.154865E-5,2.755073E-5,4.4317407E-5,2.398314E-5,0E0,0E0,0E0,0E0,0E0,0E0,0E0,0E0,0E0,0E0,0E0,0E0],"parents":[2147483647,0,0,1,1,2,2,3,3,4,4,5,5,6,6,7,7,11,11,14,14,15,15,16,16,17,17,18,18,19,19,20,20,21,21,26,26,29,29,30,30,31,31,32,32],"right_children":[2,4,6,8,10,12,14,16,-1,-1,-1,18,-1,-1,20,22,24,26,28,30,32,34,-1,-1,-1,-1,36,-1,-1,38,40,42,44,-1,-1,-1,-1,-1,-1,-1,-1,-1,-1,-1,-1],"split_conditions":[6.98309E2,6.50428E2,1.031455E3,6.47287E2,1.66103E1,1.007345E3,1.03801E3,6.27969E2,4.0327015E-4,-1.5686543E-4,-5.062118E-4,7.961E-1,1.3914496E-3,-1.6317264E-3,1.73303E1,5.45083E2,5.45E-1,7.22765E2,7.30937E2,1.178707E3,1.19398E3,2.13969E1,1.8441082E-4,2.0311476E-4,-5.35921E-4,5.8174436E-4,6.196E-1,-6.77079E-5,4.2810963E-4,1.13055E3,1.333619E3,1.98312E1,1.233217E3,-5.1571056E-4,-3.9390477E-5,-4.10752E-4,3.5327444E-5,-1.4958649E-4,-1.2254119E-3,3.9164125E-4,-1.834687E-4,5.06267E-5,1.3881534E-3,-8.0484455E-4,8.226391E-5],"split_indices":[4,4,4,4,2,4,4,4,0,0,0,1,0,0,2,4,1,4,4,4,4,0,0,0,0,0,1,0,0,4,4,2,4,0,0,0,0,0,0,0,0,0,0,0,0],"split_type":[0,0,0,0,0,0,0,0,0,0,0,0,0,0,0,0,0,0,0,0,0,0,0,0,0,0,0,0,0,0,0,0,0,0,0,0,0,0,0,0,0,0,0,0,0],"sum_hessian":[1.36E2,1.9E1,1.17E2,1.3E1,6E0,2.8E1,8.9E1,1.1E1,2E0,4E0,2E0,2.7E1,1E0,1E0,8.8E1,7E0,4E0,1.8E1,9E0,4.4E1,4.4E1,2E0,5E0,1E0,3E0,1E0,1.7E1,2E0,7E0,1.4E1,3E1,1.1E1,3.3E1,1E0,1E0,5E0,1.2E1,1.3E1,1E0,1.1E1,1.9E1,9E0,2E0,2E0,3.1E1],"tree_param":{"num_deleted":"0","num_feature":"5","num_nodes":"45","size_leaf_vector":"1"}},{"base_weights":[-4.5899927E-7,3.022775E-4,-1.4216057E-4,6.7639264E-4,-1.0373533E-3,-3.0546664E-4,5.643244E-4,1.9198557E-4,8.9570886E-4,-1.1535332E-3,-2.9814575E-4,-8.862546E-5,-1.3661751E-3,9.799093E-4,2.1324176E-4,5.5775617E-4,-5.953312E-4,-8.6919323E-4,3.401041E-4,-2.4988758E-4,1.5348226E-3,-2.454436E-3,-6.0978864E-4,-7.1172975E-4,9.3189476E-4,-1.622159E-4,2.3847222E-3,-1.3571425E-3,2.6600139E-4,1.7945966E-5,-9.2880434E-4,-1.21903955E-4,-2.139166E-3,-9.221912E-4,-3.050268E-4,3.0963868E-4,-9.4404444E-4,-5.7642465E-4,-2.6442963E-4,1.4546684E-3,-2.1593273E-4,6.0548955E-5,-5.421073E-4,7.588864E-5,1.0162086E-3,-7.6655747E-4,-2.194807E-4,-2.3081974E-4,3.1852725E-4,-1.1097316E-4,1.00367455E-4,-8.997321E-5,-1.1485398E-3,-3.751989E-4,1.803428E-4,3.0614435E-6,-2.8683545E-4,1.1326672E-4,5.4300076E-4,-2.1250844E-4,1.8920303E-4],"categories":[],"categories_nodes":[],"categories_segments":[],"categories_sizes":[],"default_left":[0,0,0,0,0,0,0,0,0,0,0,0,0,0,0,0,0,0,0,0,0,0,0,0,0,0,0,0,0,0,0,0,0,0,0,0,0,0,0,0,0,0,0,0,0,0,0,0,0,0,0,0,0,0,0,0,0,0,0,0,0],"id":28,"left_children":[1,3,5,7,9,11,13,15,-1,-1,17,19,21,-1,23,25,27,29,-1,31,-1,33,35,37,39,41,43,45,-1,47,-1,49,51,-1,-1,-1,53,-1,55,57,59,-1,-1,-1,-1,-1,-1,-1,-1,-1,-1,-1,-1,-1,-1,-1,-1,-1,-1,-1,-1],"loss_changes":[5.9200306E-6,2.275341E-5,1.1017471E-5,3.857929E-5,1.960875E-5,1.758933E-5,1.6378981E-5,8.9713685E-6,0E0,0E0,8.344154E-6,5.5834316E-5,9.204206E-6,0E0,1.1963728E-5,2.8009494E-5,1.24934E-5,1.3884062E-5,0E0,1.5214217E-5,0E0,1.3279841E-6,5.91376E-6,3.820661E-6,6.314649E-6,9.945278E-6,1.1967448E-5,3.376611E-6,0E0,5.747954E-6,0E0,7.029298E-6,1.1280017E-5,0E0,0E0,0E0,4.542092E-6,0E0,1.3394873E-6,1.9957652E-6,2.1143264E-6,0E0,0E0,0E0,0E0,0E0,0E0,0E0,0E0,0E0,0E0,0E0,0E0,0E0,0E0,0E0,0E0,0E0,0E0,0E0,0E0],"parents":[2147483647,0,0,1,1,2,2,3,3,4,4,5,5,6,6,7,7,10,10,11,11,12,12,14,14,15,15,16,16,17,17,19,19,21,21,22,22,23,23,24,24,25,25,26,26,27,27,29,29,31,31,32,32,36,36,38,38,39,39,40,40],"right_children":[2,4,6,8,10,12,14,16,-1,-1,18,20,22,-1,24,26,28,30,-1,32,-1,34,36,38,40,42,44,46,-1,48,-1,50,52,-1,-1,-1,54,-1,56,58,60,-1,-1,-1,-1,-1,-1,-1,-1,-1,-1,-1,-1,-1,-1,-1,-1,-1,-1,-1,-1],"split_conditions":[6.773E-1,1.44435E3,1.467981E3,1.307869E3,1.484285E3,1.333619E3,1.474647E3,1.102921E3,8.9570886E-4,-1.1535332E-3,1.681328E3,1.32994E3,1.387269E3,9.799093E-4,1.66103E1,1.007345E3,1.233217E3,1.659933E3,3.401041E-4,1.276588E3,1.5348226E-3,7.666E-1,1.393011E3,2.44518E1,1.605703E3,9.27315E2,5.45E-1,1.123176E3,2.6600139E-4,2.26762E1,-9.2880434E-4,1.094471E3,2.13969E1,-9.221912E-4,-3.050268E-4,3.0963868E-4,2.44518E1,-5.7642465E-4,1.725743E3,1.529676E3,1.67413E3,6.0548955E-5,-5.421073E-4,7.588864E-5,1.0162086E-3,-7.6655747E-4,-2.194807E-4,-2.3081974E-4,3.1852725E-4,-1.1097316E-4,1.00367455E-4,