{"learner":{"attributes":{"scikit_learn":"{\"_estimator_type\": \"regressor\"}"},"feature_names":["AR","lambda","aoaRoot (deg)","aoaTip (deg)","rpm_bin_center"],"feature_types":["float","float","float","float","float"],"gradient_booster":{"model":{"gbtree_model_param":{"num_parallel_tree":"1","num_trees":"500"},"iteration_indptr":[0,1,2,3,4,5,6,7,8,9,10,11,12,13,14,15,16,17,18,19,20,21,22,23,24,25,26,27,28,29,30,31,32,33,34,35,36,37,38,39,40,41,42,43,44,45,46,47,48,49,50,51,52,53,54,55,56,57,58,59,60,61,62,63,64,65,66,67,68,69,70,71,72,73,74,75,76,77,78,79,80,81,82,83,84,85,86,87,88,89,90,91,92,93,94,95,96,97,98,99,100,101,102,103,104,105,106,107,108,109,110,111,112,113,114,115,116,117,118,119,120,121,122,123,124,125,126,127,128,129,130,131,132,133,134,135,136,137,138,139,140,141,142,143,144,145,146,147,148,149,150,151,152,153,154,155,156,157,158,159,160,161,162,163,164,165,166,167,168,169,170,171,172,173,174,175,176,177,178,179,180,181,182,183,184,185,186,187,188,189,190,191,192,193,194,195,196,197,198,199,200,201,202,203,204,205,206,207,208,209,210,211,212,213,214,215,216,217,218,219,220,221,222,223,224,225,226,227,228,229,230,231,232,233,234,235,236,237,238,239,240,241,242,243,244,245,246,247,248,249,250,251,252,253,254,255,256,257,258,259,260,261,262,263,264,265,266,267,268,269,270,271,272,273,274,275,276,277,278,279,280,281,282,283,284,285,286,287,288,289,290,291,292,293,294,295,296,297,298,299,300,301,302,303,304,305,306,307,308,309,310,311,312,313,314,315,316,317,318,319,320,321,322,323,324,325,326,327,328,329,330,331,332,333,334,335,336,337,338,339,340,341,342,343,344,345,346,347,348,349,350,351,352,353,354,355,356,357,358,359,360,361,362,363,364,365,366,367,368,369,370,371,372,373,374,375,376,377,378,379,380,381,382,383,384,385,386,387,388,389,390,391,392,393,394,395,396,397,398,399,400,401,402,403,404,405,406,407,408,409,410,411,412,413,414,415,416,417,418,419,420,421,422,423,424,425,426,427,428,429,430,431,432,433,434,435,436,437,438,439,440,441,442,443,444,445,446,447,448,449,450,451,452,453,454,455,456,457,458,459,460,461,462,463,464,465,466,467,468,469,470,471,472,473,474,475,476,477,478,479,480,481,482,483,484,485,486,487,488,489,490,491,492,493,494,495,496,497,498,499,500],"tree_info":[0,0,0,0,0,0,0,0,0,0,0,0,0,0,0,0,0,0,0,0,0,0,0,0,0,0,0,0,0,0,0,0,0,0,0,0,0,0,0,0,0,0,0,0,0,0,0,0,0,0,0,0,0,0,0,0,0,0,0,0,0,0,0,0,0,0,0,0,0,0,0,0,0,0,0,0,0,0,0,0,0,0,0,0,0,0,0,0,0,0,0,0,0,0,0,0,0,0,0,0,0,0,0,0,0,0,0,0,0,0,0,0,0,0,0,0,0,0,0,0,0,0,0,0,0,0,0,0,0,0,0,0,0,0,0,0,0,0,0,0,0,0,0,0,0,0,0,0,0,0,0,0,0,0,0,0,0,0,0,0,0,0,0,0,0,0,0,0,0,0,0,0,0,0,0,0,0,0,0,0,0,0,0,0,0,0,0,0,0,0,0,0,0,0,0,0,0,0,0,0,0,0,0,0,0,0,0,0,0,0,0,0,0,0,0,0,0,0,0,0,0,0,0,0,0,0,0,0,0,0,0,0,0,0,0,0,0,0,0,0,0,0,0,0,0,0,0,0,0,0,0,0,0,0,0,0,0,0,0,0,0,0,0,0,0,0,0,0,0,0,0,0,0,0,0,0,0,0,0,0,0,0,0,0,0,0,0,0,0,0,0,0,0,0,0,0,0,0,0,0,0,0,0,0,0,0,0,0,0,0,0,0,0,0,0,0,0,0,0,0,0,0,0,0,0,0,0,0,0,0,0,0,0,0,0,0,0,0,0,0,0,0,0,0,0,0,0,0,0,0,0,0,0,0,0,0,0,0,0,0,0,0,0,0,0,0,0,0,0,0,0,0,0,0,0,0,0,0,0,0,0,0,0,0,0,0,0,0,0,0,0,0,0,0,0,0,0,0,0,0,0,0,0,0,0,0,0,0,0,0,0,0,0,0,0,0,0,0,0,0,0,0,0,0,0,0,0,0,0,0,0,0,0,0,0,0,0,0,0,0,0,0,0,0,0,0,0,0,0,0,0,0,0,0,0,0,0,0,0,0,0,0,0,0,0,0,0,0,0,0,0,0,0,0,0,0,0,0,0,0,0,0,0,0,0,0,0,0,0,0,0,0,0,0,0,0,0,0,0,0],"trees":[{"base_weights":[5.830889E-9,-6.5480046E-2,2.00078E-2,-3.8533617E-2,-4.075657E-3,-1.2070932E-2,4.0970217E-2,-2.7144826E-3,-1.708319E-2,2.0647164E-2,-3.6177125E-2,3.027476E-3,2.2757662E-2,1.6298518E-4,-2.4950722E-2,5.107519E-4,1.5575826E-3,1.1390627E-3,-3.3128944E-3,2.9427856E-2,3.927648E-4,-1.5395976E-3,-3.3170657E-4,-6.4149004E-5,1.5907089E-4,6.940812E-4,1.705372E-3,-3.511697E-4,5.66031E-4],"categories":[],"categories_nodes":[],"categories_segments":[],"categories_sizes":[],"default_left":[0,0,0,0,0,0,0,0,0,0,0,0,0,0,0,0,0,0,0,0,0,0,0,0,0,0,0,0,0],"id":0,"left_children":[1,3,5,7,-1,9,11,-1,13,15,17,-1,19,-1,21,-1,-1,23,-1,25,27,-1,-1,-1,-1,-1,-1,-1,-1],"loss_changes":[6.1575234E-2,1.6113855E-3,2.4702668E-2,1.1004014E-3,0E0,1.2577586E-2,6.466992E-3,0E0,7.215255E-4,4.488735E-4,1.0177968E-2,0E0,1.9277581E-3,0E0,1.16696465E-4,0E0,0E0,2.8815053E-5,0E0,2.540322E-4,4.0368008E-4,0E0,0E0,0E0,0E0,0E0,0E0,0E0,0E0],"parents":[2147483647,0,0,1,1,2,2,3,3,5,5,6,6,8,8,9,9,10,10,12,12,14,14,17,17,19,19,20,20],"right_children":[2,4,6,8,-1,10,12,-1,14,16,18,-1,20,-1,22,-1,-1,24,-1,26,28,-1,-1,-1,-1,-1,-1,-1,-1],"split_conditions":[1.5426461E1,6.3768E0,1.2E3,1.2E3,-4.075657E-3,7.5923805E0,7.5923805E0,-2.7144826E-3,1.36E3,7.112628E0,5.4500127E-1,3.027476E-3,9.202244E0,1.6298518E-4,1.52E3,5.107519E-4,1.5575826E-3,1.04E3,-3.3128944E-3,8.078928E0,1.52E3,-1.5395976E-3,-3.3170657E-4,-6.4149004E-5,1.5907089E-4,6.940812E-4,1.705372E-3,-3.511697E-4,5.66031E-4],"split_indices":[2,0,4,4,0,0,0,0,4,0,1,0,0,0,4,0,0,4,0,0,4,0,0,0,0,0,0,0,0],"split_type":[0,0,0,0,0,0,0,0,0,0,0,0,0,0,0,0,0,0,0,0,0,0,0,0,0,0,0,0,0],"sum_hessian":[4.5E1,1E1,3.5E1,5E0,5E0,1.4E1,2.1E1,2E0,3E0,6E0,8E0,9E0,1.2E1,1E0,2E0,4E0,2E0,4E0,4E0,9E0,3E0,1E0,1E0,2E0,2E0,3E0,6E0,2E0,1E0],"tree_param":{"num_deleted":"0","num_feature":"5","num_nodes":"29","size_leaf_vector":"1"}},{"base_weights":[-8.7092754E-5,-6.297864E-2,1.9132188E-2,-3.7344072E-2,-3.9058384E-3,-1.1544035E-2,3.9178148E-2,-2.6239997E-3,-1.6656116E-2,1.991028E-2,-3.472583E-2,2.8912397E-3,2.1820873E-2,1.5891045E-4,-2.432696E-2,4.9032184E-4,1.505663E-3,1.1010825E-3,-3.180379E-3,2.81964E-2,4.268363E-4,-1.5011079E-3,-3.2341407E-4,-6.201118E-5,1.5376807E-4,6.680526E-4,1.6322843E-3,-3.3946437E-4,5.5188016E-4],"categories":[],"categories_nodes":[],"categories_segments":[],"categories_sizes":[],"default_left":[0,0,0,0,0,0,0,0,0,0,0,0,0,0,0,0,0,0,0,0,0,0,0,0,0,0,0,0,0],"id":1,"left_children":[1,3,5,7,-1,9,11,-1,13,15,17,-1,19,-1,21,-1,-1,23,-1,25,27,-1,-1,-1,-1,-1,-1,-1,-1],"loss_changes":[5.6806512E-2,1.3514496E-3,2.258991E-2,1.0046745E-3,0E0,1.1628914E-2,5.8586225E-3,0E0,6.8590033E-4,4.263213E-4,9.382731E-3,0E0,1.7611417E-3,0E0,1.1093437E-4,0E0,0E0,2.6926093E-5,0E0,2.2388622E-4,3.8121187E-4,0E0,0E0,0E0,0E0,0E0,0E0,0E0,0E0],"parents":[2147483647,0,0,1,1,2,2,3,3,5,5,6,6,8,8,9,9,10,10,12,12,14,14,17,17,19,19,20,20],"right_children":[2,4,6,8,-1,10,12,-1,14,16,18,-1,20,-1,22,-1,-1,24,-1,26,28,-1,-1,-1,-1,-1,-1,-1,-1],"split_conditions":[1.5426461E1,6.3768E0,1.2E3,1.2E3,-3.9058384E-3,7.5923805E0,7.5923805E0,-2.6239997E-3,1.36E3,7.112628E0,5.4500127E-1,2.8912397E-3,9.202244E0,1.5891045E-4,1.52E3,4.9032184E-4,1.505663E-3,1.04E3,-3.180379E-3,8.078928E0,1.52E3,-1.5011079E-3,-3.2341407E-4,-6.201118E-5,1.5376807E-4,6.680526E-4,1.6322843E-3,-3.3946437E-4,5.5188016E-4],"split_indices":[2,0,4,4,0,0,0,0,4,0,1,0,0,0,4,0,0,4,0,0,4,0,0,0,0,0,0,0,0],"split_type":[0,0,0,0,0,0,0,0,0,0,0,0,0,0,0,0,0,0,0,0,0,0,0,0,0,0,0,0,0],"sum_hessian":[4.5E1,1E1,3.5E1,5E0,5E0,1.4E1,2.1E1,2E0,3E0,6E0,8E0,9E0,1.2E1,1E0,2E0,4E0,2E0,4E0,4E0,9E0,3E0,1E0,1E0,2E0,2E0,3E0,6E0,2E0,1E0],"tree_param":{"num_deleted":"0","num_feature":"5","num_nodes":"29","size_leaf_vector":"1"}},{"base_weights":[-1.6717224E-4,-6.0574748E-2,1.8295342E-2,-3.6191802E-2,-3.7430953E-3,-1.1039672E-2,3.7464883E-2,-2.536533E-3,-1.623971E-2,1.9199912E-2,-3.333272E-2,2.7611337E-3,2.0923126E-2,1.549378E-4,-2.3718784E-2,4.7070952E-4,1.455474E-3,1.0643781E-3,-3.0531636E-3,2.7016621E-2,4.586056E-4,-1.4635802E-3,-3.1532868E-4,-5.9943897E-5,1.4864207E-4,6.4300076E-4,1.5623297E-3,-3.2814842E-4,5.380832E-4],"categories":[],"categories_nodes":[],"categories_segments":[],"categories_sizes":[],"default_left":[0,0,0,0,0,0,0,0,0,0,0,0,0,0,0,0,0,0,0,0,0,0,0,0,0,0,0,0,0],"id":2,"left_children":[1,3,5,7,-1,9,11,-1,13,15,17,-1,19,-1,21,-1,-1,23,-1,25,27,-1,-1,-1,-1,-1,-1,-1,-1],"loss_changes":[5.241092E-2,1.122605E-3,2.0657796E-2,9.166319E-4,0E0,1.0751972E-2,5.306961E-3,0E0,6.5203407E-4,4.0476373E-4,8.649649E-3,0E0,1.6087163E-3,0E0,1.0545703E-4,0E0,0E0,2.5160778E-5,0E0,1.969887E-4,3.6000315E-4,0E0,0E0,0E0,0E0,0E0,0E0,0E0,0E0],"parents":[2147483647,0,0,1,1,2,2,3,3,5,5,6,6,8,8,9,9,10,10,12,12,14,14,17,17,19,19,20,20],"right_children":[2,4,6,8,-1,10,12,-1,14,16,18,-1,20,-1,22,-1,-1,24,-1,26,28,-1,-1,-1,-1,-1,-1,-1,-1],"split_conditions":[1.5426461E1,6.3768E0,1.2E3,1.2E3,-3.7430953E-3,7.5923805E0,7.5923805E0,-2.536533E-3,1.36E3,7.112628E0,5.4500127E-1,2.7611337E-3,9.202244E0,1.549378E-4,1.52E3,4.7070952E-4,1.455474E-3,1.04E3,-3.0531636E-3,8.078928E0,1.52E3,-1.4635802E-3,-3.1532868E-4,-5.9943897E-5,1.4864207E-4,6.4300076E-4,1.5623297E-3,-3.2814842E-4,5.380832E-4],"split_indices":[2,0,4,4,0,0,0,0,4,0,1,0,0,0,4,0,0,4,0,0,4,0,0,0,0,0,0,0,0],"split_type":[0,0,0,0,0,0,0,0,0,0,0,0,0,0,0,0,0,0,0,0,0,0,0,0,0,0,0,0,0],"sum_hessian":[4.5E1,1E1,3.5E1,5E0,5E0,1.4E1,2.1E1,2E0,3E0,6E0,8E0,9E0,1.2E1,1E0,2E0,4E0,2E0,4E0,4E0,9E0,3E0,1E0,1E0,2E0,2E0,3E0,6E0,2E0,1E0],"tree_param":{"num_deleted":"0","num_feature":"5","num_nodes":"29","size_leaf_vector":"1"}},{"base_weights":[-2.4067254E-4,-5.8264524E-2,1.7495522E-2,-3.5075624E-2,-3.5871335E-3,-1.055691E-2,3.5826933E-2,-2.4519817E-3,-1.5833713E-2,1.851509E-2,-3.1995475E-2,2.6368832E-3,2.0062758E-2,1.5106425E-4,-2.3125807E-2,4.5188158E-4,1.4069577E-3,1.0288894E-3,-2.9310372E-3,2.5886321E-2,4.8816204E-4,-1.4269904E-3,-3.0744524E-4,-5.7946145E-5,1.4368694E-4,6.188877E-4,1.4953729E-3,-3.1720995E-4,5.246312E-4],"categories":[],"categories_nodes":[],"categories_segments":[],"categories_sizes":[],"default_left":[0,0,0,0,0,0,0,0,0,0,0,0,0,0,0,0,0,0,0,0,0,0,0,0,0,0,0,0,0],"id":3,"left_children":[1,3,5,7,-1,9,11,-1,13,15,17,-1,19,-1,21,-1,-1,23,-1,25,27,-1,-1,-1,-1,-1,-1,-1,-1],"loss_changes":[4.8359E-2,9.2155486E-4,1.8890884E-2,8.35686E-4,0E0,9.941328E-3,4.8067775E-3,0E0,6.198394E-4,3.8417056E-4,7.973859E-3,0E0,1.4692843E-3,0E0,1.0025024E-4,0E0,0E0,2.3511362E-5,0E0,1.730104E-4,3.3998364E-4,0E0,0E0,0E0,0E0,0E0,0E0,0E0,0E0],"parents":[2147483647,0,0,1,1,2,2,3,3,5,5,6,6,8,8,9,9,10,10,12,12,14,14,17,17,19,19,20,20],"right_children":[2,4,6,8,-1,10,12,-1,14,16,18,-1,20,-1,22,-1,-1,24,-1,26,28,-1,-1,-1,-1,-1,-1,-1,-1],"split_conditions":[1.5426461E1,6.3768E0,1.2E3,1.2E3,-3.5871335E-3,7.5923805E0,7.5923805E0,-2.4519817E-3,1.36E3,7.112628E0,5.4500127E-1,2.6368832E-3,9.202244E0,1.5106425E-4,1.52E3,4.5188158E-4,1.4069577E-3,1.04E3,-2.9310372E-3,8.078928E0,1.52E3,-1.4269904E-3,-3.0744524E-4,-5.7946145E-5,1.4368694E-4,6.188877E-4,1.4953729E-3,-3.1720995E-4,5.246312E-4],"split_indices":[2,0,4,4,0,0,0,0,4,0,1,0,0,0,4,0,0,4,0,0,4,0,0,0,0,0,0,0,0],"split_type":[0,0,0,0,0,0,0,0,0,0,0,0,0,0,0,0,0,0,0,0,0,0,0,0,0,0,0,0,0],"sum_hessian":[4.5E1,1E1,3.5E1,5E0,5E0,1.4E1,2.1E1,2E0,3E0,6E0,8E0,9E0,1.2E1,1E0,2E0,4E0,2E0,4E0,4E0,9E0,3E0,1E0,1E0,2E0,2E0,3E0,6E0,2E0,1E0],"tree_param":{"num_deleted":"0","num_feature":"5","num_nodes":"29","size_leaf_vector":"1"}},{"base_weights":[-3.079947E-4,-5.6044254E-2,1.6731083E-2,-3.3994403E-2,-3.43767E-3,-1.0094835E-2,3.426098E-2,-2.3702488E-3,-1.5437871E-2,1.7854873E-2,-3.071185E-2,2.5182236E-3,1.923822E-2,1.4728754E-4,-2.2547662E-2,4.3380586E-4,1.3600588E-3,9.945929E-4,-2.8137963E-3,2.4803441E-2,5.1561E-4,-1.3913155E-3,-2.997592E-4,-5.6014956E-5,1.388977E-4,5.956799E-4,1.4312859E-3,-3.066361E-4,5.115151E-4],"categories":[],"categories_nodes":[],"categories_segments":[],"categories_sizes":[],"default_left":[0,0,0,0,0,0,0,0,0,0,0,0,0,0,0,0,0,0,0,0,0,0,0,0,0,0,0,0,0],"id":4,"left_children":[1,3,5,7,-1,9,11,-1,13,15,17,-1,19,-1,21,-1,-1,23,-1,25,27,-1,-1,-1,-1,-1,-1,-1,-1],"loss_changes":[4.4623632E-2,7.4534863E-4,1.7275058E-2,7.61291E-4,0E0,9.191949E-3,4.353294E-3,0E0,5.8923464E-4,3.645115E-4,7.3508844E-3,0E0,1.3417527E-3,0E0,9.530026E-5,0E0,0E0,2.197022E-5,0E0,1.5165005E-4,3.210856E-4,0E0,0E0,0E0,0E0,0E0,0E0,0E0,0E0],"parents":[2147483647,0,0,1,1,2,2,3,3,5,5,6,6,8,8,9,9,10,10,12,12,14,14,17,17,19,19,20,20],"right_children":[2,4,6,8,-1,10,12,-1,14,16,18,-1,20,-1,22,-1,-1,24,-1,26,28,-1,-1,-1,-1,-1,-1,-1,-1],"split_conditions":[1.5426461E1,6.3768E0,1.2E3,1.2E3,-3.43767E-3,7.5923805E0,7.5923805E0,-2.3702488E-3,1.36E3,7.112628E0,5.4500127E-1,2.5182236E-3,9.202244E0,1.4728754E-4,1.52E3,4.3380586E-4,1.3600588E-3,1.04E3,-2.8137963E-3,8.078928E0,1.52E3,-1.3913155E-3,-2.997592E-4,-5.6014956E-5,1.388977E-4,5.956799E-4,1.4312859E-3,-3.066361E-4,5.115151E-4],"split_indices":[2,0,4,4,0,0,0,0,4,0,1,0,0,0,4,0,0,4,0,0,4,0,0,0,0,0,0,0,0],"split_type":[0,0,0,0,0,0,0,0,0,0,0,0,0,0,0,0,0,0,0,0,0,0,0,0,0,0,0,0,0],"sum_hessian":[4.5E1,1E1,3.5E1,5E0,5E0,1.4E1,2.1E1,2E0,3E0,6E0,8E0,9E0,1.2E1,1E0,2E0,4E0,2E0,4E0,4E0,9E0,3E0,1E0,1E0,2E0,2E0,3E0,6E0,2E0,1E0],"tree_param":{"num_deleted":"0","num_feature":"5","num_nodes":"29","size_leaf_vector":"1"}},{"base_weights":[-3.695274E-4,-5.391038E-2,1.6000442E-2,-3.2947022E-2,-3.2944337E-3,-9.652565E-3,3.2763835E-2,-2.2912407E-3,-1.5051924E-2,1.7218398E-2,-2.9479695E-2,2.4049028E-3,1.8447986E-2,1.4360547E-4,-2.1983972E-2,4.1645378E-4,1.3147235E-3,9.614408E-4,-2.7012448E-3,2.3765963E-2,5.4104626E-4,-1.3565324E-3,-2.922654E-4,-5.4147346E-5,1.3426742E-4,5.7334156E-4,1.3699451E-3,-2.9641492E-4,4.9872696E-4],"categories":[],"categories_nodes":[],"categories_segments":[],"categories_sizes":[],"default_left":[0,0,0,0,0,0,0,0,0,0,0,0,0,0,0,0,0,0,0,0,0,0,0,0,0,0,0,0,0],"id":5,"left_children":[1,3,5,7,-1,9,11,-1,13,15,17,-1,19,-1,21,-1,-1,23,-1,25,27,-1,-1,-1,-1,-1,-1,-1,-1],"loss_changes":[4.117985E-2,5.9131905E-4,1.5797386E-2,6.929445E-4,0E0,8.499205E-3,3.9421823E-3,0E0,5.6014134E-4,3.4575234E-4,6.7765946E-3,0E0,1.2251148E-3,0E0,9.05944E-5,0E0,0E0,2.0529766E-5,0E0,1.3264129E-4,3.0324608E-4,0E0,0E0,0E0,0E0,0E0,0E0,0E0,0E0],"parents":[2147483647,0,0,1,1,2,2,3,3,5,5,6,6,8,8,9,9,10,10,12,12,14,14,17,17,19,19,20,20],"right_children":[2,4,6,8,-1,10,12,-1,14,16,18,-1,20,-1,22,-1,-1,24,-1,26,28,-1,-1,-1,-1,-1,-1,-1,-1],"split_conditions":[1.5426461E1,6.3768E0,1.2E3,1.2E3,-3.2944337E-3,7.5923805E0,7.5923805E0,-2.2912407E-3,1.36E3,7.112628E0,5.4500127E-1,2.4049028E-3,9.202244E0,1.4360547E-4,1.52E3,4.1645378E-4,1.3147235E-3,1.04E3,-2.7012448E-3,8.078928E0,1.52E3,-1.3565324E-3,-2.922654E-4,-5.4147346E-5,1.3426742E-4,5.7334156E-4,1.3699451E-3,-2.9641492E-4,4.9872696E-4],"split_indices":[2,0,4,4,0,0,0,0,4,0,1,0,0,0,4,0,0,4,0,0,4,0,0,0,0,0,0,0,0],"split_type":[0,0,0,0,0,0,0,0,0,0,0,0,0,0,0,0,0,0,0,0,0,0,0,0,0,0,0,0,0],"sum_hessian":[4.5E1,1E1,3.5E1,5E0,5E0,1.4E1,2.1E1,2E0,3E0,6E0,8E0,9E0,1.2E1,1E0,2E0,4E0,2E0,4E0,4E0,9E0,3E0,1E0,1E0,2E0,2E0,3E0,6E0,2E0,1E0],"tree_param":{"num_deleted":"0","num_feature":"5","num_nodes":"29","size_leaf_vector":"1"}},{"base_weights":[-4.2562187E-4,-5.1859483E-2,1.5302103E-2,-3.1932414E-2,-3.1571654E-3,-9.229264E-3,3.1332485E-2,-2.2148665E-3,-1.4675625E-2,1.6604785E-2,-2.829694E-2,2.2966824E-3,1.769063E-2,1.4001504E-4,-2.1434367E-2,3.9979545E-4,1.2708992E-3,9.2939736E-4,-2.5931946E-3,2.277199E-2,5.645752E-4,-1.3226189E-3,-2.8495863E-4,-5.2342315E-5,1.297921E-4,7.497483E-4,1.5344393E-3,-2.8653443E-4,4.8625917E-4],"categories":[],"categories_nodes":[],"categories_segments":[],"categories_sizes":[],"default_left":[0,0,0,0,0,0,0,0,0,0,0,0,0,0,0,0,0,0,0,0,0,0,0,0,0,0,0,0,0],"id":6,"left_children":[1,3,5,7,-1,9,11,-1,13,15,17,-1,19,-1,21,-1,-1,23,-1,25,27,-1,-1,-1,-1,-1,-1,-1,-1],"loss_changes":[3.8004693E-2,4.5707077E-4,1.4446078E-2,6.301813E-4,0E0,7.858794E-3,3.5695173E-3,0E0,5.324838E-4,3.2786222E-4,6.247183E-3,0E0,1.1184509E-3,0E0,8.612138E-5,0E0,0E0,1.9183948E-5,0E0,1.5551364E-4,2.864058E-4,0E0,0E0,0E0,0E0,0E0,0E0,0E0,0E0],"parents":[2147483647,0,0,1,1,2,2,3,3,5,5,6,6,8,8,9,9,10,10,12,12,14,14,17,17,19,19,20,20],"right_children":[2,4,6,8,-1,10,12,-1,14,16,18,-1,20,-1,22,-1,-1,24,-1,26,28,-1,-1,-1,-1,-1,-1,-1,-1],"split_conditions":[1.5426461E1,6.3768E0,1.2E3,1.2E3,-3.1571654E-3,7.5923805E0,7.5923805E0,-2.2148665E-3,1.36E3,7.112628E0,5.4500127E-1,2.2966824E-3,9.202244E0,1.4001504E-4,1.52E3,3.9979545E-4,1.2708992E-3,1.04E3,-2.5931946E-3,1.52E3,1.52E3,-1.3226189E-3,-2.8495863E-4,-5.2342315E-5,1.297921E-4,7.497483E-4,1.5344393E-3,-2.8653443E-4,4.8625917E-4],"split_indices":[2,0,4,4,0,0,0,0,4,0,1,0,0,0,4,0,0,4,0,4,4,0,0,0,0,0,0,0,0],"split_type":[0,0,0,0,0,0,0,0,0,0,0,0,0,0,0,0,0,0,0,0,0,0,0,0,0,0,0,0,0],"sum_hessian":[4.5E1,1E1,3.5E1,5E0,5E0,1.4E1,2.1E1,2E0,3E0,6E0,8E0,9E0,1.2E1,1E0,2E0,4E0,2E0,4E0,4E0,9E0,3E0,1E0,1E0,2E0,2E0,6E0,3E0,2E0,1E0],"tree_param":{"num_deleted":"0","num_feature":"5","num_nodes":"29","size_leaf_vector":"1"}},{"base_weights":[-4.6747082E-4,-4.9888287E-2,1.4646319E-2,-3.1748682E-3,-3.3040617E-2,-8.82414E-3,2.9983163E-2,-1.4308728E-2,-2.1756177E-3,1.6013218E-2,-2.7161624E-2,2.1933315E-3,1.6997175E-2,1.3651476E-4,-2.08985E-2,3.8380356E-4,1.2285362E-3,8.984149E-4,-2.489467E-3,2.1861818E-2,5.862713E-4,-1.2895532E-3,-2.778344E-4,-5.059789E-5,1.2546578E-4,7.1761676E-4,1.4768981E-3,-2.769838E-4,4.741028E-4],"categories":[],"categories_nodes":[],"categories_segments":[],"categories_sizes":[],"default_left":[0,0,0,0,0,0,0,0,0,0,0,0,0,0,0,0,0,0,0,0,0,0,0,0,0,0,0,0,0],"id":7,"left_children":[1,3,5,-1,7,9,11,13,-1,15,17,-1,19,-1,21,-1,-1,23,-1,25,27,-1,-1,-1,-1,-1,-1,-1,-1],"loss_changes":[3.5089727E-2,4.241038E-4,1.32232355E-2,0E0,7.504807E-4,7.2667645E-3,3.2207817E-3,5.061923E-4,0E0,3.1080947E-4,5.759143E-3,0E0,1.0250146E-3,0E0,8.186954E-5,0E0,0E0,1.7926426E-5,0E0,1.5250035E-4,2.705079E-4,0E0,0E0,0E0,0E0,0E0,0E0,0E0,0E0],"parents":[2147483647,0,0,1,1,2,2,4,4,5,5,6,6,7,7,9,9,10,10,12,12,14,14,17,17,19,19,20,20],"right_children":[2,4,6,-1,8,10,12,14,-1,16,18,-1,20,-1,22,-1,-1,24,-1,26,28,-1,-1,-1,-1,-1,-1,-1,-1],"split_conditions":[1.5426461E1,1.2E3,1.2E3,-3.1748682E-3,6.3768E0,7.5923805E0,7.5923805E0,1.36E3,-2.1756177E-3,7.112628E0,5.4500127E-1,2.1933315E-3,9.202244E0,1.3651476E-4,1.52E3,3.8380356E-4,1.2285362E-3,1.04E3,-2.489467E-3,1.52E3,1.52E3,-1.2895532E-3,-2.778344E-4,-5.059789E-5,1.2546578E-4,7.1761676E-4,1.4768981E-3,-2.769838E-4,4.741028E-4],"split_indices":[2,4,4,0,0,0,0,4,0,0,1,0,0,0,4,0,0,4,0,4,4,0,0,0,0,0,0,0,0],"split_type":[0,0,0,0,0,0,0,0,0,0,0,0,0,0,0,0,0,0,0,0,0,0,0,0,0,0,0,0,0],"sum_hessian":[4.5E1,1E1,3.5E1,4E0,6E0,1.4E1,2.1E1,3E0,3E0,6E0,8E0,9E0,1.2E1,1E0,2E0,4E0,2E0,4E0,4E0,9E0,3E0,1E0,1E0,2E0,2E0,6E0,3E0,2E0,1E0],"tree_param":{"num_deleted":"0","num_feature":"5","num_nodes":"29","size_leaf_vector":"1"}},{"base_weights":[-5.092809E-4,-4.8010353E-2,1.4019083E-2,-2.9652754E-2,-2.9183114E-3,-8.436412E-3,2.8692417E-2,-2.035208E-3,-1.3951011E-2,1.5442895E-2,-2.6071826E-2,2.0946318E-3,1.6331295E-2,1.3310164E-4,-2.0376036E-2,3.684518E-4,1.1875848E-3,8.684695E-4,-2.389888E-3,1.2262898E-3,5.8037513E-3,-1.2573146E-3,-2.708882E-4,-4.891108E-5,1.21283534E-4,-2.2286773E-4,1.0485505E-3],"categories":[],"categories_nodes":[],"categories_segments":[],"categories_sizes":[],"default_left":[0,0,0,0,0,0,0,0,0,0,0,0,0,0,0,0,0,0,0,0,0,0,0,0,0,0,0],"id":8,"left_children":[1,3,5,7,-1,9,11,-1,13,15,17,-1,19,-1,21,-1,-1,23,-1,-1,25,-1,-1,-1,-1,-1,-1],"loss_changes":[3.241825E-2,3.6048144E-4,1.2103951E-2,4.7329394E-4,0E0,6.7194467E-3,2.90557E-3,0E0,4.8119866E-4,2.945615E-4,5.309237E-3,0E0,9.79142E-4,0E0,7.78276E-5,0E0,0E0,1.6751192E-5,0E0,0E0,1.182905E-3,0E0,0E0,0E0,0E0,0E0,0E0],"parents":[2147483647,0,0,1,1,2,2,3,3,5,5,6,6,8,8,9,9,10,10,12,12,14,14,17,17,20,20],"right_children":[2,4,6,8,-1,10,12,-1,14,16,18,-1,20,-1,22,-1,-1,24,-1,-1,26,-1,-1,-1,-1,-1,-1],"split_conditions":[1.5426461E1,6.3768E0,1.2E3,1.2E3,-2.9183114E-3,7.5923805E0,7.5923805E0,-2.035208E-3,1.36E3,7.112628E0,5.4500127E-1,2.0946318E-3,5.4500127E-1,1.3310164E-4,1.52E3,3.684518E-4,1.1875848E-3,1.04E3,-2.389888E-3,1.2262898E-3,1.52E3,-1.2573146E-3,-2.708882E-4,-4.891108E-5,1.21283534E-4,-2.2286773E-4,1.0485505E-3],"split_indices":[2,0,4,4,0,0,0,0,4,0,1,0,1,0,4,0,0,4,0,0,4,0,0,0,0,0,0],"split_type":[0,0,0,0,0,0,0,0,0,0,0,0,0,0,0,0,0,0,0,0,0,0,0,0,0,0,0],"sum_hessian":[4.5E1,1E1,3.5E1,5E0,5E0,1.4E1,2.1E1,2E0,3E0,6E0,8E0,9E0,1.2E1,1E0,2E0,4E0,2E0,4E0,4E0,6E0,6E0,1E0,1E0,2E0,2E0,4E0,2E0],"tree_param":{"num_deleted":"0","num_feature":"5","num_nodes":"27","size_leaf_vector":"1"}},{"base_weights":[-5.4824224E-4,-4.618699E-2,1.341216E-2,-2.9488034E-3,-3.0453797E-2,-8.065361E-3,2.7446281E-2,-1.3602242E-2,-1.984595E-3,1.4893042E-2,-2.5025746E-2,2.0003736E-3,1.5672576E-2,1.2977421E-4,-1.9866645E-2,7.074279E-3,1.1479984E-3,8.3951355E-4,-2.2942927E-3,1.1737351E-3,5.6315106E-3,-1.2258821E-3,-2.641164E-4,4.3190966E-4,1.5761355E-4,-4.7280886E-5,1.1724035E-4,-2.1395324E-4,1.0135983E-3],"categories":[],"categories_nodes":[],"categories_segments":[],"categories_sizes":[],"default_left":[0,0,0,0,0,0,0,0,0,0,0,0,0,0,0,0,0,0,0,0,0,0,0,0,0,0,0,0,0],"id":9,"left_children":[1,3,5,-1,7,9,11,13,-1,15,17,-1,19,-1,21,23,-1,25,-1,-1,27,-1,-1,-1,-1,-1,-1,-1,-1],"loss_changes":[2.9927691E-2,4.172977E-4,1.1072416E-2,0E0,5.498361E-4,6.2134597E-3,2.6265979E-3,4.5743998E-4,0E0,2.790884E-4,4.8944913E-3,0E0,8.8624377E-4,0E0,7.3984615E-5,3.438472E-6,0E0,1.5653022E-5,0E0,0E0,1.1024126E-3,0E0,0E0,0E0,0E0,0E0,0E0,0E0,0E0],"parents":[2147483647,0,0,1,1,2,2,4,4,5,5,6,6,7,7,9,9,10,10,12,12,14,14,15,15,17,17,20,20],"right_children":[2,4,6,-1,8,10,12,14,-1,16,18,-1,20,-1,22,24,-1,26,-1,-1,28,-1,-1,-1,-1,-1,-1,-1,-1],"split_conditions":[1.5426461E1,1.2E3,1.2E3,-2.9488034E-3,6.3768E0,7.5923805E0,7.5923805E0,1.36E3,-1.984595E-3,7.112628E0,5.4500127E-1,2.0003736E-3,5.4500127E-1,1.2977421E-4,1.52E3,6.7063003E0,1.1479984E-3,1.04E3,-2.2942927E-3,1.1737351E-3,1.52E3,-1.2258821E-3,-2.641164E-4,4.3190966E-4,1.5761355E-4,-4.7280886E-5,1.1724035E-4,-2.1395324E-4,1.0135983E-3],"split_indices":[2,4,4,0,0,0,0,4,0,0,1,0,1,0,4,0,0,4,0,0,4,0,0,0,0,0,0,0,0],"split_type":[0,0,0,0,0,0,0,0,0,0,0,0,0,0,0,0,0,0,0,0,0,0,0,0,0,0,0,0,0],"sum_hessian":[4.5E1,1E1,3.5E1,4E0,6E0,1.4E1,2.1E1,3E0,3E0,6E0,8E0,9E0,1.2E1,1E0,2E0,4E0,2E0,4E0,4E0,6E0,6E0,1E0,1E0,2E0,2E0,2E0,2E0,4E0,2E0],"tree_param":{"num_deleted":"0","num_feature":"5","num_nodes":"29","size_leaf_vector":"1"}},{"base_weights":[-5.818437E-4,-4.4449795E-2,1.2838415E-2,-2.8308516E-3,-2.9408941E-2,-7.6945443E-3,2.6254596E-2,-1.326219E-2,-1.9101728E-3,1.43966125E-2,-2.4021605E-2,1.9103572E-3,1.5040744E-2,1.2652948E-4,-1.936998E-2,6.8384707E-3,1.1097322E-3,8.115232E-4,-2.2025208E-3,1.9429326E-2,3.0910224E-4,-1.1952348E-3,-2.575137E-4,4.1751316E-4,1.5235941E-4,-4.570534E-5,1.1333227E-4,6.245304E-4,1.3357375E-3,-2.531906E-4,4.106961E-4],"categories":[],"categories_nodes":[],"categories_segments":[],"categories_sizes":[],"default_left":[0,0,0,0,0,0,0,0,0,0,0,0,0,0,0,0,0,0,0,0,0,0,0,0,0,0,0,0,0,0,0],"id":10,"left_children":[1,3,5,-1,7,9,11,13,-1,15,17,-1,19,-1,21,23,-1,25,-1,27,29,-1,-1,-1,-1,-1,-1,-1,-1,-1,-1],"loss_changes":[2.765175E-2,3.4801662E-4,1.0119077E-2,0E0,4.873583E-4,5.756085E-3,2.3740884E-3,4.3485337E-4,0E0,2.6079314E-4,4.51215E-3,0E0,8.3445734E-4,0E0,7.033127E-5,3.2133394E-6,0E0,1.4626969E-5,0E0,1.7183134E-4,2.1148144E-4,0E0,0E0,0E0,0E0,0E0,0E0,0E0,0E0,0E0,0E0],"parents":[2147483647,0,0,1,1,2,2,4,4,5,5,6,6,7,7,9,9,10,10,12,12,14,14,15,15,17,17,19,19,20,20],"right_children":[2,4,6,-1,8,10,12,14,-1,16,18,-1,20,-1,22,24,-1,26,-1,28,30,-1,-1,-1,-1,-1,-1,-1,-1,-1,-1],"split_conditions":[1.5426461E1,1.2E3,1.2E3,-2.8308516E-3,6.3768E0,7.5923805E0,7.5923805E0,1.36E3,-1.9101728E-3,7.112628E0,5.4500127E-1,1.9103572E-3,9.202244E0,1.2652948E-4,1.52E3,6.7063003E0,1.1097322E-3,1.04E3,-2.2025208E-3,1.52E3,1.52E3,-1.1952348E-3,-2.575137E-4,4.1751316E-4,1.5235941E-4,-4.570534E-5,1.1333227E-4,6.245304E-4,1.3357375E-3,-2.531906E-4,4.106961E-4],"split_indices":[2,4,4,0,0,0,0,4,0,0,1,0,0,0,4,0,0,4,0,4,4,0,0,0,0,0,0,0,0,0,0],"split_type":[0,0,0,0,0,0,0,0,0,0,0,0,0,0,0,0,0,0,0,0,0,0,0,0,0,0,0,0,0,0,0],"sum_hessian":[4.5E1,1E1,3.5E1,4E0,6E0,1.4E1,2.1E1,3E0,3E0,6E0,8E0,9E0,1.2E1,1E0,2E0,4E0,2E0,4E0,4E0,9E0,3E0,1E0,1E0,2E0,2E0,2E0,2E0,6E0,3E0,2E0,1E0],"tree_param":{"num_deleted":"0","num_feature":"5","num_nodes":"31","size_leaf_vector":"1"}},{"base_weights":[-6.069768E-4,-4.277887E-2,1.229574E-2,-2.6367554E-2,-2.6030184E-3,-7.340167E-3,2.512496E-2,-1.7747128E-3,-1.2930639E-2,1.3916736E-2,-2.3057738E-2,1.8243911E-3,1.4451609E-2,1.2336597E-4,-1.8885732E-2,6.6105304E-3,1.0727416E-3,7.844746E-4,-4.2288404E-2,1.0865063E-3,5.1085777E-3,-1.1653543E-3,-2.5107563E-4,4.0359647E-4,1.4728108E-4,-4.4181445E-5,1.0955433E-4,-2.5525324E-3,-9.7150163E-4,-2.1282198E-4,9.5070404E-4],"categories":[],"categories_nodes":[],"categories_segments":[],"categories_sizes":[],"default_left":[0,0,0,0,0,0,0,0,0,0,0,0,0,0,0,0,0,0,0,0,0,0,0,0,0,0,0,0,0,0,0],"id":11,"left_children":[1,3,5,7,-1,9,11,-1,13,15,17,-1,19,-1,21,23,-1,25,27,-1,29,-1,-1,-1,-1,-1,-1,-1,-1,-1,-1],"loss_changes":[2.5556067E-2,3.0283257E-4,9.253303E-3,2.7684495E-4,0E0,5.3324914E-3,2.140849E-3,0E0,4.1338213E-4,2.4369615E-4,4.1596894E-3,0E0,7.7303406E-4,0E0,6.685895E-5,3.002613E-6,0E0,1.3667979E-5,9.536743E-6,0E0,9.925092E-4,0E0,0E0,0E0,0E0,0E0,0E0,0E0,0E0,0E0,0E0],"parents":[2147483647,0,0,1,1,2,2,3,3,5,5,6,6,8,8,9,9,10,10,12,12,14,14,15,15,17,17,18,18,20,20],"right_children":[2,4,6,8,-1,10,12,-1,14,16,18,-1,20,-1,22,24,-1,26,28,-1,30,-1,-1,-1,-1,-1,-1,-1,-1,-1,-1],"split_conditions":[1.5426461E1,6.3768E0,1.2E3,1.2E3,-2.6030184E-3,7.5923805E0,7.5923805E0,-1.7747128E-3,1.36E3,7.112628E0,5.4500127E-1,1.8243911E-3,5.4500127E-1,1.2336597E-4,1.52E3,6.7063003E0,1.0727416E-3,1.04E3,1.04E3,1.0865063E-3,1.52E3,-1.1653543E-3,-2.5107563E-4,4.0359647E-4,1.4728108E-4,-4.4181445E-5,1.0955433E-4,-2.5525324E-3,-9.7150163E-4,-2.1282198E-4,9.5070404E-4],"split_indices":[2,0,4,4,0,0,0,0,4,0,1,0,1,0,4,0,0,4,4,0,4,0,0,0,0,0,0,0,0,0,0],"split_type":[0,0,0,0,0,0,0,0,0,0,0,0,0,0,0,0,0,0,0,0,0,0,0,0,0,0,0,0,0,0,0],"sum_hessian":[4.5E1,1E1,3.5E1,5E0,5E0,1.4E1,2.1E1,2E0,3E0,6E0,8E0,9E0,1.2E1,1E0,2E0,4E0,2E0,4E0,4E0,6E0,6E0,1E0,1E0,2E0,2E0,2E0,2E0,2E0,2E0,4E0,2E0],"tree_param":{"num_deleted":"0","num_feature":"5","num_nodes":"31","size_leaf_vector":"1"}},{"base_weights":[-6.6047325E-4,-4.115545E-2,1.1731338E-2,-2.6300629E-3,-2.7100524E-2,-7.095494E-3,2.4034573E-2,-1.2607366E-2,-1.7409277E-3,1.3452849E-2,-2.228915E-2,2.7787028E-2,2.0176172E-4,1.2028217E-4,-1.8413583E-2,6.390184E-3,1.0369838E-3,7.583201E-4,-4.087879E-2,1.5439083E-3,8.475721E-3,-4.753133E-3,3.7666113E-4,-1.1362203E-3,-2.4479852E-4,3.901437E-4,1.4237166E-4,-4.2709213E-5,1.0590255E-4,-2.4674477E-3,-9.391184E-4,-1.0285875E-4,1.0018602E-3,2.4708212E-4,-6.0356705E-4],"categories":[],"categories_nodes":[],"categories_segments":[],"categories_sizes":[],"default_left":[0,0,0,0,0,0,0,0,0,0,0,0,0,0,0,0,0,0,0,0,0,0,0,0,0,0,0,0,0,0,0,0,0,0,0],"id":12,"left_children":[1,3,5,-1,7,9,11,13,-1,15,17,19,21,-1,23,25,-1,27,29,-1,31,33,-1,-1,-1,-1,-1,-1,-1,-1,-1,-1,-1,-1,-1],"loss_changes":[2.3565888E-2,3.440492E-4,8.50925E-3,0E0,3.4403987E-4,4.9829194E-3,1.9618887E-3,3.9297168E-4,0E0,2.2772048E-4,3.8869963E-3,8.724695E-4,1.8111285E-4,0E0,6.355799E-5,2.8058857E-6,0E0,1.2772067E-5,8.911826E-6,0E0,5.2832364E-4,2.7249742E-4,0E0,0E0,0E0,0E0,0E0,0E0,0E0,0E0,0E0,0E0,0E0,0E0,0E0],"parents":[2147483647,0,0,1,1,2,2,4,4,5,5,6,6,7,7,9,9,10,10,11,11,12,12,14,14,15,15,17,17,18,18,20,20,21,21],"right_children":[2,4,6,-1,8,10,12,14,-1,16,18,20,22,-1,24,26,-1,28,30,-1,32,34,-1,-1,-1,-1,-1,-1,-1,-1,-1,-1,-1,-1,-1],"split_conditions":[1.5426461E1,1.2E3,1.2E3,-2.6300629E-3,6.3768E0,7.5923805E0,9.202244E0,1.36E3,-1.7409277E-3,7.112628E0,5.4500127E-1,7.458972E0,1.52E3,1.2028217E-4,1.52E3,6.7063003E0,1.0369838E-3,1.04E3,1.04E3,1.5439083E-3,1.52E3,1.36E3,3.7666113E-4,-1.1362203E-3,-2.4479852E-4,3.901437E-4,1.4237166E-4,-4.2709213E-5,1.0590255E-4,-2.4674477E-3,-9.391184E-4,-1.0285875E-4,1.0018602E-3,2.4708212E-4,-6.0356705E-4],"split_indices":[2,4,4,0,0,0,0,4,0,0,1,3,4,0,4,0,0,4,4,0,4,4,0,0,0,0,0,0,0,0,0,0,0,0,0],"split_type":[0,0,0,0,0,0,0,0,0,0,0,0,0,0,0,0,0,0,0,0,0,0,0,0,0,0,0,0,0,0,0,0,0,0,0],"sum_hessian":[4.5E1,1E1,3.5E1,4E0,6E0,1.4E1,2.1E1,3E0,3E0,6E0,8E0,1.8E1,3E0,1E0,2E0,4E0,2E0,4E0,4E0,1.5E1,3E0,2E0,1E0,1E0,1E0,2E0,2E0,2E0,2E0,2E0,2E0,2E0,1E0,1E0,1E0],"tree_param":{"num_deleted":"0","num_feature":"5","num_nodes":"35","size_leaf_vector":"1"}},{"base_weights":[-7.3489547E-4,-3.9609656E-2,1.1163916E-2,-2.5248607E-3,-2.6174307E-2,-6.8589705E-3,2.2944799E-2,-1.2292184E-2,-1.6756427E-3,1.3004427E-2,-2.1546172E-2,1.6728182E-3,1.3093997E-2,1.1727512E-4,-1.7953247E-2,6.177181E-3,1.002418E-3,7.330477E-4,-3.951616E-2,1.694351E-2,1.9671023E-4,-1.107815E-3,-2.386786E-4,3.7713896E-4,1.3762614E-4,-4.1285657E-5,1.0237297E-4,-2.385199E-3,-9.078141E-4,5.2711944E-4,1.19548E-3,-2.3171554E-4,3.6724433E-4],"categories":[],"categories_nodes":[],"categories_segments":[],"categories_sizes":[],"default_left":[0,0,0,0,0,0,0,0,0,0,0,0,0,0,0,0,0,0,0,0,0,0,0,0,0,0,0,0,0,0,0,0,0],"id":13,"left_children":[1,3,5,-1,7,9,11,13,-1,15,17,-1,19,-1,21,23,-1,25,27,29,31,-1,-1,-1,-1,-1,-1,-1,-1,-1,-1,-1,-1],"loss_changes":[2.1720117E-2,2.8733164E-4,7.8010946E-3,0E0,3.0117622E-4,4.6562613E-3,1.8399647E-3,3.735689E-4,0E0,2.127923E-4,3.6321823E-3,0E0,6.42095E-4,0E0,6.0419843E-5,2.6218622E-6,0E0,1.193488E-5,8.327421E-6,1.9384339E-4,1.7217046E-4,0E0,0E0,0E0,0E0,0E0,0E0,0E0,0E0,0E0,0E0,0E0,0E0],"parents":[2147483647,0,0,1,1,2,2,4,4,5,5,6,6,7,7,9,9,10,10,12,12,14,14,15,15,17,17,18,18,19,19,20,20],"right_children":[2,4,6,-1,8,10,12,14,-1,16,18,-1,20,-1,22,24,-1,26,28,30,32,-1,-1,-1,-1,-1,-1,-1,-1,-1,-1,-1,-1],"split_conditions":[1.5426461E1,1.2E3,1.2E3,-2.5248607E-3,6.3768E0,7.5923805E0,7.5923805E0,1.36E3,-1.6756427E-3,7.112628E0,5.4500127E-1,1.6728182E-3,9.202244E0,1.1727512E-4,1.52E3,6.7063003E0,1.002418E-3,1.04E3,1.04E3,1.52E3,1.52E3,-1.107815E-3,-2.386786E-4,3.7713896E-4,1.3762614E-4,-4.1285657E-5,1.0237297E-4,-2.385199E-3,-9.078141E-4,5.2711944E-4,1.19548E-3,-2.3171554E-4,3.6724433E-4],"split_indices":[2,4,4,0,0,0,0,4,0,0,1,0,0,0,4,0,0,4,4,4,4,0,0,0,0,0,0,0,0,0,0,0,0],"split_type":[0,0,0,0,0,0,0,0,0,0,0,0,0,0,0,0,0,0,0,0,0,0,0,0,0,0,0,0,0,0,0,0,0],"sum_hessian":[4.5E1,1E1,3.5E1,4E0,6E0,1.4E1,2.1E1,3E0,3E0,6E0,8E0,9E0,1.2E1,1E0,2E0,4E0,2E0,4E0,4E0,9E0,3E0,1E0,1E0,2E0,2E0,2E0,2E0,2E0,2E0,6E0,3E0,2E0,1E0],"tree_param":{"num_deleted":"0","num_feature":"5","num_nodes":"33","size_leaf_vector":"1"}},{"base_weights":[-7.767055E-4,-3.8122788E-2,1.0656172E-2,-2.342718E-2,-2.3232298E-3,-6.6303434E-3,2.195806E-2,-1.3125462E-3,-2.3271143E-4,1.2570939E-2,-2.082797E-2,1.597542E-3,1.25822285E-2,5.9712706E-3,9.690036E-4,7.086098E-4,-3.8198955E-2,1.6268596E-2,2.2075325E-4,3.6456736E-4,1.3303856E-4,-3.990978E-5,9.8960605E-5,-2.3056925E-3,-8.775537E-4,5.045288E-4,1.150649E-3,-2.2399177E-4,3.58063E-4],"categories":[],"categories_nodes":[],"categories_segments":[],"categories_sizes":[],"default_left":[0,0,0,0,0,0,0,0,0,0,0,0,0,0,0,0,0,0,0,0,0,0,0,0,0,0,0,0,0],"id":14,"left_children":[1,3,5,7,-1,9,11,-1,-1,13,15,-1,17,19,-1,21,23,25,27,-1,-1,-1,-1,-1,-1,-1,-1,-1,-1],"loss_changes":[2.0047009E-2,2.59934E-4,7.1789194E-3,1.9588205E-4,0E0,4.351016E-3,1.659181E-3,0E0,0E0,1.9884249E-4,3.3940729E-3,0E0,5.888047E-4,2.4499604E-6,0E0,1.115255E-5,7.780734E-6,1.8445519E-4,1.6257913E-4,0E0,0E0,0E0,0E0,0E0,0E0,0E0,0E0,0E0,0E0],"parents":[2147483647,0,0,1,1,2,2,3,3,5,5,6,6,9,9,10,10,12,12,13,13,15,15,16,16,17,17,18,18],"right_children":[2,4,6,8,-1,10,12,-1,-1,14,16,-1,18,20,-1,22,24,26,28,-1,-1,-1,-1,-1,-1,-1,-1,-1,-1],"split_conditions":[1.5426461E1,6.3768E0,1.2E3,1.52E3,-2.3232298E-3,7.5923805E0,7.5923805E0,-1.3125462E-3,-2.3271143E-4,7.112628E0,5.4500127E-1,1.597542E-3,9.202244E0,6.7063003E0,9.690036E-4,1.04E3,1.04E3,1.52E3,1.52E3,3.6456736E-4,1.3303856E-4,-3.990978E-5,9.8960605E-5,-2.3056925E-3,-8.775537E-4,5.045288E-4,1.150649E-3,-2.2399177E-4,3.58063E-4],"split_indices":[2,0,4,4,0,0,0,0,0,0,1,0,0,0,0,4,4,4,4,0,0,0,0,0,0,0,0,0,0],"split_type":[0,0,0,0,0,0,0,0,0,0,0,0,0,0,0,0,0,0,0,0,0,0,0,0,0,0,0,0,0],"sum_hessian":[4.5E1,1E1,3.5E1,5E0,5E0,1.4E1,2.1E1,4E0,1E0,6E0,8E0,9E0,1.2E1,4E0,2E0,4E0,4E0,9E0,3E0,2E0,2E0,2E0,2E0,2E0,2E0,6E0,3E0,2E0,1E0],"tree_param":{"num_deleted":"0","num_feature":"5","num_nodes":"29","size_leaf_vector":"1"}},{"base_weights":[-7.8437576E-4,-3.6568318E-2,1.0171395E-2,-2.3511506E-3,-2.3876637E-2,-6.409333E-3,2.1014102E-2,-1.1270419E-2,-1.5256848E-3,1.215191E-2,-2.0133708E-2,1.525652E-3,1.2090757E-2,1.4715716E-4,-1.698932E-2,5.772227E-3,9.367039E-4,6.849825E-4,-3.6925655E-2,9.1078284E-4,4.2386055E-3,-1.0473058E-3,-2.2689327E-4,3.5241497E-4,1.2860398E-4,9.5797084E-5,-3.8715207E-5,-2.2288363E-3,-8.483018E-4,-2.1020621E-4,8.448477E-4],"categories":[],"categories_nodes":[],"categories_segments":[],"categories_sizes":[],"default_left":[0,0,0,0,0,0,0,0,0,0,0,0,0,0,0,0,0,0,0,0,0,0,0,0,0,0,0,0,0,0,0],"id":15,"left_children":[1,3,5,-1,7,9,11,13,-1,15,17,-1,19,-1,21,23,-1,25,27,-1,29,-1,-1,-1,-1,-1,-1,-1,-1,-1,-1],"loss_changes":[1.8405823E-2,3.3681188E-4,6.606764E-3,0E0,2.4177553E-4,4.0657846E-3,1.4958456E-3,3.7514587E-4,0E0,1.8580758E-4,3.171571E-3,0E0,5.4800813E-4,0E0,5.2752846E-5,2.2892928E-6,0E0,1.0465132E-5,7.271301E-6,0E0,8.1913394E-4,0E0,0E0,0E0,0E0,0E0,0E0,0E0,0E0,0E0,0E0],"parents":[2147483647,0,0,1,1,2,2,4,4,5,5,6,6,7,7,9,9,10,10,12,12,14,14,15,15,17,17,18,18,20,20],"right_children":[2,4,6,-1,8,10,12,14,-1,16,18,-1,20,-1,22,24,-1,26,28,-1,30,-1,-1,-1,-1,-1,-1,-1,-1,-1,-1],"split_conditions":[1.5426461E1,1.2E3,1.2E3,-2.3511506E-3,6.3768E0,7.5923805E0,7.5923805E0,1.36E3,-1.5256848E-3,7.112628E0,5.4500127E-1,1.525652E-3,5.4500127E-1,1.4715716E-4,1.52E3,6.7063003E0,9.367039E-4,8.488048E0,1.04E3,9.1078284E-4,1.52E3,-1.0473058E-3,-2.2689327E-4,3.5241497E-4,1.2860398E-4,9.5797084E-5,-3.8715207E-5,-2.2288363E-3,-8.483018E-4,-2.1020621E-4,8.448477E-4],"split_indices":[2,4,4,0,0,0,0,4,0,0,1,0,1,0,4,0,0,0,4,0,4,0,0,0,0,0,0,0,0,0,0],"split_type":[0,0,0,0,0,0,0,0,0,0,0,0,0,0,0,0,0,0,0,0,0,0,0,0,0,0,0,0,0,0,0],"sum_hessian":[4.5E1,1E1,3.5E1,4E0,6E0,1.4E1,2.1E1,3E0,3E0,6E0,8E0,9E0,1.2E1,1E0,2E0,4E0,2E0,4E0,4E0,6E0,6E0,1E0,1E0,2E0,2E0,2E0,2E0,2E0,2E0,4E0,2E0],"tree_param":{"num_deleted":"0","num_feature":"5","num_nodes":"31","size_leaf_vector":"1"}},{"base_weights":[-8.22007E-4,-3.51948E-2,9.703625E-3,-2.2571038E-3,-2.3061773E-2,-6.19569E-3,2.0102993E-2,-1.098866E-2,-1.4684722E-3,1.1746845E-2,-1.9462585E-2,2.3248281E-2,1.3712049E-4,1.4347807E-4,-1.6564587E-2,5.579823E-3,9.0547994E-4,6.6215394E-4,-3.5694808E-2,1.5836945E-2,1.6845505E-3,-4.1903756E-3,3.2799022E-4,-1.0211229E-3,-2.2122115E-4,3.4066787E-4,1.243174E-4,-3.9530794E-5,9.471029E-5,-2.154542E-3,-8.2002534E-4,9.7040454E-4,-1.2681186E-4,2.5755243E-4,-5.718306E-4],"categories":[],"categories_nodes":[],"categories_segments":[],"categories_sizes":[],"default_left":[0,0,0,0,0,0,0,0,0,0,0,0,0,0,0,0,0,0,0,0,0,0,0,0,0,0,0,0,0,0,0,0,0,0,0],"id":16,"left_children":[1,3,5,-1,7,9,11,13,-1,15,17,19,21,-1,23,25,-1,27,29,31,-1,33,-1,-1,-1,-1,-1,-1,-1,-1,-1,-1,-1,-1,-1],"loss_changes":[1.6984103E-2,2.8653909E-4,6.076894E-3,0E0,2.1034153E-4,3.79925E-3,1.3783779E-3,3.5662283E-4,0E0,1.736263E-4,2.963659E-3,9.369338E-4,1.3866459E-4,0E0,5.0147995E-5,2.139146E-6,0E0,1.0447029E-5,6.7949295E-6,9.021964E-4,0E0,2.61981E-4,0E0,0E0,0E0,0E0,0E0,0E0,0E0,0E0,0E0,0E0,0E0,0E0,0E0],"parents":[2147483647,0,0,1,1,2,2,4,4,5,5,6,6,7,7,9,9,10,10,11,11,12,12,14,14,15,15,17,17,18,18,19,19,21,21],"right_children":[2,4,6,-1,8,10,12,14,-1,16,18,20,22,-1,24,26,-1,28,30,32,-1,34,-1,-1,-1,-1,-1,-1,-1,-1,-1,-1,-1,-1,-1],"split_conditions":[1.5426461E1,1.2E3,1.2E3,-2.2571038E-3,6.3768E0,7.5923805E0,9.202244E0,1.36E3,-1.4684722E-3,7.112628E0,5.4500127E-1,1.52E3,1.52E3,1.4347807E-4,1.52E3,6.7063003E0,9.0547994E-4,1.04E3,1.04E3,7.458972E0,1.6845505E-3,1.36E3,3.2799022E-4,-1.0211229E-3,-2.2122115E-4,3.4066787E-4,1.243174E-4,-3.9530794E-5,9.471029E-5,-2.154542E-3,-8.2002534E-4,9.7040454E-4,-1.2681186E-4,2.5755243E-4,-5.718306E-4],"split_indices":[2,4,4,0,0,0,0,4,0,0,1,4,4,0,4,0,0,4,4,3,0,4,0,0,0,0,0,0,0,0,0,0,0,0,0],"split_type":[0,0,0,0,0,0,0,0,0,0,0,0,0,0,0,0,0,0,0,0,0,0,0,0,0,0,0,0,0,0,0,0,0,0,0],"sum_hessian":[4.5E1,1E1,3.5E1,4E0,6E0,1.4E1,2.1E1,3E0,3E0,6E0,8E0,1.8E1,3E0,1E0,2E0,4E0,2E0,4E0,4E0,1.2E1,6E0,2E0,1E0,1E0,1E0,2E0,2E0,2E0,2E0,2E0,2E0,1E1,2E0,1E0,1E0],"tree_param":{"num_deleted":"0","num_feature":"5","num_nodes":"35","size_leaf_vector":"1"}},{"base_weights":[-8.6419866E-4,-3.3873644E-2,9.246025E-3,-2.060628E-2,-2.07477E-3,-5.989172E-3,1.9213386E-2,-1.1501005E-3,-2.1569058E-4,1.13552855E-2,-1.8813841E-2,2.8052364E-2,1.0936221E-2,5.393833E-3,8.752972E-4,6.400764E-4,-3.450499E-2,9.6909853E-4,1.810623E-3,5.388813E-3,9.367156E-4,3.293122E-4,1.201739E-4,9.1684364E-5,-3.834466E-5,-2.0827244E-3,-7.926916E-4,6.811127E-4,-1.9611954E-4],"categories":[],"categories_nodes":[],"categories_segments":[],"categories_sizes":[],"default_left":[0,0,0,0,0,0,0,0,0,0,0,0,0,0,0,0,0,0,0,0,0,0,0,0,0,0,0,0,0],"id":17,"left_children":[1,3,5,7,-1,9,11,-1,-1,13,15,17,19,21,-1,23,25,-1,-1,27,-1,-1,-1,-1,-1,-1,-1,-1,-1],"loss_changes":[1.5664909E-2,2.572611E-4,5.581842E-3,1.3496773E-4,0E0,3.5501902E-3,1.3027703E-3,0E0,0E0,1.622439E-4,2.7693748E-3,5.643815E-6,4.61414E-4,1.9987638E-6,0E0,9.803112E-6,6.348826E-6,0E0,0E0,7.4340106E-4,0E0,0E0,0E0,0E0,0E0,0E0,0E0,0E0,0E0],"parents":[2147483647,0,0,1,1,2,2,3,3,5,5,6,6,9,9,10,10,11,11,12,12,13,13,15,15,16,16,19,19],"right_children":[2,4,6,8,-1,10,12,-1,-1,14,16,18,20,22,-1,24,26,-1,-1,28,-1,-1,-1,-1,-1,-1,-1,-1,-1],"split_conditions":[1.5426461E1,6.3768E0,1.2E3,1.52E3,-2.07477E-3,7.5923805E0,7.5923805E0,-1.1501005E-3,-2.1569058E-4,7.112628E0,5.4500127E-1,1.52E3,1.52E3,6.7063003E0,8.752972E-4,8.488048E0,1.04E3,9.6909853E-4,1.810623E-3,5.4500127E-1,9.367156E-4,3.293122E-4,1.201739E-4,9.1684364E-5,-3.834466E-5,-2.0827244E-3,-7.926916E-4,6.811127E-4,-1.9611954E-4],"split_indices":[2,0,4,4,0,0,0,0,0,0,1,4,4,0,0,0,4,0,0,1,0,0,0,0,0,0,0,0,0],"split_type":[0,0,0,0,0,0,0,0,0,0,0,0,0,0,0,0,0,0,0,0,0,0,0,0,0,0,0,0,0],"sum_hessian":[4.5E1,1E1,3.5E1,5E0,5E0,1.4E1,2.1E1,4E0,1E0,6E0,8E0,9E0,1.2E1,4E0,2E0,4E0,4E0,6E0,3E0,8E0,4E0,2E0,2E0,2E0,2E0,2E0,2E0,4E0,4E0],"tree_param":{"num_deleted":"0","num_feature":"5","num_nodes":"29","size_leaf_vector":"1"}},{"base_weights":[-8.3699496E-4,-3.2492734E-2,8.858842E-3,-2.102322E-3,-2.102684E-2,-5.789528E-3,1.8443692E-2,-1.0084972E-2,-1.3356E-3,1.0976778E-2,-1.8186709E-2,2.6927713E-2,1.0498778E-2,1.6864389E-4,-1.5695214E-2,5.2140416E-3,8.461207E-4,6.187499E-4,-3.3354826E-2,9.2756515E-4,1.7427251E-3,1.3649384E-2,-2.4288893E-6,-9.6684246E-4,-2.102986E-4,3.18335E-4,1.1616846E-4,-3.910214E-5,9.0664624E-5,-2.0132998E-3,-7.662689E-4,4.1731447E-4,9.7587256E-4,-1.9774337E-4,2.963722E-4],"categories":[],"categories_nodes":[],"categories_segments":[],"categories_sizes":[],"default_left":[0,0,0,0,0,0,0,0,0,0,0,0,0,0,0,0,0,0,0,0,0,0,0,0,0,0,0,0,0,0,0,0,0,0,0],"id":18,"left_children":[1,3,5,-1,7,9,11,13,-1,15,17,19,21,-1,23,25,-1,27,29,-1,-1,31,33,-1,-1,-1,-1,-1,-1,-1,-1,-1,-1,-1,-1],"loss_changes":[1.4406578E-2,3.2085646E-4,5.1612677E-3,0E0,1.6605412E-4,3.3174553E-3,1.2001973E-3,3.549453E-4,0E0,1.5160785E-4,2.5878288E-3,1.7384067E-5,4.3014018E-4,0E0,4.4188637E-5,1.8675928E-6,0E0,9.784605E-6,5.931128E-6,0E0,0E0,1.48291E-4,1.1719208E-4,0E0,0E0,0E0,0E0,0E0,0E0,0E0,0E0,0E0,0E0,0E0,0E0],"parents":[2147483647,0,0,1,1,2,2,4,4,5,5,6,6,7,7,9,9,10,10,11,11,12,12,14,14,15,15,17,17,18,18,21,21,22,22],"right_children":[2,4,6,-1,8,10,12,14,-1,16,18,20,22,-1,24,26,-1,28,30,-1,-1,32,34,-1,-1,-1,-1,-1,-1,-1,-1,-1,-1,-1,-1],"split_conditions":[1.5426461E1,1.2E3,1.2E3,-2.102322E-3,6.3768E0,7.5923805E0,7.5923805E0,1.36E3,-1.3356E-3,7.112628E0,5.4500127E-1,1.52E3,9.202244E0,1.6864389E-4,1.52E3,6.7063003E0,8.461207E-4,1.04E3,1.04E3,9.2756515E-4,1.7427251E-3,1.52E3,1.52E3,-9.6684246E-4,-2.102986E-4,3.18335E-4,1.1616846E-4,-3.910214E-5,9.0664624E-5,-2.0132998E-3,-7.662689E-4,4.1731447E-4,9.7587256E-4,-1.9774337E-4,2.963722E-4],"split_indices":[2,4,4,0,0,0,0,4,0,0,1,4,0,0,4,0,0,4,4,0,0,4,4,0,0,0,0,0,0,0,0,0,0,0,0],"split_type":[0,0,0,0,0,0,0,0,0,0,0,0,0,0,0,0,0,0,0,0,0,0,0,0,0,0,0,0,0,0,0,0,0,0,0],"sum_hessian":[4.5E1,1E1,3.5E1,4E0,6E0,1.4E1,2.1E1,3E0,3E0,6E0,8E0,9E0,1.2E1,1E0,2E0,4E0,2E0,4E0,4E0,6E0,3E0,9E0,3E0,1E0,1E0,2E0,2E0,2E0,2E0,2E0,2E0,6E0,3E0,2E0,1E0],"tree_param":{"num_deleted":"0","num_feature":"5","num_nodes":"35","size_leaf_vector":"1"}},{"base_weights":[-8.327942E-4,-3.1272326E-2,8.491307E-3,-2.0182293E-3,-2.0310376E-2,-5.596544E-3,1.7710691E-2,-9.832852E-3,-1.2855154E-3,1.0610883E-2,-1.7580483E-2,2.5848355E-2,1.0088588E-2,1.644276E-4,-1.5302837E-2,5.0402344E-3,8.179168E-4,5.981267E-4,-3.2242995E-2,8.8781223E-4,1.6773731E-3,4.9389964E-3,8.670068E-4,-9.426713E-4,-2.0504148E-4,3.0772339E-4,1.1229614E-4,8.776933E-5,-3.7925445E-5,-1.94619E-3,-7.407263E-4,6.3717575E-4,-1.9266606E-4],"categories":[],"categories_nodes":[],"categories_segments":[],"categories_sizes":[],"default_left":[0,0,0,0,0,0,0,0,0,0,0,0,0,0,0,0,0,0,0,0,0,0,0,0,0,0,0,0,0,0,0,0,0],"id":19,"left_children":[1,3,5,-1,7,9,11,13,-1,15,17,19,21,-1,23,25,-1,27,29,-1,-1,31,-1,-1,-1,-1,-1,-1,-1,-1,-1,-1,-1],"loss_changes":[1.33213205E-2,2.7653854E-4,4.774846E-3,0E0,1.4323951E-4,3.0999766E-3,1.1038012E-3,3.374197E-4,0E0,1.4166941E-4,2.4181819E-3,2.73427E-5,3.9980968E-4,0E0,4.200649E-5,1.7451093E-6,0E0,9.181375E-6,5.5436976E-6,0E0,0E0,6.6668313E-4,0E0,0E0,0E0,0E0,0E0,0E0,0E0,0E0,0E0,0E0,0E0],"parents":[2147483647,0,0,1,1,2,2,4,4,5,5,6,6,7,7,9,9,10,10,11,11,12,12,14,14,15,15,17,17,18,18,21,21],"right_children":[2,4,6,-1,8,10,12,14,-1,16,18,20,22,-1,24,26,-1,28,30,-1,-1,32,-1,-1,-1,-1,-1,-1,-1,-1,-1,-1,-1],"split_conditions":[1.5426461E1,1.2E3,1.2E3,-2.0182293E-3,6.3768E0,7.5923805E0,7.5923805E0,1.36E3,-1.2855154E-3,7.112628E0,5.4500127E-1,1.52E3,1.52E3,1.644276E-4,1.52E3,6.7063003E0,8.179168E-4,8.488048E0,1.04E3,8.8781223E-4,1.6773731E-3,5.4500127E-1,8.670068E-4,-9.426713E-4,-2.0504148E-4,3.0772339E-4,1.1229614E-4,8.776933E-5,-3.7925445E-5,-1.94619E-3,-7.407263E-4,6.3717575E-4,-1.9266606E-4],"split_indices":[2,4,4,0,0,0,0,4,0,0,1,4,4,0,4,0,0,0,4,0,0,1,0,0,0,0,0,0,0,0,0,0,0],"split_type":[0,0,0,0,0,0,0,0,0,0,0,0,0,0,0,0,0,0,0,0,0,0,0,0,0,0,0,0,0,0,0,0,0],"sum_hessian":[4.5E1,1E1,3.5E1,4E0,6E0,1.4E1,2.1E1,3E0,3E0,6E0,8E0,9E0,1.2E1,1E0,2E0,4E0,2E0,4E0,4E0,6E0,3E0,8E0,4E0,1E0,1E0,2E0,2E0,2E0,2E0,2E0,2E0,4E0,4E0],"tree_param":{"num_deleted":"0","num_feature":"5","num_nodes":"33","size_leaf_vector":"1"}},{"base_weights":[-8.304864E-4,-3.009843E-2,8.135566E-3,-1.8098116E-2,-1.854117E-3,-5.40999E-3,1.7001374E-2,-1.3534904E-3,-1.0889816E-2,1.0257189E-2,-1.6994463E-2,1.0775987E-2,2.65488E-2,-3.2294292E-3,-1.49202645E-2,4.8722327E-3,7.9065264E-4,5.7819486E-4,-3.1168228E-2,9.079973E-4,3.8355754E-3,1.4407064E-3,2.6728734E-4,-4.0252434E-4,1.6031713E-4,-9.191044E-4,-1.9991548E-4,2.974664E-4,1.0855297E-4,-3.8629274E-5,8.681218E-5,-1.8813172E-3,-7.160351E-4,5.772367E-4,-2.3203493E-4],"categories":[],"categories_nodes":[],"categories_segments":[],"categories_sizes":[],"default_left":[0,0,0,0,0,0,0,0,0,0,0,0,0,0,0,0,0,0,0,0,0,0,0,0,0,0,0,0,0,0,0,0,0,0,0],"id":20,"left_children":[1,3,5,7,-1,9,11,-1,13,15,17,19,21,23,25,27,-1,29,31,-1,33,-1,-1,-1,-1,-1,-1,-1,-1,-1,-1,-1,-1,-1,-1],"loss_changes":[1.2316091E-2,2.507791E-4,4.4152997E-3,9.323843E-5,0E0,2.8967555E-3,1.0215109E-3,0E0,1.0619004E-4,1.3238174E-4,2.2596582E-3,6.99062E-4,2.3022201E-4,1.18894284E-4,3.9932376E-5,1.6307604E-6,0E0,9.1627435E-6,5.1809475E-6,0E0,6.416801E-4,0E0,0E0,0E0,0E0,0E0,0E0,0E0,0E0,0E0,0E0,0E0,0E0,0E0,0E0],"parents":[2147483647,0,0,1,1,2,2,3,3,5,5,6,6,8,8,9,9,10,10,11,11,12,12,13,13,14,14,15,15,17,17,18,18,20,20],"right_children":[2,4,6,8,-1,10,12,-1,14,16,18,20,22,24,26,28,-1,30,32,-1,34,-1,-1,-1,-1,-1,-1,-1,-1,-1,-1,-1,-1,-1,-1],"split_conditions":[1.5426461E1,6.3768E0,1.2E3,1.04E3,-1.854117E-3,7.5923805E0,1.52E3,-1.3534904E-3,1.36E3,7.112628E0,5.4500127E-1,6.195662E-1,9.202244E0,1.2E3,1.52E3,6.7063003E0,7.9065264E-4,1.04E3,1.04E3,9.079973E-4,1.36E3,1.4407064E-3,2.6728734E-4,-4.0252434E-4,1.6031713E-4,-9.191044E-4,-1.9991548E-4,2.974664E-4,1.0855297E-4,-3.8629274E-5,8.681218E-5,-1.8813172E-3,-7.160351E-4,5.772367E-4,-2.3203493E-4],"split_indices":[2,0,4,4,0,0,4,0,4,0,1,1,0,4,4,0,0,4,4,0,4,0,0,0,0,0,0,0,0,0,0,0,0,0,0],"split_type":[0,0,0,0,0,0,0,0,0,0,0,0,0,0,0,0,0,0,0,0,0,0,0,0,0,0,0,0,0,0,0,0,0,0,0],"sum_hessian":[4.5E1,1E1,3.5E1,5E0,5E0,1.4E1,2.1E1,1E0,4E0,6E0,8E0,1.4E1,7E0,2E0,2E0,4E0,2E0,4E0,4E0,6E0,8E0,6E0,1E0,1E0,1E0,1E0,1E0,2E0,2E0,2E0,2E0,2E0,2E0,4E0,4E0],"tree_param":{"num_deleted":"0","num_feature":"5","num_nodes":"35","size_leaf_vector":"1"}},{"base_weights":[-8.533098E-4,-2.9008854E-2,7.773476E-3,-1.8828571E-3,-1.8687384E-2,-5.229654E-3,1.6285907E-2,-9.347349E-3,-1.1677787E-3,9.915288E-3,-1.642798E-2,2.412961E-2,8.9995265E-3,1.5630946E-4,-1.4547259E-2,4.709834E-3,7.642975E-4,5.589187E-4,-3.0129284E-2,8.318605E-4,1.5604455E-3,4.261179E-3,7.8643236E-4,-8.961268E-4,-1.9491762E-4,2.8755117E-4,1.0493497E-4,8.404056E-5,-3.7464004E-5,-1.8186063E-3,-6.921674E-4,5.7536934E-4,-1.9186319E-4],"categories":[],"categories_nodes":[],"categories_segments":[],"categories_sizes":[],"default_left":[0,0,0,0,0,0,0,0,0,0,0,0,0,0,0,0,0,0,0,0,0,0,0,0,0,0,0,0,0,0,0,0,0],"id":21,"left_children":[1,3,5,-1,7,9,11,13,-1,15,17,19,21,-1,23,25,-1,27,29,-1,-1,31,-1,-1,-1,-1,-1,-1,-1,-1,-1,-1,-1],"loss_changes":[1.1398525E-2,2.7818047E-4,4.0699467E-3,0E0,8.6894725E-5,2.7068583E-3,1.0401933E-3,3.0492258E-4,0E0,1.237028E-4,2.1115234E-3,1.1180062E-5,3.4748134E-4,0E0,3.796065E-5,1.5237601E-6,0E0,8.597691E-6,4.840549E-6,0E0,0E0,5.7230383E-4,0E0,0E0,0E0,0E0,0E0,0E0,0E0,0E0,0E0,0E0,0E0],"parents":[2147483647,0,0,1,1,2,2,4,4,5,5,6,6,7,7,9,9,10,10,11,11,12,12,14,14,15,15,17,17,18,18,21,21],"right_children":[2,4,6,-1,8,10,12,14,-1,16,18,20,22,-1,24,26,-1,28,30,-1,-1,32,-1,-1,-1,-1,-1,-1,-1,-1,-1,-1,-1],"split_conditions":[1.5426461E1,1.2E3,1.2E3,-1.8828571E-3,6.3768E0,7.5923805E0,7.5923805E0,1.36E3,-1.1677787E-3,7.112628E0,5.4500127E-1,1.52E3,1.52E3,1.5630946E-4,1.52E3,6.7063003E0,7.642975E-4,8.488048E0,1.04E3,8.318605E-4,1.5604455E-3,5.4500127E-1,7.8643236E-4,-8.961268E-4,-1.9491762E-4,2.8755117E-4,1.0493497E-4,8.404056E-5,-3.7464004E-5,-1.8186063E-3,-6.921674E-4,5.7536934E-4,-1.9186319E-4],"split_indices":[2,4,4,0,0,0,0,4,0,0,1,4,4,0,4,0,0,0,4,0,0,1,0,0,0,0,0,0,0,0,0,0,0],"split_type":[0,0,0,0,0,0,0,0,0,0,0,0,0,0,0,0,0,0,0,0,0,0,0,0,0,0,0,0,0,0,0,0,0],"sum_hessian":[4.5E1,1E1,3.5E1,4E0,6E0,1.4E1,2.1E1,3E0,3E0,6E0,8E0,9E0,1.2E1,1E0,2E0,4E0,2E0,4E0,4E0,6E0,3E0,8E0,4E0,1E0,1E0,2E0,2E0,2E0,2E0,2E0,2E0,4E0,4E0],"tree_param":{"num_deleted":"0","num_feature":"5","num_nodes":"33","size_leaf_vector":"1"}},{"base_weights":[-8.4826804E-4,-2.7920723E-2,7.447434E-3,-2.0575977E-3,-2.0408012E-2,-5.055338E-3,1.563353E-2,-1.0054057E-2,-1.3340181E-3,9.5847715E-3,-1.5880385E-2,2.3162354E-2,8.639551E-3,-2.573182E-3,-1.4183581E-2,4.552835E-3,7.3882047E-4,5.402863E-4,-2.912498E-2,1.5924176E-2,1.5019287E-3,1.1372164E-2,-3.5186857E-4,-3.453903E-4,1.5240163E-4,-8.7372365E-4,-1.9004494E-4,2.7796577E-4,1.01437174E-4,-3.8118164E-5,8.3142026E-5,-1.7579863E-3,-6.6909543E-4,4.899821E-4,1.041184E-3,3.4187053E-4,8.232471E-4,2.5614278E-4,-1.9421974E-4],"categories":[],"categories_nodes":[],"categories_segments":[],"categories_sizes":[],"default_left":[0,0,0,0,0,0,0,0,0,0,0,0,0,0,0,0,0,0,0,0,0,0,0,0,0,0,0,0,0,0,0,0,0,0,0,0,0,0,0],"id":22,"left_children":[1,3,5,-1,7,9,11,13,-1,15,17,19,21,23,25,27,-1,29,31,33,-1,35,37,-1,-1,-1,-1,-1,-1,-1,-1,-1,-1,-1,-1,-1,-1,-1,-1],"loss_changes":[1.0538848E-2,2.5359634E-4,3.7635937E-3,0E0,3.1624665E-4,2.5294083E-3,9.5832953E-4,1.17965275E-4,0E0,1.1559343E-4,1.973102E-3,1.9373372E-5,3.234123E-4,9.415277E-5,3.608613E-5,1.4238103E-6,0E0,8.579162E-6,4.522968E-6,5.98561E-6,0E0,1.18367374E-4,9.7257616E-5,0E0,0E0,0E0,0E0,0E0,0E0,0E0,0E0,0E0,0E0,0E0,0E0,0E0,0E0,0E0,0E0],"parents":[2147483647,0,0,1,1,2,2,4,4,5,5,6,6,7,7,9,9,10,10,11,11,12,12,13,13,14,14,15,15,17,17,18,18,19,19,21,21,22,22],"right_children":[2,4,6,-1,8,10,12,14,-1,16,18,20,22,24,26,28,-1,30,32,34,-1,36,38,-1,-1,-1,-1,-1,-1,-1,-1,-1,-1,-1,-1,-1,-1,-1,-1],"split_conditions":[1.5426461E1,1.04E3,1.2E3,-2.0575977E-3,6.3768E0,7.5923805E0,7.5923805E0,1.36E3,-1.3340181E-3,7.112628E0,5.4500127E-1,1.52E3,9.202244E0,1.2E3,1.52E3,6.7063003E0,7.3882047E-4,1.04E3,1.04E3,7.112628E0,1.5019287E-3,1.52E3,1.36E3,-3.453903E-4,1.5240163E-4,-8.7372365E-4,-1.9004494E-4,2.7796577E-4,1.01437174E-4,-3.8118164E-5,8.3142026E-5,-1.7579863E-3,-6.6909543E-4,4.899821E-4,1.041184E-3,3.4187053E-4,8.232471E-4,2.5614278E-4,-1.9421974E-4],"split_indices":[2,4,4,0,0,0,0,4,0,0,1,4,0,4,4,0,0,4,4,0,0,4,4,0,0,0,0,0,0,0,0,0,0,0,0,0,0,0,0],"split_type":[0,0,0,0,0,0,0,0,0,0,0,0,0,0,0,0,0,0,0,0,0,0,0,0,0,0,0,0,0,0,0,0,0,0,0,0,0,0,0],"sum_hessian":[4.5E1,1E1,3.5E1,2E0,8E0,1.4E1,2.1E1,4E0,4E0,6E0,8E0,9E0,1.2E1,2E0,2E0,4E0,2E0,4E0,4E0,6E0,3E0,9E0,3E0,1E0,1E0,1E0,1E0,2E0,2E0,2E0,2E0,2E0,2E0,4E0,2E0,6E0,3E0,1E0,2E0],"tree_param":{"num_deleted":"0","num_feature":"5","num_nodes":"39","size_leaf_vector":"1"}},{"base_weights":[-8.4176986E-4,-2.6947267E-2,7.1582925E-3,-1.9890105E-3,-1.967548E-2,-4.8868316E-3,1.50455E-2,-9.802711E-3,-1.2806577E-3,9.265274E-3,-1.5351044E-2,2.230755E-2,8.301962E-3,-2.508859E-3,-1.3828993E-2,4.40107E-3,7.141928E-4,5.2227377E-4,-2.8154153E-2,1.2615792E-3,5.806804E-4,3.855947E-3,7.3221984E-4,-3.3675582E-4,1.485914E-4,-8.5188076E-4,-1.8529371E-4,2.6870024E-4,9.80556E-5,8.048862E-5,-3.696581E-5,-1.6993871E-3,-6.4679235E-4,5.3868024E-4,-1.9164503E-4],"categories":[],"categories_nodes":[],"categories_segments":[],"categories_sizes":[],"default_left":[0,0,0,0,0,0,0,0,0,0,0,0,0,0,0,0,0,0,0,0,0,0,0,0,0,0,0,0,0,0,0,0,0,0,0],"id":23,"left_children":[1,3,5,-1,7,9,11,13,-1,15,17,19,21,23,25,27,-1,29,31,-1,-1,33,-1,-1,-1,-1,-1,-1,-1,-1,-1,-1,-1,-1,-1],"loss_changes":[9.799795E-3,2.4380814E-4,3.4936115E-3,0E0,2.7651293E-4,2.363591E-3,8.9218514E-4,1.1214052E-4,0E0,1.0801561E-4,1.8437544E-3,1.9664876E-5,3.101133E-4,8.9503985E-5,3.430457E-5,1.3305689E-6,0E0,8.050018E-6,4.226342E-6,0E0,0E0,5.1999354E-4,0E0,0E0,0E0,0E0,0E0,0E0,0E0,0E0,0E0,0E0,0E0,0E0,0E0],"parents":[2147483647,0,0,1,1,2,2,4,4,5,5,6,6,7,7,9,9,10,10,11,11,12,12,13,13,14,14,15,15,17,17,18,18,21,21],"right_children":[2,4,6,-1,8,10,12,14,-1,16,18,20,22,24,26,28,-1,30,32,-1,-1,34,-1,-1,-1,-1,-1,-1,-1,-1,-1,-1,-1,-1,-1],"split_conditions":[1.5426461E1,1.04E3,1.2E3,-1.9890105E-3,6.3768E0,7.5923805E0,7.5923805E0,1.36E3,-1.2806577E-3,7.112628E0,5.4500127E-1,9.420197E-1,1.52E3,1.2E3,1.52E3,6.7063003E0,7.141928E-4,8.488048E0,1.04E3,1.2615792E-3,5.806804E-4,5.4500127E-1,7.3221984E-4,-3.3675582E-4,1.485914E-4,-8.5188076E-4,-1.8529371E-4,2.6870024E-4,9.80556E-5,8.048862E-5,-3.696581E-5,-1.6993871E-3,-6.4679235E-4,5.3868024E-4,-1.9164503E-4],"split_indices":[2,4,4,0,0,0,0,4,0,0,1,1,4,4,4,0,0,0,4,0,0,1,0,0,0,0,0,0,0,0,0,0,0,0,0],"split_type":[0,0,0,0,0,0,0,0,0,0,0,0,0,0,0,0,0,0,0,0,0,0,0,0,0,0,0,0,0,0,0,0,0,0,0],"sum_hessian":[4.5E1,1E1,3.5E1,2E0,8E0,1.4E1,2.1E1,4E0,4E0,6E0,8E0,9E0,1.2E1,2E0,2E0,4E0,2E0,4E0,4E0,6E0,3E0,8E0,4E0,1E0,1E0,1E0,1E0,2E0,2E0,2E0,2E0,2E0,2E0,4E0,4E0],"tree_param":{"num_deleted":"0","num_feature":"5","num_nodes":"35","size_leaf_vector":"1"}},{"base_weights":[-8.6044485E-4,-2.600854E-2,6.8475967E-3,-1.6936426E-3,-1.6675672E-2,-4.7239363E-3,1.4426024E-2,-6.742438E-3,-9.65024E-4,8.956437E-3,-1.4839345E-2,2.1376396E-2,7.969891E-3,1.4487654E-4,-6.505594E-4,4.254371E-3,6.903867E-4,5.048573E-4,-2.7215678E-2,1.4459895E-2,1.4068086E-3,3.7017167E-3,7.0293125E-4,2.5974363E-4,9.478728E-5,-3.7573278E-5,7.964472E-5,-1.6427407E-3,-6.252324E-4,4.3353764E-4,9.6442504E-4,5.1713316E-4,-1.8397869E-4],"categories":[],"categories_nodes":[],"categories_segments":[],"categories_sizes":[],"default_left":[0,0,0,0,0,0,0,0,0,0,0,0,0,0,0,0,0,0,0,0,0,0,0,0,0,0,0,0,0,0,0,0,0],"id":24,"left_children":[1,3,5,-1,7,9,11,13,-1,15,17,19,21,-1,-1,23,-1,25,27,29,-1,31,-1,-1,-1,-1,-1,-1,-1,-1,-1,-1,-1],"loss_changes":[9.094855E-3,2.4250941E-4,3.2251324E-3,0E0,5.237735E-5,2.208646E-3,8.168281E-4,2.1899198E-4,0E0,1.0093459E-4,1.7228848E-3,6.0694292E-5,2.8580002E-4,0E0,0E0,1.2433011E-6,0E0,8.031635E-6,3.949506E-6,2.8428622E-5,0E0,4.7922542E-4,0E0,0E0,0E0,0E0,0E0,0E0,0E0,0E0,0E0,0E0,0E0],"parents":[2147483647,0,0,1,1,2,2,4,4,5,5,6,6,7,7,9,9,10,10,11,11,12,12,15,15,17,17,18,18,19,19,21,21],"right_children":[2,4,6,-1,8,10,12,14,-1,16,18,20,22,-1,-1,24,-1,26,28,30,-1,32,-1,-1,-1,-1,-1,-1,-1,-1,-1,-1,-1],"split_conditions":[1.5426461E1,1.2E3,1.2E3,-1.6936426E-3,1.36E3,7.5923805E0,7.5923805E0,6.3768E0,-9.65024E-4,7.112628E0,5.4500127E-1,1.52E3,1.52E3,1.4487654E-4,-6.505594E-4,6.7063003E0,6.903867E-4,1.04E3,1.04E3,7.112628E0,1.4068086E-3,5.4500127E-1,7.0293125E-4,2.5974363E-4,9.478728E-5,-3.7573278E-5,7.964472E-5,-1.6427407E-3,-6.252324E-4,4.3353764E-4,9.6442504E-4,5.1713316E-4,-1.8397869E-4],"split_indices":[2,4,4,0,4,0,0,0,0,0,1,4,4,0,0,0,0,4,4,0,0,1,0,0,0,0,0,0,0,0,0,0,0],"split_type":[0,0,0,0,0,0,0,0,0,0,0,0,0,0,0,0,0,0,0,0,0,0,0,0,0,0,0,0,0,0,0,0,0],"sum_hessian":[4.5E1,1E1,3.5E1,4E0,6E0,1.4E1,2.1E1,2E0,4E0,6E0,8E0,9E0,1.2E1,1E0,1E0,4E0,2E0,4E0,4E0,6E0,3E0,8E0,4E0,2E0,2E0,2E0,2E0,2E0,2E0,4E0,2E0,4E0,4E0],"tree_param":{"num_deleted":"0","num_feature":"5","num_nodes":"33","size_leaf_vector":"1"}},{"base_weights":[-8.283912E-4,-2.4995781E-2,6.5791E-3,-1.8662558E-3,-1.8108696E-2,-4.5664767E-3,1.3879308E-2,-8.861882E-3,-1.1866885E-3,8.657877E-3,-1.4344699E-2,2.058805E-2,7.6510976E-3,-1.9298792E-3,-1.2839924E-2,4.1125477E-3,6.6737336E-4,4.8803687E-4,-2.6308496E-2,1.3936609E-2,1.3540529E-3,1.0142332E-2,-4.897639E-4,-2.8599575E-4,1.4125482E-4,-8.064583E-4,-1.5653596E-4,2.5108506E-4,9.162724E-5,7.710457E-5,-3.643483E-5,-1.5879831E-3,-6.043916E-4,4.1619627E-4,9.322773E-4,3.024195E-4,7.385574E-4,2.591297E-4,-2.0540405E-4],"categories":[],"categories_nodes":[],"categories_segments":[],"categories_sizes":[],"default_left":[0,0,0,0,0,0,0,0,0,0,0,0,0,0,0,0,0,0,0,0,0,0,0,0,0,0,0,0,0,0,0,0,0,0,0,0,0,0,0],"id":25,"left_children":[1,3,5,-1,7,9,11,13,-1,15,17,19,21,23,25,27,-1,29,31,33,-1,35,37,-1,-1,-1,-1,-1,-1,-1,-1,-1,-1,-1,-1,-1,-1,-1,-1],"loss_changes":[8.399358E-3,2.5813514E-4,2.9925206E-3,0E0,2.5780033E-4,2.0638546E-3,7.617143E-4,1.13099464E-4,0E0,9.4318006E-5,1.6099417E-3,5.4460485E-5,2.6861776E-4,7.022389E-5,4.531193E-5,1.1618686E-6,0E0,7.536233E-6,3.6905985E-6,2.9804301E-5,0E0,1.00159436E-4,1.0338808E-4,0E0,0E0,0E0,0E0,0E0,0E0,0E0,0E0,0E0,0E0,0E0,0E0,0E0,0E0,0E0,0E0],"parents":[2147483647,0,0,1,1,2,2,4,4,5,5,6,6,7,7,9,9,10,10,11,11,12,12,13,13,14,14,15,15,17,17,18,18,19,19,21,21,22,22],"right_children":[2,4,6,-1,8,10,12,14,-1,16,18,20,22,24,26,28,-1,30,32,34,-1,36,38,-1,-1,-1,-1,-1,-1,-1,-1,-1,-1,-1,-1,-1,-1,-1,-1],"split_conditions":[1.5426461E1,1.04E3,1.2E3,-1.8662558E-3,6.3768E0,7.5923805E0,7.5923805E0,1.36E3,-1.1866885E-3,7.112628E0,5.4500127E-1,1.52E3,9.202244E0,1.2E3,1.52E3,6.7063003E0,6.6737336E-4,8.488048E0,1.04E3,7.112628E0,1.3540529E-3,1.52E3,1.36E3,-2.8599575E-4,1.4125482E-4,-8.064583E-4,-1.5653596E-4,2.5108506E-4,9.162724E-5,7.710457E-5,-3.643483E-5,-1.5879831E-3,-6.043916E-4,4.1619627E-4,9.322773E-4,3.024195E-4,7.385574E-4,2.591297E-4,-2.0540405E-4],"split_indices":[2,4,4,0,0,0,0,4,0,0,1,4,0,4,4,0,0,0,4,0,0,4,4,0,0,0,0,0,0,0,0,0,0,0,0,0,0,0,0],"split_type":[0,0,0,0,0,0,0,0,0,0,0,0,0,0,0,0,0,0,0,0,0,0,0,0,0,0,0,0,0,0,0,0,0,0,0,0,0,0,0],"sum_hessian":[4.5E1,1E1,3.5E1,2E0,8E0,1.4E1,2.1E1,4E0,4E0,6E0,8E0,9E0,1.2E1,2E0,2E0,4E0,2E0,4E0,4E0,6E0,3E0,9E0,3E0,1E0,1E0,1E0,1E0,2E0,2E0,2E0,2E0,2E0,2E0,4E0,2E0,6E0,3E0,1E0,2E0],"tree_param":{"num_deleted":"0","num_feature":"5","num_nodes":"39","size_leaf_vector":"1"}},{"base_weights":[-8.196909E-4,-2.4124237E-2,6.323912E-3,-1.8040473E-3,-1.7458197E-2,-4.4142585E-3,1.3357941E-2,-8.640343E-3,-1.1392207E-3,8.36928E-3,-1.3866537E-2,1.9828906E-2,7.352742E-3,-1.8816391E-3,-1.2518932E-2,3.975457E-3,6.451279E-4,4.7177673E-4,-2.5431544E-2,1.3432422E-2,1.3032764E-3,3.3460525E-3,6.5471174E-4,-2.788462E-4,1.3772324E-4,-7.86297E-4,-1.5262292E-4,2.4271559E-4,8.85725E-5,-3.6998095E-5,7.631283E-5,-1.5350501E-3,-5.8424525E-4,3.995487E-4,9.012014E-4,4.843506E-4,-1.832059E-4],"categories":[],"categories_nodes":[],"categories_segments":[],"categories_sizes":[],"default_left":[0,0,0,0,0,0,0,0,0,0,0,0,0,0,0,0,0,0,0,0,0,0,0,0,0,0,0,0,0,0,0,0,0,0,0,0,0],"id":26,"left_children":[1,3,5,-1,7,9,11,13,-1,15,17,19,21,23,25,27,-1,29,31,33,-1,35,-1,-1,-1,-1,-1,-1,-1,-1,-1,-1,-1,-1,-1,-1,-1],"loss_changes":[7.8105675E-3,2.4683494E-4,2.7781397E-3,0E0,2.2582663E-4,1.9285565E-3,7.091104E-4,1.0751508E-4,0E0,8.8135304E-5,1.5044025E-3,4.8801303E-5,2.5524292E-4,6.6756606E-5,4.3074397E-5,1.0858421E-6,0E0,7.51814E-6,3.4484547E-6,3.0865427E-5,0E0,4.3555527E-4,0E0,0E0,0E0,0E0,0E0,0E0,0E0,0E0,0E0,0E0,0E0,0E0,0E0,0E0,0E0],"parents":[2147483647,0,0,1,1,2,2,4,4,5,5,6,6,7,7,9,9,10,10,11,11,12,12,13,13,14,14,15,15,17,17,18,18,19,19,21,21],"right_children":[2,4,6,-1,8,10,12,14,-1,16,18,20,22,24,26,28,-1,30,32,34,-1,36,-1,-1,-1,-1,-1,-1,-1,-1,-1,-1,-1,-1,-1,-1,-1],"split_conditions":[1.5426461E1,1.04E3,1.2E3,-1.8040473E-3,6.3768E0,7.5923805E0,7.5923805E0,1.36E3,-1.1392207E-3,7.112628E0,5.4500127E-1,1.52E3,1.52E3,1.2E3,1.52E3,6.7063003E0,6.451279E-4,1.04E3,1.04E3,7.112628E0,1.3032764E-3,5.4500127E-1,6.5471174E-4,-2.788462E-4,1.3772324E-4,-7.86297E-4,-1.5262292E-4,2.4271559E-4,8.85725E-5,-3.6998095E-5,7.631283E-5,-1.5350501E-3,-5.8424525E-4,3.995487E-4,9.012014E-4,4.843506E-4,-1.832059E-4],"split_indices":[2,4,4,0,0,0,0,4,0,0,1,4,4,4,4,0,0,4,4,0,0,1,0,0,0,0,0,0,0,0,0,0,0,0,0,0,0],"split_type":[0,0,0,0,0,0,0,0,0,0,0,0,0,0,0,0,0,0,0,0,0,0,0,0,0,0,0,0,0,0,0,0,0,0,0,0,0],"sum_hessian":[4.5E1,1E1,3.5E1,2E0,8E0,1.4E1,2.1E1,4E0,4E0,6E0,8E0,9E0,1.2E1,2E0,2E0,4E0,2E0,4E0,4E0,6E0,3E0,8E0,4E0,1E0,1E0,1E0,1E0,2E0,2E0,2E0,2E0,2E0,2E0,4E0,2E0,4E0,4E0],"tree_param":{"num_deleted":"0","num_feature":"5","num_nodes":"37","size_leaf_vector":"1"}},{"base_weights":[-8.1277156E-4,-2.3283778E-2,6.075946E-3,-1.7439121E-3,-1.6831867E-2,-4.2671184E-3,1.2851856E-2,-8.42433E-3,-1.0936516E-3,8.090304E-3,-1.3404323E-2,1.9097859E-2,7.0586344E-3,-1.8345913E-3,-1.2205958E-2,3.8429438E-3,6.2362355E-4,4.560411E-4,-2.4583822E-2,1.0916347E-3,4.7687144E-4,3.212207E-3,6.285238E-4,-2.7187468E-4,1.3428033E-4,-7.666394E-4,-1.4880746E-4,2.3462523E-4,8.5620086E-5,7.387896E-5,-3.587554E-5,-1.4838815E-3,-5.647704E-4,4.6497674E-4,-1.758781E-4],"categories":[],"categories_nodes":[],"categories_segments":[],"categories_sizes":[],"default_left":[0,0,0,0,0,0,0,0,0,0,0,0,0,0,0,0,0,0,0,0,0,0,0,0,0,0,0,0,0,0,0,0,0,0,0],"id":27,"left_children":[1,3,5,-1,7,9,11,13,-1,15,17,19,21,23,25,27,-1,29,31,-1,-1,33,-1,-1,-1,-1,-1,-1,-1,-1,-1,-1,-1,-1,-1],"loss_changes":[7.262106E-3,2.3580436E-4,2.5778525E-3,0E0,1.971887E-4,1.8021294E-3,6.612537E-4,1.0220677E-4,0E0,8.2357496E-5,1.4057786E-3,5.323463E-5,2.352327E-4,6.346046E-5,4.094746E-5,1.014676E-6,0E0,7.05432E-6,3.2221433E-6,0E0,0E0,4.0140847E-4,0E0,0E0,0E0,0E0,0E0,0E0,0E0,0E0,0E0,0E0,0E0,0E0,0E0],"parents":[2147483647,0,0,1,1,2,2,4,4,5,5,6,6,7,7,9,9,10,10,11,11,12,12,13,13,14,14,15,15,17,17,18,18,21,21],"right_children":[2,4,6,-1,8,10,12,14,-1,16,18,20,22,24,26,28,-1,30,32,-1,-1,34,-1,-1,-1,-1,-1,-1,-1,-1,-1,-1,-1,-1,-1],"split_conditions":[1.5426461E1,1.04E3,1.2E3,-1.7439121E-3,6.3768E0,7.5923805E0,7.5923805E0,1.36E3,-1.0936516E-3,7.112628E0,5.4500127E-1,9.420197E-1,1.52E3,1.2E3,1.52E3,6.7063003E0,6.2362355E-4,8.488048E0,1.04E3,1.0916347E-3,4.7687144E-4,5.4500127E-1,6.285238E-4,-2.7187468E-4,1.3428033E-4,-7.666394E-4,-1.4880746E-4,2.3462523E-4,8.5620086E-5,7.387896E-5,-3.587554E-5,-1.4838815E-3,-5.647704E-4,4.6497674E-4,-1.758781E-4],"split_indices":[2,4,4,0,0,0,0,4,0,0,1,1,4,4,4,0,0,0,4,0,0,1,0,0,0,0,0,0,0,0,0,0,0,0,0],"split_type":[0,0,0,0,0,0,0,0,0,0,0,0,0,0,0,0,0,0,0,0,0,0,0,0,0,0,0,0,0,0,0,0,0,0,0],"sum_hessian":[4.5E1,1E1,3.5E1,2E0,8E0,1.4E1,2.1E1,4E0,4E0,6E0,8E0,9E0,1.2E1,2E0,2E0,4E0,2E0,4E0,4E0,6E0,3E0,8E0,4E0,1E0,1E0,1E0,1E0,2E0,2E0,2E0,2E0,2E0,2E0,4E0,4E0],"tree_param":{"num_deleted":"0","num_feature":"5","num_nodes":"35","size_leaf_vector":"1"}},{"base_weights":[-8.258554E-4,-2.2473278E-2,5.8115753E-3,-1.6857818E-3,-1.6228795E-2,-4.124878E-3,1.23222675E-2,-8.213723E-3,-1.0499054E-3,7.820628E-3,-1.2957507E-2,7.5372993E-3,1.9753799E-2,-1.7887255E-3,-1.1900812E-2,1.8574209E-4,6.0283643E-4,4.4084192E-4,-2.3764353E-2,1.3532029E-2,2.0372537E-3,1.2260226E-3,4.428517E-4,-2.650775E-4,1.309231E-4,-7.4747356E-4,-1.450874E-4,-3.639857E-5,7.3135394E-5,-1.4344186E-3,-5.4594426E-4,7.701412E-4,2.9516817E-4,4.7555208E-4,-2.9219926E-4],"categories":[],"categories_nodes":[],"categories_segments":[],"categories_sizes":[],"default_left":[0,0,0,0,0,0,0,0,0,0,0,0,0,0,0,0,0,0,0,0,0,0,0,0,0,0,0,0,0,0,0,0,0,0,0],"id":28,"left_children":[1,3,5,-1,7,9,11,13,-1,15,17,19,21,23,25,-1,-1,27,29,31,33,-1,-1,-1,-1,-1,-1,-1,-1,-1,-1,-1,-1,-1,-1],"loss_changes":[6.740035E-3,2.2506574E-4,2.3797825E-3,0E0,1.7156499E-4,1.6839891E-3,6.3342205E-4,9.716043E-5,0E0,7.695885E-5,1.3136213E-3,4.6700117E-4,1.9835006E-4,6.032693E-5,3.8925617E-5,0E0,0E0,7.036663E-6,3.0114315E-6,8.973177E-6,5.857068E-4,0E0,0E0,0E0,0E0,0E0,0E0,0E0,0E0,0E0,0E0,0E0,0E0,0E0,0E0],"parents":[2147483647,0,0,1,1,2,2,4,4,5,5,6,6,7,7,9,9,10,10,11,11,12,12,13,13,14,14,17,17,18,18,19,19,20,20],"right_children":[2,4,6,-1,8,10,12,14,-1,16,18,20,22,24,26,-1,-1,28,30,32,34,-1,-1,-1,-1,-1,-1,-1,-1,-1,-1,-1,-1,-1,-1],"split_conditions":[1.5426461E1,1.04E3,1.2E3,-1.6857818E-3,6.3768E0,7.5923805E0,1.52E3,1.36E3,-1.0499054E-3,7.112628E0,5.4500127E-1,6.195662E-1,8.078928E0,1.2E3,1.52E3,1.8574209E-4,6.0283643E-4,1.04E3,1.04E3,8.488048E0,1.36E3,1.2260226E-3,4.428517E-4,-2.650775E-4,1.309231E-4,-7.4747356E-4,-1.450874E-4,-3.639857E-5,7.3135394E-5,-1.4344186E-3,-5.4594426E-4,7.701412E-4,2.9516817E-4,4.7555208E-4,-2.9219926E-4],"split_indices":[2,4,4,0,0,0,4,4,0,0,1,1,0,4,4,0,0,4,4,0,4,0,0,0,0,0,0,0,0,0,0,0,0,0,0],"split_type":[0,0,0,0,0,0,0,0,0,0,0,0,0,0,0,0,0,0,0,0,0,0,0,0,0,0,0,0,0,0,0,0,0,0,0],"sum_hessian":[4.5E1,1E1,3.5E1,2E0,8E0,1.4E1,2.1E1,4E0,4E0,6E0,8E0,1.4E1,7E0,2E0,2E0,4E0,2E0,4E0,4E0,6E0,8E0,4E0,3E0,1E0,1E0,1E0,1E0,2E0,2E0,2E0,2E0,4E0,2E0,4E0,4E0],"tree_param":{"num_deleted":"0","num_feature":"5","num_nodes":"35","size_leaf_vector":"1"}},{"base_weights":[-8.280381E-4,-2.1691652E-2,5.5699563E-3,-1.6295895E-3,-1.564809E-2,1.4388062E-2,-1.4138364E-3,-8.008379E-3,-1.0079092E-3,1.047653E-2,1.1751764E-3,-1.2525592E-2,6.387674E-3,-1.7440021E-3,-1.1603296E-2,5.853805E-3,8.3510636E-4,4.261434E-4,-2.2972208E-2,8.603847E-3,-7.496774E-4,-2.5845022E-4,1.2765006E-4,-7.2878675E-4,-1.4146045E-4,3.3576725E-4,9.4613926E-5,7.0803864E-5,-3.5291912E-5,-1.3866047E-3,-5.27746E-4,2.5093555E-4,6.3634367E-4,2.49739E-4,-2.1647115E-4],"categories":[],"categories_nodes":[],"categories_segments":[],"categories_sizes":[],"default_left":[0,0,0,0,0,0,0,0,0,0,0,0,0,0,0,0,0,0,0,0,0,0,0,0,0,0,0,0,0,0,0,0,0,0,0],"id":29,"left_children":[1,3,5,-1,7,9,11,13,-1,15,-1,17,19,21,23,25,-1,27,29,31,33,-1,-1,-1,-1,-1,-1,-1,-1,-1,-1,-1,-1,-1,-1],"loss_changes":[6.261145E-3,2.146326E-4,2.23736E-3,0E0,1.4866772E-4,3.242516E-4,1.9004673E-3,9.236342E-5,0E0,2.763588E-4,0E0,1.2275057E-3,2.1207897E-4,5.7348207E-5,3.7003483E-5,1.800977E-5,0E0,6.602456E-6,2.8144568E-6,8.394354E-5,1.038793E-4,0E0,0E0,0E0,0E0,0E0,0E0,0E0,0E0,0E0,0E0,0E0,0E0,0E0,0E0],"parents":[2147483647,0,0,1,1,2,2,4,4,5,5,6,6,7,7,9,9,11,11,12,12,13,13,14,14,15,15,17,17,18,18,19,19,20,20],"right_children":[2,4,6,-1,8,10,12,14,-1,16,-1,18,20,22,24,26,-1,28,30,32,34,-1,-1,-1,-1,-1,-1,-1,-1,-1,-1,-1,-1,-1,-1],"split_conditions":[1.5426461E1,1.04E3,7.5923805E0,-1.6295895E-3,6.3768E0,1.52E3,1.2E3,1.36E3,-1.0079092E-3,7.112628E0,1.1751764E-3,5.4500127E-1,9.202244E0,1.2E3,1.52E3,1.36E3,8.3510636E-4,8.488048E0,1.04E3,1.52E3,1.36E3,-2.5845022E-4,1.2765006E-4,-7.2878675E-4,-1.4146045E-4,3.3576725E-4,9.4613926E-5,7.0803864E-5,-3.5291912E-5,-1.3866047E-3,-5.27746E-4,2.5093555E-4,6.3634367E-4,2.49739E-4,-2.1647115E-4],"split_indices":[2,4,0,0,0,4,4,4,0,0,0,1,0,4,4,4,0,0,4,4,4,0,0,0,0,0,0,0,0,0,0,0,0,0,0],"split_type":[0,0,0,0,0,0,0,0,0,0,0,0,0,0,0,0,0,0,0,0,0,0,0,0,0,0,0,0,0,0,0,0,0,0,0],"sum_hessian":[4.5E1,1E1,3.5E1,2E0,8E0,1.5E1,2E1,4E0,4E0,1.2E1,3E0,8E0,1.2E1,2E0,2E0,8E0,4E0,4E0,4E0,9E0,3E0,1E0,1E0,1E0,1E0,6E0,2E0,2E0,2E0,2E0,2E0,6E0,3E0,1E0,2E0],"tree_param":{"num_deleted":"0","num_feature":"5","num_nodes":"35","size_leaf_vector":"1"}},{"base_weights":[-8.3350745E-4,-2.0937843E-2,5.332637E-3,-1.3829288E-3,-1.31462E-2,-3.946008E-3,1.1416594E-2,-4.9720206E-3,-7.710734E-4,7.111792E-3,-1.21080745E-2,1.713567E-2,6.1391043E-3,1.2445897E-4,-4.9736054E-4,9.171909E-3,1.3076663E-3,4.1193367E-4,-2.2206467E-2,9.83232E-4,4.2130277E-4,2.635247E-3,5.609113E-4,1.9259901E-4,5.7172676E-4,1.5148595E-4,-5.341098E-5,-3.5777688E-5,7.0105496E-5,-1.3403844E-3,-5.101547E-4,4.1503398E-4,-1.7786176E-4],"categories":[],"categories_nodes":[],"categories_segments":[],"categories_sizes":[],"default_left":[0,0,0,0,0,0,0,0,0,0,0,0,0,0,0,0,0,0,0,0,0,0,0,0,0,0,0,0,0,0,0,0,0],"id":30,"left_children":[1,3,5,-1,7,9,11,13,-1,15,17,19,21,-1,-1,23,25,27,29,-1,-1,31,-1,-1,-1,-1,-1,-1,-1,-1,-1,-1,-1],"loss_changes":[5.814101E-3,2.1241559E-4,2.0772815E-3,0E0,5.3513213E-5,1.4399275E-3,5.5881473E-4,1.3612307E-4,0E0,7.1706454E-5,1.1470353E-3,5.4568052E-5,2.0179193E-4,0E0,0E0,1.6139471E-5,1.5510606E-5,6.585341E-6,2.6293565E-6,0E0,0E0,3.452753E-4,0E0,0E0,0E0,0E0,0E0,0E0,0E0,0E0,0E0,0E0,0E0],"parents":[2147483647,0,0,1,1,2,2,4,4,5,5,6,6,7,7,9,9,10,10,11,11,12,12,15,15,16,16,17,17,18,18,21,21],"right_children":[2,4,6,-1,8,10,12,14,-1,16,18,20,22,-1,-1,24,26,28,30,-1,-1,32,-1,-1,-1,-1,-1,-1,-1,-1,-1,-1,-1],"split_conditions":[1.5426461E1,1.2E3,1.2E3,-1.3829288E-3,1.36E3,7.5923805E0,7.5923805E0,6.3768E0,-7.710734E-4,9.420197E-1,5.4500127E-1,9.420197E-1,1.52E3,1.2445897E-4,-4.9736054E-4,1.04E3,1.04E3,1.04E3,1.04E3,9.83232E-4,4.2130277E-4,5.4500127E-1,5.609113E-4,1.9259901E-4,5.7172676E-4,1.5148595E-4,-5.341098E-5,-3.5777688E-5,7.0105496E-5,-1.3403844E-3,-5.101547E-4,4.1503398E-4,-1.7786176E-4],"split_indices":[2,4,4,0,4,0,0,0,0,1,1,1,4,0,0,4,4,4,4,0,0,1,0,0,0,0,0,0,0,0,0,0,0],"split_type":[0,0,0,0,0,0,0,0,0,0,0,0,0,0,0,0,0,0,0,0,0,0,0,0,0,0,0,0,0,0,0,0,0],"sum_hessian":[4.5E1,1E1,3.5E1,4E0,6E0,1.4E1,2.1E1,2E0,4E0,6E0,8E0,9E0,1.2E1,1E0,1E0,4E0,2E0,4E0,4E0,6E0,3E0,8E0,4E0,2E0,2E0,1E0,1E0,2E0,2E0,2E0,2E0,4E0,4E0],"tree_param":{"num_deleted":"0","num_feature":"5","num_nodes":"33","size_leaf_vector":"1"}},{"base_weights":[-8.196183E-4,-2.0120673E-2,5.100693E-3,-1.5291725E-3,-1.4397449E-2,1.327182E-2,-1.3678173E-3,-7.248044E-3,-9.333682E-4,9.557561E-3,1.1012603E-3,-1.1704468E-2,5.8935424E-3,-1.2809137E-3,-1.0799159E-2,5.200995E-3,7.743934E-4,3.982067E-4,-2.146625E-2,2.5298398E-3,1.0769499E-2,-2.1741613E-4,1.21347606E-4,-6.912902E-4,-1.1864677E-4,3.0518515E-4,6.805063E-5,6.787181E-5,-3.4687917E-5,-1.2957047E-3,-4.9314945E-4,3.9843292E-4,-1.7074734E-4,5.914468E-4,1.6329363E-4],"categories":[],"categories_nodes":[],"categories_segments":[],"categories_sizes":[],"default_left":[0,0,0,0,0,0,0,0,0,0,0,0,0,0,0,0,0,0,0,0,0,0,0,0,0,0,0,0,0,0,0,0,0,0,0],"id":31,"left_children":[1,3,5,-1,7,9,11,13,-1,15,-1,17,19,21,23,25,-1,27,29,31,33,-1,-1,-1,-1,-1,-1,-1,-1,-1,-1,-1,-1,-1,-1],"loss_changes":[5.3589693E-3,2.1836488E-4,1.9209341E-3,0E0,1.3944437E-4,3.0969013E-4,1.6452017E-3,9.211703E-5,0E0,2.5531277E-4,0E0,1.071841E-3,1.8597132E-4,4.4673794E-5,4.3701817E-5,2.2890206E-5,0E0,6.1789583E-6,2.4570618E-6,3.182061E-4,1.1163065E-6,0E0,0E0,0E0,0E0,0E0,0E0,0E0,0E0,0E0,0E0,0E0,0E0,0E0,0E0],"parents":[2147483647,0,0,1,1,2,2,4,4,5,5,6,6,7,7,9,9,11,11,12,12,13,13,14,14,15,15,17,17,18,18,19,19,20,20],"right_children":[2,4,6,-1,8,10,12,14,-1,16,-1,18,20,22,24,26,-1,28,30,32,34,-1,-1,-1,-1,-1,-1,-1,-1,-1,-1,-1,-1,-1,-1],"split_conditions":[1.5426461E1,1.04E3,7.5923805E0,-1.5291725E-3,6.3768E0,1.52E3,1.2E3,1.36E3,-9.333682E-4,7.112628E0,1.1012603E-3,5.4500127E-1,1.52E3,1.2E3,1.52E3,1.36E3,7.743934E-4,8.488048E0,1.04E3,5.4500127E-1,9.202244E0,-2.1741613E-4,1.21347606E-4,-6.912902E-4,-1.1864677E-4,3.0518515E-4,6.805063E-5,6.787181E-5,-3.4687917E-5,-1.2957047E-3,-4.9314945E-4,3.9843292E-4,-1.7074734E-4,5.914468E-4,1.6329363E-4],"split_indices":[2,4,0,0,0,4,4,4,0,0,0,1,4,4,4,4,0,0,4,1,0,0,0,0,0,0,0,0,0,0,0,0,0,0,0],"split_type":[0,0,0,0,0,0,0,0,0,0,0,0,0,0,0,0,0,0,0,0,0,0,0,0,0,0,0,0,0,0,0,0,0,0,0],"sum_hessian":[4.5E1,1E1,3.5E1,2E0,8E0,1.5E1,2E1,4E0,4E0,1.2E1,3E0,8E0,1.2E1,2E0,2E0,8E0,4E0,4E0,4E0,8E0,4E0,1E0,1E0,1E0,1E0,6E0,2E0,2E0,2E0,2E0,2E0,4E0,4E0,3E0,1E0],"tree_param":{"num_deleted":"0","num_feature":"5","num_nodes":"35","size_leaf_vector":"1"}},{"base_weights":[-8.197835E-4,-1.9420864E-2,4.886652E-3,-1.4781997E-3,-1.3881948E-2,-3.7628352E-3,1.05619095E-2,-7.066846E-3,-8.960331E-4,6.4837593E-3,-1.1314316E-2,6.3770073E-3,1.7088361E-2,-1.2488961E-3,-1.052918E-2,2.8810322E-3,5.163526E-4,3.8493873E-4,-2.0750707E-2,1.1658604E-2,1.5605423E-3,1.0669247E-3,3.7518033E-4,-2.1198094E-4,1.1831373E-4,-6.7400787E-4,-1.156807E-4,1.8650989E-4,5.3576132E-5,-3.513793E-5,6.721616E-5,-1.2525142E-3,-4.767115E-4,6.6619244E-4,2.4984975E-4,4.316309E-4,-2.911821E-4],"categories":[],"categories_nodes":[],"categories_segments":[],"categories_sizes":[],"default_left":[0,0,0,0,0,0,0,0,0,0,0,0,0,0,0,0,0,0,0,0,0,0,0,0,0,0,0,0,0,0,0,0,0,0,0,0,0],"id":32,"left_children":[1,3,5,-1,7,9,11,13,-1,15,17,19,21,23,25,27,-1,29,31,33,35,-1,-1,-1,-1,-1,-1,-1,-1,-1,-1,-1,-1,-1,-1,-1,-1],"loss_changes":[4.9776137E-3,2.0759506E-4,1.806913E-3,0E0,1.2107554E-4,1.2340138E-3,4.9190363E-4,8.7568595E-5,0E0,6.7171786E-5,1.0015764E-3,3.633857E-4,1.6577612E-4,4.2468022E-5,4.1543943E-5,3.6858728E-6,0E0,6.1623346E-6,2.2952445E-6,1.1073251E-5,5.202668E-4,0E0,0E0,0E0,0E0,0E0,0E0,0E0,0E0,0E0,0E0,0E0,0E0,0E0,0E0,0E0,0E0],"parents":[2147483647,0,0,1,1,2,2,4,4,5,5,6,6,7,7,9,9,10,10,11,11,12,12,13,13,14,14,15,15,17,17,18,18,19,19,20,20],"right_children":[2,4,6,-1,8,10,12,14,-1,16,18,20,22,24,26,28,-1,30,32,34,36,-1,-1,-1,-1,-1,-1,-1,-1,-1,-1,-1,-1,-1,-1,-1,-1],"split_conditions":[1.5426461E1,1.04E3,1.2E3,-1.4781997E-3,6.3768E0,7.5923805E0,1.52E3,1.36E3,-8.960331E-4,7.112628E0,5.4500127E-1,6.195662E-1,8.078928E0,1.2E3,1.52E3,6.7063003E0,5.163526E-4,1.04E3,1.04E3,8.488048E0,1.36E3,1.0669247E-3,3.7518033E-4,-2.1198094E-4,1.1831373E-4,-6.7400787E-4,-1.156807E-4,1.8650989E-4,5.3576132E-5,-3.513793E-5,6.721616E-5,-1.2525142E-3,-4.767115E-4,6.6619244E-4,2.4984975E-4,4.316309E-4,-2.911821E-4],"split_indices":[2,4,4,0,0,0,4,4,0,0,1,1,0,4,4,0,0,4,4,0,4,0,0,0,0,0,0,0,0,0,0,0,0,0,0,0,0],"split_type":[0,0,0,0,0,0,0,0,0,0,0,0,0,0,0,0,0,0,0,0,0,0,0,0,0,0,0,0,0,0,0,0,0,0,0,0,0],"sum_hessian":[4.5E1,1E1,3.5E1,2E0,8E0,1.4E1,2.1E1,4E0,4E0,6E0,8E0,1.4E1,7E0,2E0,2E0,4E0,2E0,4E0,4E0,6E0,8E0,4E0,3E0,1E0,1E0,1E0,1E0,2E0,2E0,2E0,2E0,2E0,2E0,4E0,2E0,4E0,4E0],"tree_param":{"num_deleted":"0","num_feature":"5","num_nodes":"37","size_leaf_vector":"1"}},{"base_weights":[-8.157459E-4,-1.8745964E-2,4.6855914E-3,-1.4289265E-3,-1.3385558E-2,1.2353357E-2,-1.3796389E-3,-6.8901717E-3,-8.601916E-4,8.927494E-3,1.0199536E-3,-1.0937171E-2,5.34324E-3,-1.2176732E-3,-1.0265946E-2,4.8978594E-3,7.1976695E-4,3.721118E-4,-2.005902E-2,2.1938616E-3,9.943473E-3,-2.0668135E-4,1.1535585E-4,-6.571576E-4,-1.1278838E-4,2.8251027E-4,7.5488286E-5,6.507536E-5,-3.4066044E-5,-1.210764E-3,-4.6082088E-4,3.7343323E-4,-1.759857E-4,5.4655113E-4,1.4983192E-4],"categories":[],"categories_nodes":[],"categories_segments":[],"categories_sizes":[],"default_left":[0,0,0,0,0,0,0,0,0,0,0,0,0,0,0,0,0,0,0,0,0,0,0,0,0,0,0,0,0,0,0,0,0,0,0],"id":33,"left_children":[1,3,5,-1,7,9,11,13,-1,15,-1,17,19,21,23,25,-1,27,29,31,33,-1,-1,-1,-1,-1,-1,-1,-1,-1,-1,-1,-1,-1,-1],"loss_changes":[4.625284E-3,1.972327E-4,1.6912867E-3,0E0,1.0467309E-4,2.5890372E-4,1.4077767E-3,8.324481E-5,0E0,2.1592795E-4,0E0,9.359182E-4,1.6652778E-4,4.037113E-5,3.949288E-5,1.4410689E-5,0E0,5.7820207E-6,2.1453016E-6,2.975294E-4,1.5453552E-6,0E0,0E0,0E0,0E0,0E0,0E0,0E0,0E0,0E0,0E0,0E0,0E0,0E0,0E0],"parents":[2147483647,0,0,1,1,2,2,4,4,5,5,6,6,7,7,9,9,11,11,12,12,13,13,14,14,15,15,17,17,18,18,19,19,20,20],"right_children":[2,4,6,-1,8,10,12,14,-1,16,-1,18,20,22,24,26,-1,28,30,32,34,-1,-1,-1,-1,-1,-1,-1,-1,-1,-1,-1,-1,-1,-1],"split_conditions":[1.5426461E1,1.04E3,7.5923805E0,-1.4289265E-3,6.3768E0,1.52E3,1.2E3,1.36E3,-8.601916E-4,7.112628E0,1.0199536E-3,5.4500127E-1,1.52E3,1.2E3,1.52E3,1.36E3,7.1976695E-4,8.488048E0,1.04E3,1.36E3,9.202244E0,-2.0668135E-4,1.1535585E-4,-6.571576E-4,-1.1278838E-4,2.8251027E-4,7.5488286E-5,6.507536E-5,-3.4066044E-5,-1.210764E-3,-4.6082088E-4,3.7343323E-4,-1.759857E-4,5.4655113E-4,1.4983192E-4],"split_indices":[2,4,0,0,0,4,4,4,0,0,0,1,4,4,4,4,0,0,4,4,0,0,0,0,0,0,0,0,0,0,0,0,0,0,0],"split_type":[0,0,0,0,0,0,0,0,0,0,0,0,0,0,0,0,0,0,0,0,0,0,0,0,0,0,0,0,0,0,0,0,0,0,0],"sum_hessian":[4.5E1,1E1,3.5E1,2E0,8E0,1.5E1,2E1,4E0,4E0,1.2E1,3E0,8E0,1.2E1,2E0,2E0,8E0,4E0,4E0,4E0,8E0,4E0,1E0,1E0,1E0,1E0,6E0,2E0,2E0,2E0,2E0,2E0,4E0,4E0,3E0,1E0],"tree_param":{"num_deleted":"0","num_feature":"5","num_nodes":"35","size_leaf_vector":"1"}},{"base_weights":[-8.1407244E-4,-1.8095065E-2,4.488844E-3,-1.3812955E-3,-1.2907554E-2,-3.589962E-3,9.793082E-3,-6.7179142E-3,-8.2578417E-4,5.900562E-3,-1.05725955E-2,1.4856493E-2,5.144837E-3,-1.1872351E-3,-1.0009289E-2,2.5590002E-3,4.7514887E-4,3.597021E-4,-1.9390374E-2,8.584604E-4,3.5475605E-4,7.058829E-3,-9.2635304E-4,-2.0151437E-4,1.1247173E-4,-6.4072834E-4,-1.09968336E-4,1.7087659E-4,4.2373442E-5,-3.448377E-5,6.445895E-5,-1.1704047E-3,-4.454598E-4,2.0359883E-4,5.260557E-4,2.320841E-4,-2.164796E-4],"categories":[],"categories_nodes":[],"categories_segments":[],"categories_sizes":[],"default_left":[0,0,0,0,0,0,0,0,0,0,0,0,0,0,0,0,0,0,0,0,0,0,0,0,0,0,0,0,0,0,0,0,0,0,0,0,0],"id":34,"left_children":[1,3,5,-1,7,9,11,13,-1,15,17,19,21,23,25,27,-1,29,31,-1,-1,33,35,-1,-1,-1,-1,-1,-1,-1,-1,-1,-1,-1,-1,-1,-1],"loss_changes":[4.29665E-3,1.872722E-4,1.5778258E-3,0E0,9.004632E-5,1.056417E-3,4.4135726E-4,7.9134305E-5,0E0,5.994574E-5,8.7456196E-4,5.7680765E-5,1.576017E-4,3.837776E-5,3.7543068E-5,4.450765E-6,0E0,5.7659754E-6,2.005021E-6,0E0,0E0,6.057165E-5,9.5894E-5,0E0,0E0,0E0,0E0,0E0,0E0,0E0,0E0,0E0,0E0,0E0,0E0,0E0,0E0],"parents":[2147483647,0,0,1,1,2,2,4,4,5,5,6,6,7,7,9,9,10,10,11,11,12,12,13,13,14,14,15,15,17,17,18,18,21,21,22,22],"right_children":[2,4,6,-1,8,10,12,14,-1,16,18,20,22,24,26,28,-1,30,32,-1,-1,34,36,-1,-1,-1,-1,-1,-1,-1,-1,-1,-1,-1,-1,-1,-1],"split_conditions":[1.5426461E1,1.04E3,1.2E3,-1.3812955E-3,6.3768E0,7.5923805E0,7.5923805E0,1.36E3,-8.2578417E-4,7.112628E0,5.4500127E-1,9.420197E-1,9.202244E0,1.2E3,1.52E3,6.7063003E0,4.7514887E-4,1.04E3,1.04E3,8.584604E-4,3.5475605E-4,1.52E3,1.36E3,-2.0151437E-4,1.1247173E-4,-6.4072834E-4,-1.09968336E-4,1.7087659E-4,4.2373442E-5,-3.448377E-5,6.445895E-5,-1.1704047E-3,-4.454598E-4,2.0359883E-4,5.260557E-4,2.320841E-4,-2.164796E-4],"split_indices":[2,4,4,0,0,0,0,4,0,0,1,1,0,4,4,0,0,4,4,0,0,4,4,0,0,0,0,0,0,0,0,0,0,0,0,0,0],"split_type":[0,0,0,0,0,0,0,0,0,0,0,0,0,0,0,0,0,0,0,0,0,0,0,0,0,0,0,0,0,0,0,0,0,0,0,0,0],"sum_hessian":[4.5E1,1E1,3.5E1,2E0,8E0,1.4E1,2.1E1,4E0,4E0,6E0,8E0,9E0,1.2E1,2E0,2E0,4E0,2E0,4E0,4E0,6E0,3E0,9E0,3E0,1E0,1E0,1E0,1E0,2E0,2E0,2E0,2E0,2E0,2E0,6E0,3E0,1E0,2E0],"tree_param":{"num_deleted":"0","num_feature":"5","num_nodes":"37","size_leaf_vector":"1"}},{"base_weights":[-8.165402E-4,-1.746729E-2,4.2938706E-3,-1.1677298E-3,-1.0766745E-2,-3.4702995E-3,9.392447E-3,-3.8317542E-3,-6.3871953E-4,5.703875E-3,-1.022018E-2,5.573527E-3,1.5378866E-2,1.0965988E-4,-3.9704144E-4,2.473694E-3,4.5931092E-4,3.4770966E-4,-1.8744033E-2,1.0582851E-2,1.0581049E-3,9.6220645E-4,3.351286E-4,1.6518036E-4,4.096081E-5,6.240606E-5,-3.3430257E-5,-1.1313915E-3,-4.3061128E-4,6.019336E-4,2.3144335E-4,3.8475843E-4,-2.8952895E-4],"categories":[],"categories_nodes":[],"categories_segments":[],"categories_sizes":[],"default_left":[0,0,0,0,0,0,0,0,0,0,0,0,0,0,0,0,0,0,0,0,0,0,0,0,0,0,0,0,0,0,0,0,0],"id":35,"left_children":[1,3,5,-1,7,9,11,13,-1,15,17,19,21,-1,-1,23,-1,25,27,29,31,-1,-1,-1,-1,-1,-1,-1,-1,-1,-1,-1,-1],"loss_changes":[3.9892425E-3,1.8247683E-4,1.4576984E-3,0E0,4.851271E-5,9.871634E-4,4.1724206E-4,9.168673E-5,0E0,5.6016288E-5,8.1722974E-4,3.2809045E-4,1.3930409E-4,0E0,0E0,4.1589956E-6,0E0,5.4100083E-6,1.8733554E-6,4.950154E-6,4.5365584E-4,0E0,0E0,0E0,0E0,0E0,0E0,0E0,0E0,0E0,0E0,0E0,0E0],"parents":[2147483647,0,0,1,1,2,2,4,4,5,5,6,6,7,7,9,9,10,10,11,11,12,12,15,15,17,17,18,18,19,19,20,20],"right_children":[2,4,6,-1,8,10,12,14,-1,16,18,20,22,-1,-1,24,-1,26,28,30,32,-1,-1,-1,-1,-1,-1,-1,-1,-1,-1,-1,-1],"split_conditions":[1.5426461E1,1.2E3,1.2E3,-1.1677298E-3,1.36E3,7.5923805E0,1.52E3,6.3768E0,-6.3871953E-4,7.112628E0,5.4500127E-1,6.195662E-1,8.078928E0,1.0965988E-4,-3.9704144E-4,6.7063003E0,4.5931092E-4,8.488048E0,1.04E3,8.488048E0,1.36E3,9.6220645E-4,3.351286E-4,1.6518036E-4,4.096081E-5,6.240606E-5,-3.3430257E-5,-1.1313915E-3,-4.3061128E-4,6.019336E-4,2.3144335E-4,3.8475843E-4,-2.8952895E-4],"split_indices":[2,4,4,0,4,0,4,0,0,0,1,1,0,0,0,0,0,0,4,0,4,0,0,0,0,0,0,0,0,0,0,0,0],"split_type":[0,0,0,0,0,0,0,0,0,0,0,0,0,0,0,0,0,0,0,0,0,0,0,0,0,0,0,0,0,0,0,0,0],"sum_hessian":[4.5E1,1E1,3.5E1,4E0,6E0,1.4E1,2.1E1,2E0,4E0,6E0,8E0,1.4E1,7E0,1E0,1E0,4E0,2E0,4E0,4E0,6E0,8E0,4E0,3E0,2E0,2E0,2E0,2E0,2E0,2E0,4E0,2E0,4E0,4E0],"tree_param":{"num_deleted":"0","num_feature":"5","num_nodes":"33","size_leaf_vector":"1"}},{"base_weights":[-7.9169933E-4,-1.6784268E-2,4.11691E-3,-1.296327E-3,-1.1871924E-2,1.1041574E-2,-1.3550676E-3,-6.0828626E-3,-7.6433003E-4,7.929772E-3,9.1972685E-4,-9.879506E-3,4.6507027E-3,-8.0486137E-4,-9.333243E-3,4.3087867E-3,6.430796E-4,3.3612252E-4,-1.8119235E-2,1.7622808E-3,4.4598608E-4,-1.6728268E-4,1.06918065E-4,-6.0874224E-4,-9.1250986E-5,6.227543E-5,2.5030397E-4,-3.3817192E-5,6.1827406E-5,-1.0936786E-3,-4.1625748E-4,3.3541353E-4,-1.7680824E-4],"categories":[],"categories_nodes":[],"categories_segments":[],"categories_sizes":[],"default_left":[0,0,0,0,0,0,0,0,0,0,0,0,0,0,0,0,0,0,0,0,0,0,0,0,0,0,0,0,0,0,0,0,0],"id":36,"left_children":[1,3,5,-1,7,9,11,13,-1,15,-1,17,19,21,23,25,-1,27,29,31,-1,-1,-1,-1,-1,-1,-1,-1,-1,-1,-1,-1,-1],"loss_changes":[3.6801577E-3,1.862119E-4,1.3790599E-3,0E0,8.492358E-5,2.202309E-4,1.121059E-3,7.8265584E-5,0E0,1.767368E-4,0E0,7.6365616E-4,1.4458038E-4,2.9588566E-5,4.1786814E-5,1.2988894E-5,0E0,5.394584E-6,1.7508864E-6,2.5957605E-4,0E0,0E0,0E0,0E0,0E0,0E0,0E0,0E0,0E0,0E0,0E0,0E0,0E0],"parents":[2147483647,0,0,1,1,2,2,4,4,5,5,6,6,7,7,9,9,11,11,12,12,13,13,14,14,15,15,17,17,18,18,19,19],"right_children":[2,4,6,-1,8,10,12,14,-1,16,-1,18,20,22,24,26,-1,28,30,32,-1,-1,-1,-1,-1,-1,-1,-1,-1,-1,-1,-1,-1],"split_conditions":[1.5426461E1,1.04E3,7.5923805E0,-1.296327E-3,6.3768E0,1.52E3,1.2E3,1.36E3,-7.6433003E-4,7.112628E0,9.1972685E-4,5.4500127E-1,1.52E3,1.2E3,1.52E3,1.04E3,6.430796E-4,1.04E3,1.04E3,5.4500127E-1,4.4598608E-4,-1.6728268E-4,1.06918065E-4,-6.0874224E-4,-9.1250986E-5,6.227543E-5,2.5030397E-4,-3.3817192E-5,6.1827406E-5,-1.0936786E-3,-4.1625748E-4,3.3541353E-4,-1.7680824E-4],"split_indices":[2,4,0,0,0,4,4,4,0,0,0,1,4,4,4,4,0,4,4,1,0,0,0,0,0,0,0,0,0,0,0,0,0],"split_type":[0,0,0,0,0,0,0,0,0,0,0,0,0,0,0,0,0,0,0,0,0,0,0,0,0,0,0,0,0,0,0,0,0],"sum_hessian":[4.5E1,1E1,3.5E1,2E0,8E0,1.5E1,2E1,4E0,4E0,1.2E1,3E0,8E0,1.2E1,2E0,2E0,8E0,4E0,4E0,4E0,8E0,4E0,1E0,1E0,1E0,1E0,2E0,6E0,2E0,2E0,2E0,2E0,4E0,4E0],"tree_param":{"num_deleted":"0","num_feature":"5","num_nodes":"33","size_leaf_vector":"1"}},{"base_weights":[-7.917447E-4,-1.6201504E-2,3.9387858E-3,-1.2531157E-3,-1.1447734E-2,1.0606704E-2,-1.3290942E-3,-5.9307935E-3,-7.337564E-4,7.6067927E-3,1.770474E-2,-9.5501905E-3,4.464672E-3,-7.847448E-4,-9.099911E-3,4.128072E-3,6.173566E-4,1.0008097E-3,2.6925953E-4,3.2491685E-4,-1.751526E-2,1.6917884E-3,4.2814642E-4,-1.6310066E-4,1.042448E-4,-5.9352367E-4,-8.896962E-5,2.4220794E-4,5.4058928E-5,5.985896E-5,-3.2782555E-5,-1.0572225E-3,-4.0238255E-4,3.3086629E-4,-1.7860532E-4],"categories":[],"categories_nodes":[],"categories_segments":[],"categories_sizes":[],"default_left":[0,0,0,0,0,0,0,0,0,0,0,0,0,0,0,0,0,0,0,0,0,0,0,0,0,0,0,0,0,0,0,0,0,0,0],"id":37,"left_children":[1,3,5,-1,7,9,11,13,-1,15,17,19,21,23,25,27,-1,-1,-1,29,31,33,-1,-1,-1,-1,-1,-1,-1,-1,-1,-1,-1,-1,-1],"loss_changes":[3.4170456E-3,1.7643836E-4,1.2786258E-3,0E0,7.32129E-5,2.0601938E-4,1.0428918E-3,7.440105E-5,0E0,1.6340427E-4,6.1132014E-6,7.1359414E-4,1.332452E-4,2.812757E-5,3.9723644E-5,1.4399149E-5,0E0,0E0,0E0,5.061494E-6,1.6357517E-6,2.5698537E-4,0E0,0E0,0E0,0E0,0E0,0E0,0E0,0E0,0E0,0E0,0E0,0E0,0E0],"parents":[2147483647,0,0,1,1,2,2,4,4,5,5,6,6,7,7,9,9,10,10,11,11,12,12,13,13,14,14,15,15,19,19,20,20,21,21],"right_children":[2,4,6,-1,8,10,12,14,-1,16,18,20,22,24,26,28,-1,-1,-1,30,32,34,-1,-1,-1,-1,-1,-1,-1,-1,-1,-1,-1,-1,-1],"split_conditions":[1.5426461E1,1.04E3,7.5923805E0,-1.2531157E-3,6.3768E0,1.52E3,1.2E3,1.36E3,-7.337564E-4,7.112628E0,9.420197E-1,5.4500127E-1,1.52E3,1.2E3,1.52E3,1.36E3,6.173566E-4,1.0008097E-3,2.6925953E-4,8.488048E0,1.04E3,1.36E3,4.2814642E-4,-1.6310066E-4,1.042448E-4,-5.9352367E-4,-8.896962E-5,2.4220794E-4,5.4058928E-5,5.985896E-5,-3.2782555E-5,-1.0572225E-3,-4.0238255E-4,3.3086629E-4,-1.7860532E-4],"split_indices":[2,4,0,0,0,4,4,4,0,0,1,1,4,4,4,4,0,0,0,0,4,4,0,0,0,0,0,0,0,0,0,0,0,0,0],"split_type":[0,0,0,0,0,0,0,0,0,0,0,0,0,0,0,0,0,0,0,0,0,0,0,0,0,0,0,0,0,0,0,0,0,0,0],"sum_hessian":[4.5E1,1E1,3.5E1,2E0,8E0,1.5E1,2E1,4E0,4E0,1.2E1,3E0,8E0,1.2E1,2E0,2E0,8E0,4E0,2E0,1E0,4E0,4E0,8E0,4E0,1E0,1E0,1E0,1E0,6E0,2E0,2E0,2E0,2E0,2E0,4E0,4E0],"tree_param":{"num_deleted":"0","num_feature":"5","num_nodes":"35","size_leaf_vector":"1"}},{"base_weights":[-7.8251766E-4,-1.5639447E-2,3.778836E-3,-1.2113447E-3,-1.1039247E-2,-3.240353E-3,8.392882E-3,-5.782527E-3,-7.0440595E-4,4.9259067E-3,-9.231849E-3,1.2892425E-2,4.2860876E-3,-7.65125E-4,-8.87242E-3,6.5805195E-3,5.262494E-4,3.140807E-4,-1.6931409E-2,7.475097E-4,3.0341113E-4,6.0326755E-3,-1.1519045E-3,-1.5902297E-4,1.0163859E-4,-5.7868584E-4,-8.674562E-5,9.250989E-5,4.5586677E-4,1.2197196E-4,-8.250326E-5,-3.3141176E-5,5.9314567E-5,-1.0219812E-3,-3.889695E-4,1.7196665E-4,4.5314283E-4,2.1281243E-4,-2.1866859E-4],"categories":[],"categories_nodes":[],"categories_segments":[],"categories_sizes":[],"default_left":[0,0,0,0,0,0,0,0,0,0,0,0,0,0,0,0,0,0,0,0,0,0,0,0,0,0,0,0,0,0,0,0,0,0,0,0,0,0,0],"id":38,"left_children":[1,3,5,-1,7,9,11,13,-1,15,17,19,21,23,25,27,29,31,33,-1,-1,35,37,-1,-1,-1,-1,-1,-1,-1,-1,-1,-1,-1,-1,-1,-1,-1,-1],"loss_changes":[3.1764132E-3,1.6709697E-4,1.1931226E-3,0E0,6.277871E-5,7.7939685E-4,3.5127345E-4,7.072765E-5,0E0,4.749511E-5,6.6681294E-4,4.9705268E-5,1.3042218E-4,2.6738713E-5,3.776219E-5,4.3130887E-5,1.6516344E-5,5.0466333E-6,1.5285332E-6,0E0,0E0,4.7412817E-5,8.83029E-5,0E0,0E0,0E0,0E0,0E0,0E0,0E0,0E0,0E0,0E0,0E0,0E0,0E0,0E0,0E0,0E0],"parents":[2147483647,0,0,1,1,2,2,4,4,5,5,6,6,7,7,9,9,10,10,11,11,12,12,13,13,14,14,15,15,16,16,17,17,18,18,21,21,22,22],"right_children":[2,4,6,-1,8,10,12,14,-1,16,18,20,22,24,26,28,30,32,34,-1,-1,36,38,-1,-1,-1,-1,-1,-1,-1,-1,-1,-1,-1,-1,-1,-1,-1,-1],"split_conditions":[1.5426461E1,1.04E3,1.2E3,-1.2113447E-3,6.3768E0,7.5923805E0,7.5923805E0,1.36E3,-7.0440595E-4,9.420197E-1,5.4500127E-1,9.420197E-1,9.202244E0,1.2E3,1.52E3,1.04E3,1.04E3,1.04E3,1.04E3,7.475097E-4,3.0341113E-4,1.52E3,1.36E3,-1.5902297E-4,1.0163859E-4,-5.7868584E-4,-8.674562E-5,9.250989E-5,4.5586677E-4,1.2197196E-4,-8.250326E-5,-3.3141176E-5,5.9314567E-5,-1.0219812E-3,-3.889695E-4,1.7196665E-4,4.5314283E-4,2.1281243E-4,-2.1866859E-4],"split_indices":[2,4,4,0,0,0,0,4,0,1,1,1,0,4,4,4,4,4,4,0,0,4,4,0,0,0,0,0,0,0,0,0,0,0,0,0,0,0,0],"split_type":[0,0,0,0,0,0,0,0,0,0,0,0,0,0,0,0,0,0,0,0,0,0,0,0,0,0,0,0,0,0,0,0,0,0,0,0,0,0,0],"sum_hessian":[4.5E1,1E1,3.5E1,2E0,8E0,1.4E1,2.1E1,4E0,4E0,6E0,8E0,9E0,1.2E1,2E0,2E0,4E0,2E0,4E0,4E0,6E0,3E0,9E0,3E0,1E0,1E0,1E0,1E0,2E0,2E0,1E0,1E0,2E0,2E0,2E0,2E0,6E0,3E0,1E0,2E0],"tree_param":{"num_deleted":"0","num_feature":"5","num_nodes":"39","size_leaf_vector":"1"}},{"base_weights":[-7.817661E-4,-1.50973415E-2,3.6141532E-3,-1.1709665E-3,-1.0645863E-2,-3.131461E-3,8.0491565E-3,-5.6379614E-3,-6.762296E-4,4.7635906E-3,-8.924116E-3,4.6913666E-3,1.3338868E-2,-7.459919E-4,-8.650611E-3,1.9548654E-3,3.9284676E-4,3.0361413E-4,-1.6367024E-2,9.265623E-3,6.123483E-4,1.684321E-2,2.8118605E-4,-1.5504732E-4,9.909794E-5,-5.642191E-4,-8.457676E-5,1.3725112E-4,2.5654337E-5,5.7427093E-5,-3.212591E-5,-9.879152E-4,-3.760035E-4,5.2602676E-4,2.0427804E-4,3.420803E-4,-2.8696895E-4,9.252295E-4,2.5494248E-4],"categories":[],"categories_nodes":[],"categories_segments":[],"categories_sizes":[],"default_left":[0,0,0,0,0,0,0,0,0,0,0,0,0,0,0,0,0,0,0,0,0,0,0,0,0,0,0,0,0,0,0,0,0,0,0,0,0,0,0],"id":39,"left_children":[1,3,5,-1,7,9,11,13,-1,15,17,19,21,23,25,27,-1,29,31,33,35,37,-1,-1,-1,-1,-1,-1,-1,-1,-1,-1,-1,-1,-1,-1,-1,-1,-1],"loss_changes":[2.9493493E-3,1.5817769E-4,1.1022112E-3,0E0,5.3496333E-5,7.2851055E-4,3.2818085E-4,6.7235655E-5,0E0,4.5459237E-5,6.2309956E-4,2.742033E-4,1.2157066E-4,2.5418547E-5,3.5897887E-5,4.2877255E-6,0E0,4.735026E-6,1.4287652E-6,2.5213812E-6,3.9536544E-4,3.2070093E-6,0E0,0E0,0E0,0E0,0E0,0E0,0E0,0E0,0E0,0E0,0E0,0E0,0E0,0E0,0E0,0E0,0E0],"parents":[2147483647,0,0,1,1,2,2,4,4,5,5,6,6,7,7,9,9,10,10,11,11,12,12,13,13,14,14,15,15,17,17,18,18,19,19,20,20,21,21],"right_children":[2,4,6,-1,8,10,12,14,-1,16,18,20,22,24,26,28,-1,30,32,34,36,38,-1,-1,-1,-1,-1,-1,-1,-1,-1,-1,-1,-1,-1,-1,-1,-1,-1],"split_conditions":[1.5426461E1,1.04E3,1.2E3,-1.1709665E-3,6.3768E0,7.5923805E0,1.52E3,1.36E3,-6.762296E-4,7.112628E0,5.4500127E-1,6.195662E-1,8.078928E0,1.2E3,1.52E3,6.7063003E0,3.9284676E-4,8.488048E0,1.04E3,8.488048E0,1.36E3,9.922894E-1,2.8118605E-4,-1.5504732E-4,9.909794E-5,-5.642191E-4,-8.457676E-5,1.3725112E-4,2.5654337E-5,5.7427093E-5,-3.212591E-5,-9.879152E-4,-3.760035E-4,5.2602676E-4,2.0427804E-4,3.420803E-4,-2.8696895E-4,9.252295E-4,2.5494248E-4],"split_indices":[2,4,4,0,0,0,4,4,0,0,1,1,0,4,4,0,0,0,4,0,4,1,0,0,0,0,0,0,0,0,0,0,0,0,0,0,0,0,0],"split_type":[0,0,0,0,0,0,0,0,0,0,0,0,0,0,0,0,0,0,0,0,0,0,0,0,0,0,0,0,0,0,0,0,0,0,0,0,0,0,0],"sum_hessian":[4.5E1,1E1,3.5E1,2E0,8E0,1.4E1,2.1E1,4E0,4E0,6E0,8E0,1.4E1,7E0,2E0,2E0,4E0,2E0,4E0,4E0,6E0,8E0,4E0,3E0,1E0,1E0,1E0,1E0,2E0,2E0,2E0,2E0,2E0,2E0,4E0,2E0,4E0,4E0,3E0,1E0],"tree_param":{"num_deleted":"0","num_feature":"5","num_nodes":"39","size_leaf_vector":"1"}},{"base_weights":[-7.6633046E-4,-1.4574468E-2,3.4741098E-3,-9.871525E-4,-8.800558E-3,9.530932E-3,-1.3060456E-3,-2.9136837E-3,-5.2862853E-4,6.7577455E-3,1.6161054E-2,-8.626644E-3,3.8625253E-3,9.662062E-5,-3.151469E-4,3.6072896E-3,5.5385084E-4,9.1169076E-4,2.4856927E-4,2.9349327E-4,-1.5821451E-2,3.329277E-4,5.147074E-4,2.1290842E-4,4.4307115E-5,-3.2458207E-5,5.6915982E-5,-9.549846E-4,-3.6346962E-4,-1.7726362E-4,3.5548856E-4],"categories":[],"categories_nodes":[],"categories_segments":[],"categories_sizes":[],"default_left":[0,0,0,0,0,0,0,0,0,0,0,0,0,0,0,0,0,0,0,0,0,0,0,0,0,0,0,0,0,0,0],"id":40,"left_children":[1,3,5,-1,7,9,11,13,-1,15,17,19,21,-1,-1,23,-1,-1,-1,25,27,-1,29,-1,-1,-1,-1,-1,-1,-1,-1],"loss_changes":[2.7440519E-3,1.5452225E-4,1.0547396E-3,0E0,4.2216154E-5,1.8497277E-4,8.278982E-4,6.145383E-5,0E0,1.3694173E-4,2.1267915E-6,5.822516E-4,1.18260534E-4,0E0,0E0,1.2166907E-5,0E0,0E0,0E0,4.720865E-6,1.3352837E-6,0E0,2.1263686E-4,0E0,0E0,0E0,0E0,0E0,0E0,0E0,0E0],"parents":[2147483647,0,0,1,1,2,2,4,4,5,5,6,6,7,7,9,9,10,10,11,11,12,12,15,15,19,19,20,20,22,22],"right_children":[2,4,6,-1,8,10,12,14,-1,16,18,20,22,-1,-1,24,-1,-1,-1,26,28,-1,30,-1,-1,-1,-1,-1,-1,-1,-1],"split_conditions":[1.5426461E1,1.2E3,7.5923805E0,-9.871525E-4,1.36E3,1.52E3,1.2E3,6.3768E0,-5.2862853E-4,7.112628E0,9.420197E-1,5.4500127E-1,5.4500127E-1,9.662062E-5,-3.151469E-4,1.36E3,5.5385084E-4,9.1169076E-4,2.4856927E-4,1.04E3,1.04E3,3.329277E-4,1.52E3,2.1290842E-4,4.4307115E-5,-3.2458207E-5,5.6915982E-5,-9.549846E-4,-3.6346962E-4,-1.7726362E-4,3.5548856E-4],"split_indices":[2,4,0,0,4,4,4,0,0,0,1,1,1,0,0,4,0,0,0,4,4,0,4,0,0,0,0,0,0,0,0],"split_type":[0,0,0,0,0,0,0,0,0,0,0,0,0,0,0,0,0,0,0,0,0,0,0,0,0,0,0,0,0,0,0],"sum_hessian":[4.5E1,1E1,3.5E1,4E0,6E0,1.5E1,2E1,2E0,4E0,1.2E1,3E0,8E0,1.2E1,1E0,1E0,8E0,4E0,2E0,1E0,4E0,4E0,6E0,6E0,6E0,2E0,2E0,2E0,2E0,2E0,4E0,2E0],"tree_param":{"num_deleted":"0","num_feature":"5","num_nodes":"31","size_leaf_vector":"1"}},{"base_weights":[-7.398789E-4,-1.400341E-2,3.3334186E-3,-1.0990297E-3,-9.7884135E-3,9.1775935E-3,-1.2780201E-3,-5.1074503E-3,-6.2558474E-4,6.482248E-3,7.821534E-4,-8.33909E-3,3.7087225E-3,-4.3049455E-4,-8.081923E-3,3.4555031E-3,1.063394E-2,2.8370618E-4,-1.5294069E-2,3.1865964E-4,5.1443494E-4,-1.2649223E-4,9.420514E-5,-5.368978E-4,-6.9246445E-5,3.8739046E-5,2.0553706E-4,1.56568E-4,5.8633724E-4,5.510499E-5,-3.146281E-5,-9.231518E-4,-3.5135399E-4,-1.7017305E-4,3.4363914E-4],"categories":[],"categories_nodes":[],"categories_segments":[],"categories_sizes":[],"default_left":[0,0,0,0,0,0,0,0,0,0,0,0,0,0,0,0,0,0,0,0,0,0,0,0,0,0,0,0,0,0,0,0,0,0,0],"id":41,"left_children":[1,3,5,-1,7,9,11,13,-1,15,-1,17,19,21,23,25,27,29,31,-1,33,-1,-1,-1,-1,-1,-1,-1,-1,-1,-1,-1,-1,-1,-1],"loss_changes":[2.5318894E-3,1.5470665E-4,9.819311E-4,0E0,5.08253E-5,1.7742475E-4,7.7037397E-4,6.6078166E-5,0E0,1.2661377E-4,0E0,5.440813E-4,1.0736547E-4,1.934394E-5,3.8490994E-5,1.262367E-5,4.2736065E-6,4.429316E-6,1.2477394E-6,0E0,1.9777067E-4,0E0,0E0,0E0,0E0,0E0,0E0,0E0,0E0,0E0,0E0,0E0,0E0,0E0,0E0],"parents":[2147483647,0,0,1,1,2,2,4,4,5,5,6,6,7,7,9,9,11,11,12,12,13,13,14,14,15,15,16,16,17,17,18,18,20,20],"right_children":[2,4,6,-1,8,10,12,14,-1,16,-1,18,20,22,24,26,28,30,32,-1,34,-1,-1,-1,-1,-1,-1,-1,-1,-1,-1,-1,-1,-1,-1],"split_conditions":[1.5426461E1,1.04E3,7.5923805E0,-1.0990297E-3,6.3768E0,1.52E3,1.2E3,1.36E3,-6.2558474E-4,7.112628E0,7.821534E-4,5.4500127E-1,5.4500127E-1,1.2E3,1.52E3,1.04E3,1.04E3,8.488048E0,1.04E3,3.1865964E-4,1.52E3,-1.2649223E-4,9.420514E-5,-5.368978E-4,-6.9246445E-5,3.8739046E-5,2.0553706E-4,1.56568E-4,5.8633724E-4,5.510499E-5,-3.146281E-5,-9.231518E-4,-3.5135399E-4,-1.7017305E-4,3.4363914E-4],"split_indices":[2,4,0,0,0,4,4,4,0,0,0,1,1,4,4,4,4,0,4,0,4,0,0,0,0,0,0,0,0,0,0,0,0,0,0],"split_type":[0,0,0,0,0,0,0,0,0,0,0,0,0,0,0,0,0,0,0,0,0,0,0,0,0,0,0,0,0,0,0,0,0,0,0],"sum_hessian":[4.5E1,1E1,3.5E1,2E0,8E0,1.5E1,2E1,4E0,4E0,1.2E1,3E0,8E0,1.2E1,2E0,2E0,8E0,4E0,4E0,4E0,6E0,6E0,1E0,1E0,1E0,1E0,2E0,6E0,1E0,3E0,2E0,2E0,2E0,2E0,4E0,2E0],"tree_param":{"num_deleted":"0","num_feature":"5","num_nodes":"35","size_leaf_vector":"1"}},{"base_weights":[-7.3228776E-4,-1.3518065E-2,3.194819E-3,-1.0623957E-3,-9.439442E-3,8.829292E-3,-1.2502471E-3,-4.9797655E-3,-6.005615E-4,6.234068E-3,1.5056446E-2,-8.061121E-3,3.561146E-3,-4.197359E-4,-7.879873E-3,3.3098625E-3,1.02508245E-2,8.5522933E-4,2.2280068E-4,2.742529E-4,-1.4784271E-2,5.101857E-3,-1.180917E-3,-1.233302E-4,9.1850015E-5,-5.234756E-4,-6.751493E-5,1.9735757E-4,3.5978355E-5,1.5265346E-4,5.643498E-4,-3.177027E-5,5.4624677E-5,-8.923799E-4,-3.3964266E-4,1.4011754E-4,3.925264E-4,2.0762607E-4,-2.1714519E-4],"categories":[],"categories_nodes":[],"categories_segments":[],"categories_sizes":[],"default_left":[0,0,0,0,0,0,0,0,0,0,0,0,0,0,0,0,0,0,0,0,0,0,0,0,0,0,0,0,0,0,0,0,0,0,0,0,0,0,0],"id":42,"left_children":[1,3,5,-1,7,9,11,13,-1,15,17,19,21,23,25,27,29,-1,-1,31,33,35,37,-1,-1,-1,-1,-1,-1,-1,-1,-1,-1,-1,-1,-1,-1,-1,-1],"loss_changes":[2.352899E-3,1.4623022E-4,9.126805E-4,0E0,4.3410982E-5,1.6471092E-4,7.1687246E-4,6.281542E-5,0E0,1.18766795E-4,1.0626391E-5,5.084143E-4,1.010048E-4,1.8388877E-5,3.6590733E-5,1.2016659E-5,2.8305803E-6,0E0,0E0,4.415773E-6,1.1655502E-6,4.120593E-5,8.549105E-5,0E0,0E0,0E0,0E0,0E0,0E0,0E0,0E0,0E0,0E0,0E0,0E0,0E0,0E0,0E0,0E0],"parents":[2147483647,0,0,1,1,2,2,4,4,5,5,6,6,7,7,9,9,10,10,11,11,12,12,13,13,14,14,15,15,16,16,19,19,20,20,21,21,22,22],"right_children":[2,4,6,-1,8,10,12,14,-1,16,18,20,22,24,26,28,30,-1,-1,32,34,36,38,-1,-1,-1,-1,-1,-1,-1,-1,-1,-1,-1,-1,-1,-1,-1,-1],"split_conditions":[1.5426461E1,1.04E3,7.5923805E0,-1.0623957E-3,6.3768E0,1.52E3,1.2E3,1.36E3,-6.005615E-4,7.112628E0,9.420197E-1,5.4500127E-1,9.202244E0,1.2E3,1.52E3,1.36E3,1.04E3,8.5522933E-4,2.2280068E-4,1.04E3,1.04E3,1.52E3,1.36E3,-1.233302E-4,9.1850015E-5,-5.234756E-4,-6.751493E-5,1.9735757E-4,3.5978355E-5,1.5265346E-4,5.643498E-4,-3.177027E-5,5.4624677E-5,-8.923799E-4,-3.3964266E-4,1.4011754E-4,3.925264E-4,2.0762607E-4,-2.1714519E-4],"split_indices":[2,4,0,0,0,4,4,4,0,0,1,1,0,4,4,4,4,0,0,4,4,4,4,0,0,0,0,0,0,0,0,0,0,0,0,0,0,0,0],"split_type":[0,0,0,0,0,0,0,0,0,0,0,0,0,0,0,0,0,0,0,0,0,0,0,0,0,0,0,0,0,0,0,0,0,0,0,0,0,0,0],"sum_hessian":[4.5E1,1E1,3.5E1,2E0,8E0,1.5E1,2E1,4E0,4E0,1.2E1,3E0,8E0,1.2E1,2E0,2E0,8E0,4E0,2E0,1E0,4E0,4E0,9E0,3E0,1E0,1E0,1E0,1E0,6E0,2E0,1E0,3E0,2E0,2E0,2E0,2E0,6E0,3E0,1E0,2E0],"tree_param":{"num_deleted":"0","num_feature":"5","num_nodes":"39","size_leaf_vector":"1"}},{"base_weights":[-7.1617635E-4,-1.304993E-2,3.0723645E-3,-1.0269826E-3,-9.103364E-3,8.514605E-3,-1.2204079E-3,-4.855275E-3,-5.765391E-4,5.995475E-3,1.4573127E-2,-7.7924165E-3,3.4233218E-3,-4.092455E-4,-7.68288E-3,3.1703014E-3,9.881693E-3,8.2672137E-4,2.1723063E-4,2.6510953E-4,-1.429146E-2,1.108057E-3,3.453067E-4,-1.20247154E-4,8.9553745E-5,-5.1038864E-4,-6.582737E-5,3.0869247E-5,1.9057542E-4,1.4883727E-4,5.431872E-4,5.28872E-5,-3.079474E-5,-8.626342E-4,-3.2832075E-4,2.8383732E-4,-1.841122E-4],"categories":[],"categories_nodes":[],"categories_segments":[],"categories_sizes":[],"default_left":[0,0,0,0,0,0,0,0,0,0,0,0,0,0,0,0,0,0,0,0,0,0,0,0,0,0,0,0,0,0,0,0,0,0,0,0,0],"id":43,"left_children":[1,3,5,-1,7,9,11,13,-1,15,17,19,21,23,25,27,29,-1,-1,31,33,35,-1,-1,-1,-1,-1,-1,-1,-1,-1,-1,-1,-1,-1,-1,-1],"loss_changes":[2.1895326E-3,1.3816566E-4,8.514342E-4,0E0,3.6821817E-5,1.568225E-4,6.675672E-4,5.9713886E-5,0E0,1.1140219E-4,8.409144E-6,4.7508464E-4,9.717485E-5,1.7480957E-5,3.478391E-5,1.2379358E-5,1.5664846E-6,0E0,0E0,4.143031E-6,1.0897638E-6,2.1787173E-4,0E0,0E0,0E0,0E0,0E0,0E0,0E0,0E0,0E0,0E0,0E0,0E0,0E0,0E0,0E0],"parents":[2147483647,0,0,1,1,2,2,4,4,5,5,6,6,7,7,9,9,10,10,11,11,12,12,13,13,14,14,15,15,16,16,19,19,20,20,21,21],"right_children":[2,4,6,-1,8,10,12,14,-1,16,18,20,22,24,26,28,30,-1,-1,32,34,36,-1,-1,-1,-1,-1,-1,-1,-1,-1,-1,-1,-1,-1,-1,-1],"split_conditions":[1.5426461E1,1.04E3,7.5923805E0,-1.0269826E-3,6.3768E0,1.52E3,1.2E3,1.36E3,-5.765391E-4,7.112628E0,9.420197E-1,5.4500127E-1,1.52E3,1.2E3,1.52E3,1.04E3,1.04E3,8.2672137E-4,2.1723063E-4,8.488048E0,1.04E3,1.36E3,3.453067E-4,-1.20247154E-4,8.9553745E-5,-5.1038864E-4,-6.582737E-5,3.0869247E-5,1.9057542E-4,1.4883727E-4,5.431872E-4,5.28872E-5,-3.079474E-5,-8.626342E-4,-3.2832075E-4,2.8383732E-4,-1.841122E-4],"split_indices":[2,4,0,0,0,4,4,4,0,0,1,1,4,4,4,4,4,0,0,0,4,4,0,0,0,0,0,0,0,0,0,0,0,0,0,0,0],"split_type":[0,0,0,0,0,0,0,0,0,0,0,0,0,0,0,0,0,0,0,0,0,0,0,0,0,0,0,0,0,0,0,0,0,0,0,0,0],"sum_hessian":[4.5E1,1E1,3.5E1,2E0,8E0,1.5E1,2E1,4E0,4E0,1.2E1,3E0,8E0,1.2E1,2E0,2E0,8E0,4E0,2E0,1E0,4E0,4E0,8E0,4E0,1E0,1E0,1E0,1E0,2E0,6E0,1E0,3E0,2E0,2E0,2E0,2E0,4E0,4E0],"tree_param":{"num_deleted":"0","num_feature":"5","num_nodes":"37","size_leaf_vector":"1"}},{"base_weights":[-7.0160563E-4,-1.2598384E-2,2.9530104E-3,-1.7243426E-2,-7.480728E-3,8.211212E-3,-1.1938583E-3,-7.882486E-3,-1.042828E-3,-2.331813E-3,-4.5369656E-4,5.765965E-3,1.4105462E-2,-7.532673E-3,3.2863868E-3,-4.739456E-4,-1.17240845E-4,8.7314846E-5,-2.6220083E-4,3.036383E-3,4.76301E-4,7.991642E-4,2.117999E-4,2.562642E-4,-1.3815075E-2,2.8903442E-4,3.226016E-4,1.830133E-4,2.8426448E-5,-3.107985E-5,5.2435204E-5,-8.3387987E-4,-3.1737637E-4,-1.6806812E-4,3.1775038E-4],"categories":[],"categories_nodes":[],"categories_segments":[],"categories_sizes":[],"default_left":[0,0,0,0,0,0,0,0,0,0,0,0,0,0,0,0,0,0,0,0,0,0,0,0,0,0,0,0,0,0,0,0,0,0,0],"id":44,"left_children":[1,3,5,7,9,11,13,15,-1,17,-1,19,21,23,25,-1,-1,-1,-1,27,-1,-1,-1,29,31,-1,33,-1,-1,-1,-1,-1,-1,-1,-1],"loss_changes":[2.0371983E-3,1.3249565E-4,7.9478556E-4,4.7100475E-6,3.6264188E-5,1.4927471E-4,6.2114367E-4,4.2951287E-6,0E0,4.4786473E-5,0E0,1.0449931E-4,6.4272317E-6,4.439394E-4,9.423858E-5,0E0,0E0,0E0,0E0,1.1775897E-5,0E0,0E0,0E0,4.130132E-6,1.0186341E-6,0E0,1.7692364E-4,0E0,0E0,0E0,0E0,0E0,0E0,0E0,0E0],"parents":[2147483647,0,0,1,1,2,2,3,3,4,4,5,5,6,6,7,7,9,9,11,11,12,12,13,13,14,14,19,19,23,23,24,24,26,26],"right_children":[2,4,6,8,10,12,14,16,-1,18,-1,20,22,24,26,-1,-1,-1,-1,28,-1,-1,-1,30,32,-1,34,-1,-1,-1,-1,-1,-1,-1,-1],"split_conditions":[1.5426461E1,1.2E3,7.5923805E0,6.3768E0,1.36E3,1.52E3,1.2E3,1.04E3,-1.042828E-3,6.3768E0,-4.5369656E-4,7.112628E0,9.420197E-1,5.4500127E-1,5.4500127E-1,-4.739456E-4,-1.17240845E-4,8.7314846E-5,-2.6220083E-4,1.36E3,4.76301E-4,7.991642E-4,2.117999E-4,1.04E3,1.04E3,2.8903442E-4,1.52E3,1.830133E-4,2.8426448E-5,-3.107985E-5,5.2435204E-5,-8.3387987E-4,-3.1737637E-4,-1.6806812E-4,3.1775038E-4],"split_indices":[2,4,0,0,4,4,4,4,0,0,0,0,1,1,1,0,0,0,0,4,0,0,0,4,4,0,4,0,0,0,0,0,0,0,0],"split_type":[0,0,0,0,0,0,0,0,0,0,0,0,0,0,0,0,0,0,0,0,0,0,0,0,0,0,0,0,0,0,0,0,0,0,0],"sum_hessian":[4.5E1,1E1,3.5E1,4E0,6E0,1.5E1,2E1,2E0,2E0,2E0,4E0,1.2E1,3E0,8E0,1.2E1,1E0,1E0,1E0,1E0,8E0,4E0,2E0,1E0,4E0,4E0,6E0,6E0,6E0,2E0,2E0,2E0,2E0,2E0,4E0,2E0],"tree_param":{"num_deleted":"0","num_feature":"5","num_nodes":"35","size_leaf_vector":"1"}},{"base_weights":[-6.938097E-4,-1.2174151E-2,2.833345E-3,-9.674698E-4,-8.429719E-3,-2.7211627E-3,6.4917207E-3,-4.5464216E-3,-5.313537E-4,3.530975E-3,-7.2815847E-3,1.0179224E-2,3.155816E-3,-3.8903952E-4,-7.18833E-3,4.9762367E-3,-5.4786604E-5,2.4772884E-4,-6.677291E-4,6.7400807E-3,1.3652921E-2,4.594931E-3,-1.2309253E-3,-1.1430979E-4,8.5131825E-5,-4.8628598E-4,-5.283877E-5,4.4739743E-5,3.6994668E-4,1.01708625E-4,-1.0581762E-4,5.0768256E-5,-3.0124187E-5,2.0028562E-4,4.5253336E-4,7.7252486E-4,2.0650476E-4,1.2611812E-4,3.536597E-4,1.9954071E-4,-2.1508883E-4],"categories":[],"categories_nodes":[],"categories_segments":[],"categories_sizes":[],"default_left":[0,0,0,0,0,0,0,0,0,0,0,0,0,0,0,0,0,0,0,0,0,0,0,0,0,0,0,0,0,0,0,0,0,0,0,0,0,0,0,0,0],"id":45,"left_children":[1,3,5,-1,7,9,11,13,-1,15,17,19,21,23,25,27,29,31,-1,33,35,37,39,-1,-1,-1,-1,-1,-1,-1,-1,-1,-1,-1,-1,-1,-1,-1,-1,-1,-1],"loss_changes":[1.8971687E-3,1.3242941E-4,7.492022E-4,0E0,2.8481649E-5,4.5339685E-4,2.3850176E-4,5.2120566E-5,0E0,3.6549187E-5,4.1483785E-4,2.7443632E-5,8.772533E-5,1.5797268E-5,3.6396523E-5,4.2819942E-5,1.7224605E-5,3.875011E-6,0E0,7.971597E-6,4.659989E-6,3.3522563E-5,8.130833E-5,0E0,0E0,0E0,0E0,0E0,0E0,0E0,0E0,0E0,0E0,0E0,0E0,0E0,0E0,0E0,0E0,0E0,0E0],"parents":[2147483647,0,0,1,1,2,2,4,4,5,5,6,6,7,7,9,9,10,10,11,11,12,12,13,13,14,14,15,15,16,16,17,17,19,19,20,20,21,21,22,22],"right_children":[2,4,6,-1,8,10,12,14,-1,16,18,20,22,24,26,28,30,32,-1,34,36,38,40,-1,-1,-1,-1,-1,-1,-1,-1,-1,-1,-1,-1,-1,-1,-1,-1,-1,-1],"split_conditions":[1.5426461E1,1.04E3,1.2E3,-9.674698E-4,6.3768E0,7.5923805E0,7.5923805E0,1.36E3,-5.313537E-4,9.420197E-1,5.4500127E-1,1.52E3,9.202244E0,1.2E3,1.52E3,1.04E3,1.04E3,8.488048E0,-6.677291E-4,7.112628E0,9.420197E-1,1.52E3,1.36E3,-1.1430979E-4,8.5131825E-5,-4.8628598E-4,-5.283877E-5,4.4739743E-5,3.6994668E-4,1.01708625E-4,-1.0581762E-4,5.0768256E-5,-3.0124187E-5,2.0028562E-4,4.5253336E-4,7.7252486E-4,2.0650476E-4,1.2611812E-4,3.536597E-4,1.9954071E-4,-2.1508883E-4],"split_indices":[2,4,4,0,0,0,0,4,0,1,1,4,0,4,4,4,4,0,0,0,1,4,4,0,0,0,0,0,0,0,0,0,0,0,0,0,0,0,0,0,0],"split_type":[0,0,0,0,0,0,0,0,0,0,0,0,0,0,0,0,0,0,0,0,0,0,0,0,0,0,0,0,0,0,0,0,0,0,0,0,0,0,0,0,0],"sum_hessian":[4.5E1,1E1,3.5E1,2E0,8E0,1.4E1,2.1E1,4E0,4E0,6E0,8E0,9E0,1.2E1,2E0,2E0,4E0,2E0,4E0,4E0,6E0,3E0,9E0,3E0,1E0,1E0,1E0,1E0,2E0,2E0,1E0,1E0,2E0,2E0,4E0,2E0,2E0,1E0,6E0,3E0,1E0,2E0],"tree_param":{"num_deleted":"0","num_feature":"5","num_nodes":"41","size_leaf_vector":"1"}},{"base_weights":[-6.6363293E-4,-1.1753366E-2,2.743331E-3,-1.6191935E-2,-6.903908E-3,-2.6008724E-3,6.2624095E-3,-7.3248246E-3,-9.830868E-4,-2.1247864E-3,-4.1953E-4,3.4130854E-3,-6.9894097E-3,9.8334495E-3,3.033732E-3,-4.3791012E-4,-1.1145174E-4,8.300319E-5,-2.4236218E-4,1.1466742E-3,3.026371E-4,2.3946763E-4,-1.2820405E-2,6.49634E-3,1.3215028E-2,2.6799185E-4,2.7423672E-4,9.822696E-5,-2.6707849E-6,-3.0387939E-5,5.0343573E-5,-7.8382686E-4,-2.8454018E-4,1.9227475E-4,4.374484E-4,7.4677373E-4,2.0134226E-4,-1.637128E-4,3.0484897E-4],"categories":[],"categories_nodes":[],"categories_segments":[],"categories_sizes":[],"default_left":[0,0,0,0,0,0,0,0,0,0,0,0,0,0,0,0,0,0,0,0,0,0,0,0,0,0,0,0,0,0,0,0,0,0,0,0,0,0,0],"id":46,"left_children":[1,3,5,7,9,11,13,15,-1,17,-1,19,21,23,25,-1,-1,-1,-1,27,-1,29,31,33,35,-1,37,-1,-1,-1,-1,-1,-1,-1,-1,-1,-1,-1,-1],"loss_changes":[1.7702302E-3,1.249836E-4,6.9332786E-4,9.816722E-6,3.1907286E-5,4.197426E-4,2.2382208E-4,2.3902394E-6,0E0,3.8959013E-5,0E0,3.4937315E-5,3.8243394E-4,2.6997644E-5,8.197552E-5,0E0,0E0,0E0,0E0,5.0124945E-6,0E0,3.8627586E-6,1.2603472E-5,8.155446E-6,3.0882657E-6,0E0,1.6459677E-4,0E0,0E0,0E0,0E0,0E0,0E0,0E0,0E0,0E0,0E0,0E0,0E0],"parents":[2147483647,0,0,1,1,2,2,3,3,4,4,5,5,6,6,7,7,9,9,11,11,12,12,13,13,14,14,19,19,21,21,22,22,23,23,24,24,26,26],